{"learner":{"attributes":{"scikit_learn":"{\"_estimator_type\": \"classifier\"}"},"feature_names":["satisfaction_level","last_evaluation","number_project","average_monthly_hours","tenure","work_accident","promotion_last_5years","salary","department_IT","department_RandD","department_accounting","department_hr","department_management","department_marketing","department_product_mng","department_sales","department_support","department_technical"],"feature_types":["float","float","int","int","int","int","int","int","i","i","i","i","i","i","i","i","i","i"],"gradient_booster":{"model":{"gbtree_model_param":{"num_parallel_tree":"1","num_trees":"100"},"iteration_indptr":[0,1,2,3,4,5,6,7,8,9,10,11,12,13,14,15,16,17,18,19,20,21,22,23,24,25,26,27,28,29,30,31,32,33,34,35,36,37,38,39,40,41,42,43,44,45,46,47,48,49,50,51,52,53,54,55,56,57,58,59,60,61,62,63,64,65,66,67,68,69,70,71,72,73,74,75,76,77,78,79,80,81,82,83,84,85,86,87,88,89,90,91,92,93,94,95,96,97,98,99,100],"tree_info":[0,0,0,0,0,0,0,0,0,0,0,0,0,0,0,0,0,0,0,0,0,0,0,0,0,0,0,0,0,0,0,0,0,0,0,0,0,0,0,0,0,0,0,0,0,0,0,0,0,0,0,0,0,0,0,0,0,0,0,0,0,0,0,0,0,0,0,0,0,0,0,0,0,0,0,0,0,0,0,0,0,0,0,0,0,0,0,0,0,0,0,0,0,0,0,0,0,0,0,0],"trees":[{"base_weights":[-2.8998811E-5,2.4258695E0,-7.391341E-1,4.559148E0,1.0885698E0,-1.1267596E0,1.6199696E0,5.283311E0,-7.63178E-1,5.737648E-1,-7.958499E-1,-1.1327076E0,6.170286E-2,-9.3909585E-1,3.5164585E0,-7.104073E-2,5.5328865E0,-9.171798E-2,-2.80512E-1,-8.532631E-1,1.5543945E-1,-1.8887296E-1,-1.135537E0,-9.7384024E-1,4.9333265E-3,-7.608233E-1,4.6237435E0,-8.233125E-3,5.683048E-1,-6.8118565E-2,4.638908E-2,-8.7669134E-2,1.25030605E-2,5.1219206E-2,-2.768561E-2,-4.2737916E-2,1.5582922E-2,-1.1422565E-1,-6.272536E-2,-1.01037E-1,2.1258908E-4,-9.2770785E-2,1.25030605E-2,-2.25085E-2,5.1208216E-1],"categories":[],"categories_nodes":[],"categories_segments":[],"categories_sizes":[],"default_left":[0,0,0,0,0,0,0,0,0,0,0,0,0,0,0,0,0,0,0,0,0,0,0,0,0,0,0,0,0,0,0,0,0,0,0,0,0,0,0,0,0,0,0,0,0],"id":0,"left_children":[1,3,5,7,9,11,13,15,17,-1,19,21,-1,23,25,-1,27,-1,29,31,33,35,37,39,-1,41,43,-1,-1,-1,-1,-1,-1,-1,-1,-1,-1,-1,-1,-1,-1,-1,-1,-1,-1],"loss_changes":[1.7821653E3,6.52256E2,7.003207E2,3.503662E2,1.2820967E3,8.196716E0,5.3237646E2,1.2518042E2,4.0597486E-1,0E0,6.0081787E0,1.3175659E0,0E0,1.7338943E0,3.037271E2,0E0,6.461304E1,0E0,2.3848119E0,2.499115E0,1.4675269E0,4.91134E-1,7.9260254E-1,1.6502457E0,0E0,2.3903065E0,1.2292407E2,0E0,0E0,0E0,0E0,0E0,0E0,0E0,0E0,0E0,0E0,0E0,0E0,0E0,0E0,0E0,0E0,0E0,0E0],"parents":[2147483647,0,0,1,1,2,2,3,3,4,4,5,5,6,6,7,7,8,8,10,10,11,11,13,13,14,14,16,16,18,18,19,19,20,20,21,21,22,22,23,23,25,25,26,26],"right_children":[2,4,6,8,10,12,14,16,18,-1,20,22,-1,24,26,-1,28,-1,30,32,34,36,38,40,-1,42,44,-1,-1,-1,-1,-1,-1,-1,-1,-1,-1,-1,-1,-1,-1,-1,-1,-1,-1],"split_conditions":[4.7E-1,3E0,5E0,5.8E-1,1.2E-1,2.86E2,8.2E-1,4.4E-1,4E0,5.737648E-1,2.77E2,4.8E-1,6.170286E-2,8.1E-1,2.17E2,-7.104073E-2,3.5E-1,-9.171798E-2,3.5E-1,9.9E-1,7.1E-1,4E0,6E0,2.75E2,4.9333265E-3,9.8E-1,7.2E-1,-8.233125E-3,5.683048E-1,-6.8118565E-2,4.638908E-2,-8.7669134E-2,1.25030605E-2,5.1219206E-2,-2.768561E-2,-4.2737916E-2,1.5582922E-2,-1.1422565E-1,-6.272536E-2,-1.01037E-1,2.1258908E-4,-9.2770785E-2,1.25030605E-2,-2.25085E-2,5.1208216E-1],"split_indices":[0,2,4,1,0,3,1,1,4,0,3,0,0,1,3,0,0,0,0,1,1,2,2,3,0,1,0,0,0,0,0,0,0,0,0,0,0,0,0,0,0,0,0,0,0],"split_type":[0,0,0,0,0,0,0,0,0,0,0,0,0,0,0,0,0,0,0,0,0,0,0,0,0,0,0,0,0,0,0,0,0,0,0,0,0,0,0,0,0,0,0,0,0],"sum_hessian":[9.8996063E2,2.3011392E2,7.598467E2,8.6811935E1,1.4330199E2,6.5351245E2,1.0633423E2,7.642773E1,1.0384202E1,4.015225E1,1.0314974E2,6.5198944E2,1.5230163E0,4.569049E1,6.064374E1,2.9075766E0,7.352015E1,6.5074334E0,3.8767688E0,9.7473045E1,5.6766973E0,2.3537526E0,6.496357E2,4.4167473E1,1.5230163E0,1.2599499E1,4.8044243E1,1.9383844E0,7.158177E1,2.6306646E0,1.2461042E0,9.53962E1,2.0768404E0,2.9075766E0,2.7691207E0,1.1076483E0,1.2461042E0,6.386977E2,1.0938026E1,4.2506E1,1.6614723E0,1.0522658E1,2.0768404E0,4.569049E0,4.3475193E1],"tree_param":{"num_deleted":"0","num_feature":"18","num_nodes":"45","size_leaf_vector":"1"}},{"base_weights":[-1.467002E-2,1.7865701E0,-7.022456E-1,3.0330098E0,8.796176E-1,-1.0920365E0,1.3056127E0,3.3928826E0,-8.880336E-1,3.703898E-1,-7.7052426E-1,-1.0966886E0,2.8808251E-2,-9.106416E-1,2.451138E0,-7.489884E-2,3.541919E0,-9.512031E-2,-1.3172807E-2,-8.347124E-1,1.9442369E-1,-1.1067762E-1,-4.516952E-1,-9.6818674E-1,-1.608441E-2,-5.2897936E-1,3.014209E0,-6.663226E-2,3.638361E-1,-8.810932E-2,-2.3875935E-2,-1.271573E-2,7.521884E-2,-7.637234E-2,4.861601E-3,-1.0087587E-1,-1.7218664E-2,5.4986626E-2,-5.083673E-2,-6.999558E-2,5.3192016E-2,-6.0362007E-2,3.3064264E-1],"categories":[],"categories_nodes":[],"categories_segments":[],"categories_sizes":[],"default_left":[0,0,0,0,0,0,0,0,0,0,0,0,0,0,0,0,0,0,0,0,0,0,0,0,0,0,0,0,0,0,0,0,0,0,0,0,0,0,0,0,0,0,0],"id":1,"left_children":[1,3,5,7,9,11,13,15,17,-1,19,21,-1,23,25,-1,27,-1,-1,29,31,-1,33,35,37,39,41,-1,-1,-1,-1,-1,-1,-1,-1,-1,-1,-1,-1,-1,-1,-1,-1],"loss_changes":[1.2445571E3,3.0850806E2,5.720296E2,1.698678E2,7.6775525E2,4.5491333E0,3.069375E2,7.121094E1,2.9145718E-1,0E0,6.819786E0,2.9591064E0,0E0,2.13377E0,1.3589621E2,0E0,4.681604E1,0E0,0E0,2.3075027E0,1.655416E0,0E0,2.0645173E0,9.2762756E-1,1.833875E0,3.332959E0,7.4629395E1,0E0,0E0,0E0,0E0,0E0,0E0,0E0,0E0,0E0,0E0,0E0,0E0,0E0,0E0,0E0,0E0],"parents":[2147483647,0,0,1,1,2,2,3,3,4,4,5,5,6,6,7,7,8,8,10,10,11,11,13,13,14,14,16,16,19,19,20,20,22,22,23,23,24,24,25,25,26,26],"right_children":[2,4,6,8,10,12,14,16,18,-1,20,22,-1,24,26,-1,28,-1,-1,30,32,-1,34,36,38,40,42,-1,-1,-1,-1,-1,-1,-1,-1,-1,-1,-1,-1,-1,-1,-1,-1],"split_conditions":[4.7E-1,3E0,5E0,5.8E-1,1.2E-1,2.84E2,8.1E-1,4.5E-1,4.5E-1,3.703898E-1,2.77E2,6E0,2.8808251E-2,2.73E2,2.17E2,-7.489884E-2,1.26E2,-9.512031E-2,-1.3172807E-2,9.5E-1,2.86E2,-1.1067762E-1,7E-1,1E0,5.8E-1,9.9E-1,4E0,-6.663226E-2,3.638361E-1,-8.810932E-2,-2.3875935E-2,-1.271573E-2,7.521884E-2,-7.637234E-2,4.861601E-3,-1.0087587E-1,-1.7218664E-2,5.4986626E-2,-5.083673E-2,-6.999558E-2,5.3192016E-2,-6.0362007E-2,3.3064264E-1],"split_indices":[0,2,4,1,0,3,1,1,0,0,3,2,0,3,3,0,3,0,0,1,3,0,1,9,0,1,2,0,0,0,0,0,0,0,0,0,0,0,0,0,0,0,0],"split_type":[0,0,0,0,0,0,0,0,0,0,0,0,0,0,0,0,0,0,0,0,0,0,0,0,0,0,0,0,0,0,0,0,0,0,0,0,0,0,0,0,0,0,0],"sum_hessian":[1.0008739E3,2.7562445E2,7.2524945E2,1.14111206E2,1.6151324E2,6.0810803E2,1.1714141E2,1.0476526E2,9.345947E0,5.8647182E1,1.0286606E2,6.064745E2,1.6335839E0,4.0055637E1,7.708577E1,3.3591812E0,1.01406075E2,8.149849E0,1.1960989E0,9.6703316E1,6.162748E0,5.9572546E2,1.0748984E1,3.7480003E1,2.5756323E0,1.2269445E1,6.481633E1,2.007122E0,9.939896E1,8.8832855E1,7.870458E0,4.8883824E0,1.2743657E0,5.971658E0,4.7773266E0,3.515366E1,2.326345E0,1.0893369E0,1.4862953E0,1.1152532E1,1.1169134E0,4.6847625E0,6.0131565E1],"tree_param":{"num_deleted":"0","num_feature":"18","num_nodes":"43","size_leaf_vector":"1"}},{"base_weights":[-2.0813769E-2,1.4919376E0,-6.7727745E-1,2.432739E0,7.5918496E-1,-1.0660623E0,1.1047856E0,2.6732588E0,-6.4085424E-1,2.870378E-1,-7.3917216E-1,-1.0802706E0,-2.6358503E-1,-8.2689065E-1,2.051864E0,-7.800367E-2,2.7871795E0,-8.703029E-1,3.4782276E-2,-7.9328644E-1,1.3139875E-1,-2.2884249E-3,-1.0836164E0,4.713724E-1,-5.404658E-1,-8.8281465E-1,2.0863136E-2,-6.153068E-1,2.481848E0,-5.984589E-2,2.8569037E-1,-9.501174E-2,-9.864146E-3,-8.18343E-2,4.0323306E-2,-1.085194E-1,-8.33837E-3,-1.5771039E-2,8.266001E-2,9.938114E-3,-7.474009E-2,-9.413229E-2,-1.9219114E-3,-8.033037E-2,4.308019E-2,-2.9643787E-2,2.690903E-1],"categories":[],"categories_nodes":[],"categories_segments":[],"categories_sizes":[],"default_left":[0,0,0,0,0,0,0,0,0,0,0,0,0,0,0,0,0,0,0,0,0,0,0,0,0,0,0,0,0,0,0,0,0,0,0,0,0,0,0,0,0,0,0,0,0,0,0],"id":2,"left_children":[1,3,5,7,9,11,13,15,17,-1,19,21,23,25,27,-1,29,31,-1,33,-1,-1,35,37,39,41,-1,43,45,-1,-1,-1,-1,-1,-1,-1,-1,-1,-1,-1,-1,-1,-1,-1,-1,-1,-1],"loss_changes":[9.6889136E2,1.9985706E2,4.737304E2,9.832794E1,5.3851215E2,5.8101196E0,2.2810251E2,5.133777E1,3.0848799E0,0E0,1.3236984E1,1.8931274E0,3.028762E0,2.7910423E0,9.82352E1,0E0,3.0818237E1,3.9410114E-1,0E0,3.6293983E0,0E0,0E0,6.8273926E-1,1.2564808E0,1.4625485E0,1.988636E0,0E0,3.2733393E0,4.3337982E1,0E0,0E0,0E0,0E0,0E0,0E0,0E0,0E0,0E0,0E0,0E0,0E0,0E0,0E0,0E0,0E0,0E0,0E0],"parents":[2147483647,0,0,1,1,2,2,3,3,4,4,5,5,6,6,7,7,8,8,10,10,11,11,12,12,13,13,14,14,16,16,17,17,19,19,22,22,23,23,24,24,25,25,27,27,28,28],"right_children":[2,4,6,8,10,12,14,16,18,-1,20,22,24,26,28,-1,30,32,-1,34,-1,-1,36,38,40,42,-1,44,46,-1,-1,-1,-1,-1,-1,-1,-1,-1,-1,-1,-1,-1,-1,-1,-1,-1,-1],"split_conditions":[4.7E-1,3E0,5E0,1.62E2,1.2E-1,6E0,8.2E-1,1.26E2,2.41E2,2.870378E-1,2.87E2,4.8E-1,6E-1,8.1E-1,2.17E2,-7.800367E-2,3.6E-1,8.6E-1,3.4782276E-2,1E0,1.3139875E-1,-2.2884249E-3,2.86E2,1.97E2,1.62E2,2.73E2,2.0863136E-2,9.9E-1,7.1E-1,-5.984589E-2,2.8569037E-1,-9.501174E-2,-9.864146E-3,-8.18343E-2,4.0323306E-2,-1.085194E-1,-8.33837E-3,-1.5771039E-2,8.266001E-2,9.938114E-3,-7.474009E-2,-9.413229E-2,-1.9219114E-3,-8.033037E-2,4.308019E-2,-2.9643787E-2,2.690903E-1],"split_indices":[0,2,4,3,0,2,1,3,3,0,3,0,0,1,3,0,0,1,0,1,0,0,3,3,3,3,0,1,0,0,0,0,0,0,0,0,0,0,0,0,0,0,0,0,0,0,0],"split_type":[0,0,0,0,0,0,0,0,0,0,0,0,0,0,0,0,0,0,0,0,0,0,0,0,0,0,0,0,0,0,0,0,0,0,0,0,0,0,0,0,0,0,0,0,0,0,0],"sum_hessian":[9.716213E2,2.932688E2,6.783525E2,1.2637388E2,1.6689491E2,5.5752356E2,1.2082891E2,1.1744397E2,8.929912E0,6.851939E1,9.837553E1,5.4714374E2,1.0379831E1,3.983487E1,8.099404E1,3.3771677E0,1.140668E2,7.4422097E0,1.4877021E0,9.7045006E1,1.3305218E0,1.7752743E0,5.4536847E2,2.4559188E0,7.9239125E0,3.807362E1,1.7612503E0,1.1124892E1,6.986915E1,1.995656E0,1.12071144E2,6.3254333E0,1.1167761E0,9.5673615E1,1.3713913E0,5.4434E2,1.0284046E0,1.2876477E0,1.1682712E0,2.1904614E0,5.7334514E0,3.548923E1,2.58439E0,9.823678E0,1.301214E0,4.8309593E0,6.503819E1],"tree_param":{"num_deleted":"0","num_feature":"18","num_nodes":"47","size_leaf_vector":"1"}},{"base_weights":[-3.6562975E-2,1.2857615E0,-6.513435E-1,1.5763564E0,-3.013973E-1,-1.035614E0,9.3057626E-1,-7.3538053E-1,1.7442436E0,1.9321936E-1,-7.8974545E-1,-1.0427982E0,6.405582E-2,-9.3273246E-1,1.6818485E0,3.1844735E-2,-8.6599374E-1,-9.1843314E-2,1.8360894E0,-8.679327E-1,2.4628937E-1,-1.0539312E0,-4.0039933E-1,-9.7422175E-2,-7.5887623E-3,-6.646354E-1,2.0067253E0,-1.0075039E-1,-1.2683245E-2,-8.6496554E-2,1.9130932E-1,-1.02277175E-1,-2.0359246E-2,9.092879E-2,-4.9381558E-2,-7.565737E-2,-1.0692302E-1,-5.6308847E-2,2.7762556E-2,4.0673528E-2,-8.682993E-2,-6.7524515E-2,2.2030321E-1],"categories":[],"categories_nodes":[],"categories_segments":[],"categories_sizes":[],"default_left":[0,0,0,0,0,0,0,0,0,0,0,0,0,0,0,0,0,0,0,0,0,0,0,0,0,0,0,0,0,0,0,0,0,0,0,0,0,0,0,0,0,0,0],"id":3,"left_children":[1,3,5,7,9,11,13,15,17,-1,19,21,-1,23,25,-1,27,-1,29,31,33,35,37,-1,-1,39,41,-1,-1,-1,-1,-1,-1,-1,-1,-1,-1,-1,-1,-1,-1,-1,-1],"loss_changes":[7.7029584E2,1.3965826E2,3.9507236E2,1.01347595E2,5.5649597E1,7.6133423E0,1.8155157E2,3.117176E0,6.154779E1,0E0,3.7478333E0,2.8737183E0,0E0,1.1997833E0,7.245288E1,0E0,1.5353594E0,0E0,5.1275696E1,3.5495186E0,3.0738533E0,7.0098877E-1,1.6452378E0,0E0,0E0,3.4633856E0,4.5572357E1,0E0,0E0,0E0,0E0,0E0,0E0,0E0,0E0,0E0,0E0,0E0,0E0,0E0,0E0,0E0,0E0],"parents":[2147483647,0,0,1,1,2,2,3,3,4,4,5,5,6,6,7,7,8,8,10,10,11,11,13,13,14,14,16,16,18,18,19,19,20,20,21,21,22,22,25,25,26,26],"right_children":[2,4,6,8,10,12,14,16,18,-1,20,22,-1,24,26,-1,28,-1,30,32,34,36,38,-1,-1,40,42,-1,-1,-1,-1,-1,-1,-1,-1,-1,-1,-1,-1,-1,-1,-1,-1],"split_conditions":[4.7E-1,5E0,5E0,3E0,1.2E-1,2.86E2,8.1E-1,1.6E-1,1.26E2,1.9321936E-1,2.77E2,6E0,6.405582E-2,2.75E2,2.16E2,3.1844735E-2,2.37E2,-9.1843314E-2,4.5E-1,6E0,2.83E2,3E0,1E0,-9.7422175E-2,-7.5887623E-3,3E0,4E0,-1.0075039E-1,-1.2683245E-2,-8.6496554E-2,1.9130932E-1,-1.02277175E-1,-2.0359246E-2,9.092879E-2,-4.9381558E-2,-7.565737E-2,-1.0692302E-1,-5.6308847E-2,2.7762556E-2,4.0673528E-2,-8.682993E-2,-6.7524515E-2,2.2030321E-1],"split_indices":[0,4,4,4,0,3,1,0,3,0,3,2,0,3,3,0,3,0,1,2,3,2,17,0,0,2,2,0,0,0,0,0,0,0,0,0,0,0,0,0,0,0,0],"split_type":[0,0,0,0,0,0,0,0,0,0,0,0,0,0,0,0,0,0,0,0,0,0,0,0,0,0,0,0,0,0,0,0,0,0,0,0,0,0,0,0,0,0,0],"sum_hessian":[9.4348364E2,2.987414E2,6.4474225E2,2.5252068E2,4.6220722E1,5.192901E2,1.2545214E2,1.6639624E1,2.3588106E2,7.231651E0,3.898907E1,5.178264E2,1.4637142E0,3.5908543E1,8.9543594E1,1.5177499E0,1.5121873E1,7.2649593E0,2.286161E2,3.6554867E1,2.4342022E0,5.0774576E2,1.0080635E1,3.3988796E1,1.9197466E0,1.0635451E1,7.890814E1,1.208262E1,3.0392535E0,5.7696276E0,2.2284647E2,2.8770267E1,7.7846E0,1.0428305E0,1.3913717E0,2.9782667E1,4.779631E2,8.403326E0,1.677309E0,1.3802879E0,9.255163E0,5.0489645E0,7.3859184E1],"tree_param":{"num_deleted":"0","num_feature":"18","num_nodes":"43","size_leaf_vector":"1"}},{"base_weights":[-5.1819716E-2,1.1039344E0,-6.219167E-1,1.8005916E0,5.044226E-1,-1.0319865E0,8.98203E-1,2.0138218E0,-7.451924E-1,2.1496165E-1,-7.523605E-1,-1.0458999E0,-3.303528E-1,-8.215169E-1,1.5589819E0,-6.544339E-2,2.0763311E0,-8.396563E-2,-1.9534855E-1,-7.9896826E-1,1.1006653E-1,-1.0496027E0,9.336669E-3,4.2283478E-1,-6.173598E-1,-8.8176036E-1,4.090068E-2,1.7954618E0,-1.03401735E-1,-5.5803787E-2,2.1188675E-1,-4.6875995E-2,2.2346219E-2,-8.31515E-2,2.1665212E-2,-4.884667E-3,-1.0534196E-1,-2.1388566E-2,8.6789295E-2,-5.4490804E-3,-7.385869E-2,-5.2149594E-2,-1.041819E-1,5.444671E-2,-4.596853E-2,-4.0008053E-2,1.9752859E-1],"categories":[],"categories_nodes":[],"categories_segments":[],"categories_sizes":[],"default_left":[0,0,0,0,0,0,0,0,0,0,0,0,0,0,0,0,0,0,0,0,0,0,0,0,0,0,0,0,0,0,0,0,0,0,0,0,0,0,0,0,0,0,0,0,0,0,0],"id":4,"left_children":[1,3,5,7,9,11,13,15,17,-1,19,21,23,25,27,-1,29,-1,31,33,-1,35,-1,37,39,41,43,45,-1,-1,-1,-1,-1,-1,-1,-1,-1,-1,-1,-1,-1,-1,-1,-1,-1,-1,-1],"loss_changes":[6.0307855E2,1.244733E2,3.8386407E2,7.8499146E1,3.4501562E2,4.029602E0,1.5172525E2,2.421228E1,3.06067E-1,0E0,9.980179E0,2.1923218E0,3.1865845E0,2.033245E0,6.228444E1,0E0,1.6528748E1,0E0,7.129124E-1,3.4680176E0,0E0,1.6994629E0,0E0,1.6713803E0,5.8397985E-1,9.529743E-1,1.6036425E0,3.642914E1,0E0,0E0,0E0,0E0,0E0,0E0,0E0,0E0,0E0,0E0,0E0,0E0,0E0,0E0,0E0,0E0,0E0,0E0,0E0],"parents":[2147483647,0,0,1,1,2,2,3,3,4,4,5,5,6,6,7,7,8,8,10,10,11,11,12,12,13,13,14,14,16,16,18,18,19,19,21,21,23,23,24,24,25,25,26,26,27,27],"right_children":[2,4,6,8,10,12,14,16,18,-1,20,22,24,26,28,-1,30,-1,32,34,-1,36,-1,38,40,42,44,46,-1,-1,-1,-1,-1,-1,-1,-1,-1,-1,-1,-1,-1,-1,-1,-1,-1,-1,-1],"split_conditions":[4.7E-1,3E0,5E0,5.8E-1,1.2E-1,6E0,8.2E-1,4.5E-1,2.12E2,2.1496165E-1,2.87E2,2.86E2,6E-1,2.73E2,7E0,-6.544339E-2,1.25E2,-8.396563E-2,3.4E-1,9.9E-1,1.1006653E-1,4.8E-1,9.336669E-3,1.97E2,1.62E2,6E0,5.9E-1,2.06E2,-1.03401735E-1,-5.5803787E-2,2.1188675E-1,-4.6875995E-2,2.2346219E-2,-8.31515E-2,2.1665212E-2,-4.884667E-3,-1.0534196E-1,-2.1388566E-2,8.6789295E-2,-5.4490804E-3,-7.385869E-2,-5.2149594E-2,-1.041819E-1,5.444671E-2,-4.596853E-2,-4.0008053E-2,1.9752859E-1],"split_indices":[0,2,4,1,0,2,1,1,3,0,3,3,0,3,4,0,3,0,0,1,0,0,0,3,3,4,0,3,0,0,0,0,0,0,0,0,0,0,0,0,0,0,0,0,0,0,0],"split_type":[0,0,0,0,0,0,0,0,0,0,0,0,0,0,0,0,0,0,0,0,0,0,0,0,0,0,0,0,0,0,0,0,0,0,0,0,0,0,0,0,0,0,0,0,0,0,0],"sum_hessian":[9.11208E2,3.003789E2,6.108291E2,1.3707977E2,1.6329913E2,4.815639E2,1.2926518E2,1.26871185E2,1.0208584E1,7.010598E1,9.319316E1,4.7123795E2,1.0325949E1,3.5746387E1,9.35188E1,2.4706635E0,1.2440052E2,7.8122644E0,2.3963196E0,9.20164E1,1.176755E0,4.698682E2,1.3697658E0,2.587943E0,7.7380056E0,3.3370464E1,2.3759234E0,8.6266495E1,7.2523003E0,1.5915877E0,1.2280894E2,1.3055145E0,1.0908052E0,8.951049E1,2.505915E0,1.8901119E0,4.679781E2,1.4921076E0,1.0958353E0,1.8849566E0,5.853049E0,1.2884955E1,2.0485508E1,1.0970364E0,1.278887E0,6.3452415E0,7.992126E1],"tree_param":{"num_deleted":"0","num_feature":"18","num_nodes":"47","size_leaf_vector":"1"}},{"base_weights":[-2.259592E-2,1.0543898E0,-6.005463E-1,1.2753972E0,-2.937756E-1,-1.0002192E0,7.929973E-1,-6.7976207E-1,1.3978122E0,1.5799963E-1,-7.844794E-1,-1.0169094E0,-2.4497609E-1,-7.635483E-1,1.3107725E0,3.2313414E-2,-8.173339E-1,-8.902844E-2,1.4669964E0,-9.273141E-1,-2.1481337E-1,-1.0247422E0,-2.5293362E-1,-4.5626244E-1,4.385833E-2,-8.226253E-1,-6.554467E-2,1.5161321E0,-1.0256018E-1,-8.9516565E-2,-2.3525525E-2,-7.931524E-2,1.5173775E-1,-1.0139226E-1,-1.007017E-2,-4.8817698E-2,4.5551237E-2,6.204631E-3,-1.0289174E-1,-6.446079E-2,2.5761558E-2,-7.6454185E-2,-3.6737067E-3,-4.271585E-2,-1.0062027E-1,4.339649E-2,-4.997937E-2,-2.7684689E-2,1.6884288E-1],"categories":[],"categories_nodes":[],"categories_segments":[],"categories_sizes":[],"default_left":[0,0,0,0,0,0,0,0,0,0,0,0,0,0,0,0,0,0,0,0,0,0,0,0,0,0,0,0,0,0,0,0,0,0,0,0,0,0,0,0,0,0,0,0,0,0,0,0,0],"id":5,"left_children":[1,3,5,7,9,11,13,15,17,-1,19,21,23,25,27,-1,29,-1,31,33,35,37,39,41,-1,43,45,47,-1,-1,-1,-1,-1,-1,-1,-1,-1,-1,-1,-1,-1,-1,-1,-1,-1,-1,-1,-1,-1],"loss_changes":[5.4863824E2,9.246979E1,3.2103552E2,6.529031E1,4.3838306E1,5.131317E0,1.05927895E2,2.8669863E0,4.2171448E1,0E0,2.6108513E0,2.0925598E0,2.175354E0,1.2715607E0,4.9889572E1,0E0,2.7981377E-1,0E0,3.0113647E1,1.8695297E0,2.28028E0,2.0844116E0,1.7485992E0,1.2848706E0,0E0,1.3668346E0,1.4713706E0,2.8870422E1,0E0,0E0,0E0,0E0,0E0,0E0,0E0,0E0,0E0,0E0,0E0,0E0,0E0,0E0,0E0,0E0,0E0,0E0,0E0,0E0,0E0],"parents":[2147483647,0,0,1,1,2,2,3,3,4,4,5,5,6,6,7,7,8,8,10,10,11,11,12,12,13,13,14,14,16,16,18,18,19,19,20,20,21,21,22,22,23,23,25,25,26,26,27,27],"right_children":[2,4,6,8,10,12,14,16,18,-1,20,22,24,26,28,-1,30,-1,32,34,36,38,40,42,-1,44,46,48,-1,-1,-1,-1,-1,-1,-1,-1,-1,-1,-1,-1,-1,-1,-1,-1,-1,-1,-1,-1,-1],"split_conditions":[4.7E-1,5E0,5E0,3E0,1.2E-1,6E0,8.1E-1,1.6E-1,1.26E2,1.5799963E-1,6E0,2.75E2,2.52E2,2.73E2,7E0,3.2313414E-2,2.37E2,-8.902844E-2,4.5E-1,2.7E2,3E-1,4.8E-1,7E-1,6.8E-1,4.385833E-2,6E0,5.8E-1,7.1E-1,-1.0256018E-1,-8.9516565E-2,-2.3525525E-2,-7.931524E-2,1.5173775E-1,-1.0139226E-1,-1.007017E-2,-4.8817698E-2,4.5551237E-2,6.204631E-3,-1.0289174E-1,-6.446079E-2,2.5761558E-2,-7.6454185E-2,-3.6737067E-3,-4.271585E-2,-1.0062027E-1,4.339649E-2,-4.997937E-2,-2.7684689E-2,1.6884288E-1],"split_indices":[0,4,4,4,0,2,1,0,3,0,2,3,3,3,4,0,3,0,1,3,0,0,0,1,0,4,0,0,0,0,0,0,0,0,0,0,0,0,0,0,0,0,0,0,0,0,0,0,0],"split_type":[0,0,0,0,0,0,0,0,0,0,0,0,0,0,0,0,0,0,0,0,0,0,0,0,0,0,0,0,0,0,0,0,0,0,0,0,0,0,0,0,0,0,0,0,0,0,0,0,0],"sum_hessian":[8.773908E2,3.0583383E2,5.7155695E2,2.6285196E2,4.2981884E1,4.4460675E2,1.2695021E2,1.495126E1,2.4790068E2,7.998724E0,3.4983162E1,4.3431583E2,1.0290907E1,3.145132E1,9.549889E1,1.4781184E0,1.3473141E1,6.5790234E0,2.4132166E2,2.6966175E1,8.016985E0,4.2923236E2,5.083485E0,8.369084E0,1.9218217E0,2.8667873E1,2.7834463E0,8.842847E1,7.070421E0,1.0935202E1,2.537939E0,4.6190624E0,2.367026E2,2.3998526E1,2.96765E0,6.0806966E0,1.9362881E0,1.5365844E0,4.2769577E2,2.5794628E0,2.5040224E0,3.8760533E0,4.4930315E0,1.1198189E1,1.7469685E1,1.2950639E0,1.4883825E0,7.6461706E0,8.0782295E1],"tree_param":{"num_deleted":"0","num_feature":"18","num_nodes":"49","size_leaf_vector":"1"}},{"base_weights":[-4.0372066E-2,9.2967737E-1,-5.8559316E-1,1.4925312E0,4.3118253E-1,-9.841626E-1,6.8223494E-1,1.6590858E0,-6.451157E-1,1.7907667E-1,-7.167638E-1,-9.9969715E-1,-3.0590466E-1,-8.5694486E-1,1.196886E0,-7.138255E-2,1.7219123E0,-8.9992315E-1,1.4600772E-1,-7.629433E-1,8.775956E-2,-1.0040087E0,1.5989326E-2,-6.3960534E-1,5.8111273E-2,-8.967348E-1,-1.4718802E-3,-6.676244E-1,1.4137465E0,-5.568875E-2,1.7612919E-1,-9.844101E-2,-8.880613E-3,4.941545E-2,-2.394394E-2,-8.53061E-2,-3.9664216E-2,2.1034707E-3,-1.008387E-1,-7.231719E-2,-7.196167E-3,4.5638833E-2,-5.6076527E-2,-9.429351E-2,-8.918869E-3,-3.8281349E-3,-9.1930784E-2,-6.1621305E-2,1.5601763E-1],"categories":[],"categories_nodes":[],"categories_segments":[],"categories_sizes":[],"default_left":[0,0,0,0,0,0,0,0,0,0,0,0,0,0,0,0,0,0,0,0,0,0,0,0,0,0,0,0,0,0,0,0,0,0,0,0,0,0,0,0,0,0,0,0,0,0,0,0,0],"id":6,"left_children":[1,3,5,7,9,11,13,15,17,-1,19,21,23,25,27,-1,29,31,33,35,-1,37,-1,39,41,43,-1,45,47,-1,-1,-1,-1,-1,-1,-1,-1,-1,-1,-1,-1,-1,-1,-1,-1,-1,-1,-1,-1],"loss_changes":[4.4538562E2,8.373947E1,2.7371625E2,5.2526306E1,2.5777744E2,3.717926E0,1.0511098E2,2.2114655E1,2.6151714E0,0E0,7.972061E0,2.3250427E0,1.5420166E0,1.1051979E0,4.1648758E1,0E0,1.3541016E1,4.491644E-1,8.4905285E-1,2.2487335E0,0E0,1.835846E0,0E0,2.0284247E-1,2.3881285E0,1.0335255E0,0E0,1.7676692E0,2.8298004E1,0E0,0E0,0E0,0E0,0E0,0E0,0E0,0E0,0E0,0E0,0E0,0E0,0E0,0E0,0E0,0E0,0E0,0E0,0E0,0E0],"parents":[2147483647,0,0,1,1,2,2,3,3,4,4,5,5,6,6,7,7,8,8,10,10,11,11,12,12,13,13,14,14,16,16,17,17,18,18,19,19,21,21,23,23,24,24,25,25,27,27,28,28],"right_children":[2,4,6,8,10,12,14,16,18,-1,20,22,24,26,28,-1,30,32,34,36,-1,38,-1,40,42,44,-1,46,48,-1,-1,-1,-1,-1,-1,-1,-1,-1,-1,-1,-1,-1,-1,-1,-1,-1,-1,-1,-1],"split_conditions":[4.7E-1,3E0,5E0,1.62E2,1.2E-1,6E0,8.2E-1,3.6E-1,2.47E2,1.7907667E-1,2.87E2,2.86E2,6.3E-1,8.1E-1,7.1E-1,-7.138255E-2,1.26E2,7.6E-1,2.5E2,6E0,8.775956E-2,4.8E-1,1.5989326E-2,2.37E2,1E0,2.75E2,-1.4718802E-3,1E0,4E0,-5.568875E-2,1.7612919E-1,-9.844101E-2,-8.880613E-3,4.941545E-2,-2.394394E-2,-8.53061E-2,-3.9664216E-2,2.1034707E-3,-1.008387E-1,-7.231719E-2,-7.196167E-3,4.5638833E-2,-5.6076527E-2,-9.429351E-2,-8.918869E-3,-3.8281349E-3,-9.1930784E-2,-6.1621305E-2,1.5601763E-1],"split_indices":[0,2,4,3,0,2,1,0,3,0,3,3,1,1,0,0,3,1,3,2,0,0,0,3,5,3,0,7,2,0,0,0,0,0,0,0,0,0,0,0,0,0,0,0,0,0,0,0,0],"split_type":[0,0,0,0,0,0,0,0,0,0,0,0,0,0,0,0,0,0,0,0,0,0,0,0,0,0,0,0,0,0,0,0,0,0,0,0,0,0,0,0,0,0,0,0,0,0,0,0,0],"sum_hessian":[8.3805304E2,3.0103885E2,5.370142E2,1.3951894E2,1.615199E2,4.0891144E2,1.2810277E2,1.2984947E2,9.669468E0,7.343103E1,8.8088875E1,3.98829E2,1.0082417E1,3.1766796E1,9.6335976E1,2.8147502E0,1.2703472E2,7.105768E0,2.5636992E0,8.662285E1,1.4660221E0,3.9761896E2,1.2100635E0,4.470269E0,5.6121473E0,3.0210117E1,1.5566782E0,9.604223E0,8.673175E1,1.7114961E0,1.2532323E2,6.0484586E0,1.0573099E0,1.0506573E0,1.5130421E0,6.7386635E1,1.923622E1,1.6587633E0,3.9596017E2,3.4189632E0,1.0513061E0,3.7341487E0,1.8779987E0,2.8258139E1,1.9519795E0,3.4018877E0,6.2023354E0,5.403695E0,8.132806E1],"tree_param":{"num_deleted":"0","num_feature":"18","num_nodes":"49","size_leaf_vector":"1"}},{"base_weights":[-2.9490273E-2,8.727261E-1,-5.576669E-1,1.348568E0,4.319173E-1,-9.672584E-1,6.790707E-1,-9.012189E-1,1.515169E0,1.6552822E-1,-6.237192E-1,-9.741698E-1,3.719293E-2,-7.9403377E-1,1.0953051E0,-1.4318408E-2,-9.617874E-2,1.5947154E0,-4.7731873E-1,-6.834442E-1,1.319662E-1,-9.885354E-1,-3.2750157E-1,-8.3711493E-1,-1.3403188E-1,-5.685208E-1,1.2996976E0,-5.183783E-2,1.6296852E-1,-6.847515E-2,2.2408254E-2,-7.122394E-2,5.386423E-2,-6.344157E-2,-1.007463E-1,2.314693E-2,-6.1086547E-2,-8.620163E-2,-1.3607872E-2,-4.1929E-2,2.4460508E-2,9.134683E-3,-7.3883876E-2,-6.713318E-2,1.4396212E-1],"categories":[],"categories_nodes":[],"categories_segments":[],"categories_sizes":[],"default_left":[0,0,0,0,0,0,0,0,0,0,0,0,0,0,0,0,0,0,0,0,0,0,0,0,0,0,0,0,0,0,0,0,0,0,0,0,0,0,0,0,0,0,0,0,0],"id":7,"left_children":[1,3,5,7,9,11,13,15,17,-1,19,21,-1,23,25,-1,-1,27,29,31,-1,33,35,37,39,41,43,-1,-1,-1,-1,-1,-1,-1,-1,-1,-1,-1,-1,-1,-1,-1,-1,-1,-1],"loss_changes":[3.8148917E2,6.0845764E1,2.5706476E2,5.566446E1,2.040552E2,4.2427063E0,7.947836E1,2.2920609E-1,2.2480804E1,0E0,1.1717533E1,2.8704834E0,0E0,6.027641E-1,3.5381035E1,0E0,0E0,1.1119873E1,1.2694383E0,3.7297096E0,0E0,1.1982117E0,2.0600684E0,2.3545647E-1,6.5485096E-1,1.517163E0,2.6587555E1,0E0,0E0,0E0,0E0,0E0,0E0,0E0,0E0,0E0,0E0,0E0,0E0,0E0,0E0,0E0,0E0,0E0,0E0],"parents":[2147483647,0,0,1,1,2,2,3,3,4,4,5,5,6,6,7,7,8,8,10,10,11,11,13,13,14,14,17,17,18,18,19,19,21,21,22,22,23,23,24,24,25,25,26,26],"right_children":[2,4,6,8,10,12,14,16,18,-1,20,22,-1,24,26,-1,-1,28,30,32,-1,34,36,38,40,42,44,-1,-1,-1,-1,-1,-1,-1,-1,-1,-1,-1,-1,-1,-1,-1,-1,-1,-1],"split_conditions":[4.7E-1,3E0,5E0,3.6E-1,1.2E-1,2.86E2,8.1E-1,1.6E-1,1.62E2,1.6552822E-1,2.88E2,6E0,3.719293E-2,2.73E2,2.17E2,-1.4318408E-2,-9.617874E-2,1.25E2,2.47E2,1E0,1.319662E-1,3E0,6.5E-1,1E0,6.1E-1,6E-1,7.2E-1,-5.183783E-2,1.6296852E-1,-6.847515E-2,2.2408254E-2,-7.122394E-2,5.386423E-2,-6.344157E-2,-1.007463E-1,2.314693E-2,-6.1086547E-2,-8.620163E-2,-1.3607872E-2,-4.1929E-2,2.4460508E-2,9.134683E-3,-7.3883876E-2,-6.713318E-2,1.4396212E-1],"split_indices":[0,2,4,0,0,3,1,0,3,0,3,2,0,3,3,0,0,3,3,1,0,2,0,9,1,0,0,0,0,0,0,0,0,0,0,0,0,0,0,0,0,0,0,0,0],"split_type":[0,0,0,0,0,0,0,0,0,0,0,0,0,0,0,0,0,0,0,0,0,0,0,0,0,0,0,0,0,0,0,0,0,0,0,0,0,0,0,0,0,0,0,0,0],"sum_hessian":[7.9651447E2,2.9363345E2,5.02881E2,1.3922499E2,1.5440846E2,3.7809622E2,1.2478478E2,8.991018E0,1.3023398E2,7.099597E1,8.341249E1,3.7669727E2,1.398964E0,2.7091022E1,9.769376E1,1.1630516E0,7.827967E0,1.2561818E2,4.615801E0,8.2183426E1,1.2290609E0,3.6747653E2,9.220725E0,2.4927212E1,2.16381E0,1.0298381E1,8.7395386E1,1.5949358E0,1.2402324E2,3.598928E0,1.0168729E0,8.110676E1,1.0766733E0,2.214762E1,3.4532892E2,3.2250953E0,5.9956293E0,2.3628641E1,1.2985698E0,1.1116099E0,1.0522002E0,2.3030288E0,7.995352E0,5.289479E0,8.21059E1],"tree_param":{"num_deleted":"0","num_feature":"18","num_nodes":"45","size_leaf_vector":"1"}},{"base_weights":[-4.095021E-2,8.048199E-1,-5.568984E-1,1.555336E-1,5.4028666E-1,-9.3336344E-1,5.5540097E-1,1.2657671E0,-6.37354E-1,-9.408275E-1,4.3742884E-2,-7.784157E-1,9.459974E-1,1.4201332E0,-7.334102E-1,-6.976043E-1,1.24319494E-1,-9.5609736E-1,-2.5865915E-1,-9.11606E-2,-1.6584656E-1,1.1130193E0,-1.02255024E-1,1.4834604E-1,-5.781416E-2,-8.516546E-2,-8.42788E-3,-7.237645E-2,2.5533421E-2,6.3491734E-3,-9.611328E-2,-4.475136E-2,3.9107244E-2,2.8147414E-2,-3.906763E-2,-3.655314E-2,1.2463837E-1],"categories":[],"categories_nodes":[],"categories_segments":[],"categories_sizes":[],"default_left":[0,0,0,0,0,0,0,0,0,0,0,0,0,0,0,0,0,0,0,0,0,0,0,0,0,0,0,0,0,0,0,0,0,0,0,0,0],"id":8,"left_children":[1,3,5,-1,7,9,11,13,15,17,-1,19,21,23,25,27,-1,29,31,-1,33,35,-1,-1,-1,-1,-1,-1,-1,-1,-1,-1,-1,-1,-1,-1,-1],"loss_changes":[3.2865186E2,5.498204E1,1.9687701E2,0E0,1.8452023E2,4.4059143E0,6.3739914E1,4.3172623E1,1.11320915E1,3.1398315E0,0E0,1.9959068E0,3.296853E1,1.7442688E1,6.9023275E-1,2.4050102E0,0E0,1.8703308E0,1.6237915E0,0E0,9.7177047E-1,1.8067535E1,0E0,0E0,0E0,0E0,0E0,0E0,0E0,0E0,0E0,0E0,0E0,0E0,0E0,0E0,0E0],"parents":[2147483647,0,0,1,1,2,2,4,4,5,5,6,6,7,7,8,8,9,9,11,11,12,12,13,13,14,14,15,15,17,17,18,18,20,20,21,21],"right_children":[2,4,6,-1,8,10,12,14,16,18,-1,20,22,24,26,28,-1,30,32,-1,34,36,-1,-1,-1,-1,-1,-1,-1,-1,-1,-1,-1,-1,-1,-1,-1],"split_conditions":[4.7E-1,1.2E-1,5E0,1.555336E-1,3E0,2.86E2,8.1E-1,1.62E2,2.88E2,6E0,4.3742884E-2,2.55E2,7E0,5.8E-1,2.47E2,1E0,1.24319494E-1,4.8E-1,2.52E2,-9.11606E-2,5.8E-1,4E0,-1.02255024E-1,1.4834604E-1,-5.781416E-2,-8.516546E-2,-8.42788E-3,-7.237645E-2,2.5533421E-2,6.3491734E-3,-9.611328E-2,-4.475136E-2,3.9107244E-2,2.8147414E-2,-3.906763E-2,-3.655314E-2,1.2463837E-1],"split_indices":[0,0,4,0,2,3,1,3,3,2,0,3,4,1,3,1,0,0,3,0,0,2,0,0,0,0,0,0,0,0,0,0,0,0,0,0,0],"split_type":[0,0,0,0,0,0,0,0,0,0,0,0,0,0,0,0,0,0,0,0,0,0,0,0,0,0,0,0,0,0,0,0,0,0,0,0,0],"sum_hessian":[7.490892E2,2.8340182E2,4.6568735E2,7.131436E1,2.1208746E2,3.48169E2,1.1751834E2,1.3114592E2,8.094154E1,3.4690738E2,1.2616168E0,2.6169258E1,9.134908E1,1.2228313E2,8.862789E0,7.964782E1,1.2937253E0,3.3852658E2,8.380783E0,2.0693544E1,5.475714E0,8.5005936E1,6.3431525E0,1.19026344E2,3.2567878E0,6.9692945E0,1.8934941E0,7.798787E1,1.6599519E0,1.5495492E0,3.3697705E2,6.975665E0,1.4051176E0,1.6630423E0,3.8126721E0,6.7450366E0,7.8260895E1],"tree_param":{"num_deleted":"0","num_feature":"18","num_nodes":"37","size_leaf_vector":"1"}},{"base_weights":[-4.04275E-2,7.49869E-1,-5.2938575E-1,1.182718E0,3.412649E-1,-9.288081E-1,6.009116E-1,1.3286213E0,-7.571736E-1,1.4455098E0,-6.5801233E-1,-9.5146996E-1,-4.1678082E-2,-6.1659914E-1,9.7296864E-1,-6.944147E-2,1.3861766E0,-8.949118E-2,-9.445766E-3,1.4640383E-1,1.728248E-2,-8.403412E-1,-3.137547E-1,-2.0533758E-1,-9.64682E-1,-5.340349E-1,3.6695403E-1,-2.4429964E-1,-8.169296E-1,1.1183906E0,-9.535753E-2,-3.588666E-2,1.4324993E-1,-1.8085476E-2,-8.8559814E-2,-5.0582834E-2,4.1260984E-2,-4.304458E-2,2.8339708E-2,-9.755672E-2,-1.1103201E-2,-6.1504222E-2,-6.291853E-3,8.021567E-2,-4.906611E-2,-7.24297E-2,1.2271243E-2,-9.654998E-2,2.5126612E-2,-1.2807726E-2,1.23407125E-1],"categories":[],"categories_nodes":[],"categories_segments":[],"categories_sizes":[],"default_left":[0,0,0,0,0,0,0,0,0,0,0,0,0,0,0,0,0,0,0,0,0,0,0,0,0,0,0,0,0,0,0,0,0,0,0,0,0,0,0,0,0,0,0,0,0,0,0,0,0,0,0],"id":9,"left_children":[1,3,5,7,9,11,13,15,17,19,21,23,25,27,29,-1,31,-1,-1,-1,-1,33,35,37,39,41,43,45,47,49,-1,-1,-1,-1,-1,-1,-1,-1,-1,-1,-1,-1,-1,-1,-1,-1,-1,-1,-1,-1,-1],"loss_changes":[2.734552E2,4.7038834E1,1.9844305E2,3.8963486E1,1.5855963E2,6.429199E0,5.3446766E1,1.6147598E1,7.808409E-1,1.0991058E0,4.236908E0,2.7148438E0,2.4351728E0,1.705636E0,2.7100601E1,0E0,1.0682785E1,0E0,0E0,0E0,0E0,1.1251144E0,4.5292883E0,1.127614E0,2.6597595E0,1.2947297E-1,3.3009646E0,2.4196494E0,3.2616358E0,1.2397179E1,0E0,0E0,0E0,0E0,0E0,0E0,0E0,0E0,0E0,0E0,0E0,0E0,0E0,0E0,0E0,0E0,0E0,0E0,0E0,0E0,0E0],"parents":[2147483647,0,0,1,1,2,2,3,3,4,4,5,5,6,6,7,7,8,8,9,9,10,10,11,11,12,12,13,13,14,14,16,16,21,21,22,22,23,23,24,24,25,25,26,26,27,27,28,28,29,29],"right_children":[2,4,6,8,10,12,14,16,18,20,22,24,26,28,30,-1,32,-1,-1,-1,-1,34,36,38,40,42,44,46,48,50,-1,-1,-1,-1,-1,-1,-1,-1,-1,-1,-1,-1,-1,-1,-1,-1,-1,-1,-1,-1,-1],"split_conditions":[4.7E-1,3E0,5E0,5.8E-1,1.3E-1,6E0,8.2E-1,4.5E-1,2.12E2,1.2E-1,3E-1,4.9E-1,6.3E-1,6E0,7E0,-6.944147E-2,3.6E-1,-8.949118E-2,-9.445766E-3,1.4640383E-1,1.728248E-2,4.8E-1,8.3E-1,2.37E2,2.75E2,2.15E2,1E0,6.7E-1,2.73E2,2.16E2,-9.535753E-2,-3.588666E-2,1.4324993E-1,-1.8085476E-2,-8.8559814E-2,-5.0582834E-2,4.1260984E-2,-4.304458E-2,2.8339708E-2,-9.755672E-2,-1.1103201E-2,-6.1504222E-2,-6.291853E-3,8.021567E-2,-4.906611E-2,-7.24297E-2,1.2271243E-2,-9.654998E-2,2.5126612E-2,-1.2807726E-2,1.23407125E-1],"split_indices":[0,2,4,1,0,2,1,1,3,0,0,0,1,4,4,0,0,0,0,0,0,1,1,3,3,3,5,0,3,3,0,0,0,0,0,0,0,0,0,0,0,0,0,0,0,0,0,0,0,0,0],"split_type":[0,0,0,0,0,0,0,0,0,0,0,0,0,0,0,0,0,0,0,0,0,0,0,0,0,0,0,0,0,0,0,0,0,0,0,0,0,0,0,0,0,0,0,0,0,0,0,0,0,0,0],"sum_hessian":[7.036049E2,2.6852478E2,4.350801E2,1.285539E2,1.3997087E2,3.2174057E2,1.13339554E2,1.2014757E2,8.406331E0,6.606883E1,7.390205E1,3.1358493E2,8.155634E0,2.622077E1,8.711878E1,2.7114475E0,1.1743612E2,6.3796515E0,2.0266793E0,6.482436E1,1.2444646E0,4.642955E1,2.7472498E1,6.0317626E0,3.0755316E2,3.4205172E0,4.7351165E0,1.0726088E1,1.5494682E1,8.178439E1,5.3343897E0,2.687821E0,1.147483E2,3.623277E0,4.2806274E1,2.2207397E1,5.265101E0,4.292975E0,1.738788E0,3.033988E2,4.154379E0,2.397307E0,1.0232103E0,3.2269237E0,1.5081927E0,3.8040116E0,6.9220753E0,1.3771544E1,1.7231383E0,6.927355E0,7.485703E1],"tree_param":{"num_deleted":"0","num_feature":"18","num_nodes":"51","size_leaf_vector":"1"}},{"base_weights":[-5.05527E-2,7.177543E-1,-5.51433E-1,8.1054837E-1,-9.610051E-2,-9.287219E-1,4.8966965E-1,1.4012598E-1,5.88124E-1,-9.393278E-1,-1.3452223E-1,-7.621359E-1,8.3845276E-1,1.1364106E0,-5.121142E-1,-2.396773E-1,-9.532303E-1,-6.039339E-2,4.272067E-2,-8.3002555E-1,2.2253357E-2,9.8515534E-1,-9.390623E-2,1.2767325E-1,-7.9643756E-2,-6.158791E-2,3.5997238E-2,-4.7777973E-2,3.443011E-2,-9.660255E-2,-3.6912497E-2,-9.287158E-2,-2.4011333E-2,1.05650224E-1,-8.644154E-2],"categories":[],"categories_nodes":[],"categories_segments":[],"categories_sizes":[],"default_left":[0,0,0,0,0,0,0,0,0,0,0,0,0,0,0,0,0,0,0,0,0,0,0,0,0,0,0,0,0,0,0,0,0,0,0],"id":10,"left_children":[1,3,5,7,-1,9,11,-1,13,15,17,19,21,23,25,27,29,-1,-1,31,-1,33,-1,-1,-1,-1,-1,-1,-1,-1,-1,-1,-1,-1,-1],"loss_changes":[2.5686993E2,4.2602448E1,1.5958087E2,3.129924E1,0E0,2.2505493E0,4.876363E1,0E0,1.1313626E2,2.392517E0,2.16422E0,2.023759E0,2.4279408E1,3.5801514E1,6.154646E0,1.4941187E0,1.4284973E0,0E0,0E0,9.2646027E-1,0E0,1.24403E1,0E0,0E0,0E0,0E0,0E0,0E0,0E0,0E0,0E0,0E0,0E0,0E0,0E0],"parents":[2147483647,0,0,1,1,2,2,3,3,5,5,6,6,8,8,9,9,10,10,11,11,12,12,13,13,14,14,15,15,16,16,19,19,21,21],"right_children":[2,4,6,8,-1,10,12,-1,14,16,18,20,22,24,26,28,30,-1,-1,32,-1,34,-1,-1,-1,-1,-1,-1,-1,-1,-1,-1,-1,-1,-1],"split_conditions":[4.7E-1,6E0,5E0,1.2E-1,-9.610051E-2,2.75E2,8.1E-1,1.4012598E-1,3E0,4.9E-1,7E-1,1E0,7E0,1.62E2,2.71E2,2.37E2,6E0,-6.039339E-2,4.272067E-2,1E0,2.2253357E-2,9.3E-1,-9.390623E-2,1.2767325E-1,-7.9643756E-2,-6.158791E-2,3.5997238E-2,-4.7777973E-2,3.443011E-2,-9.660255E-2,-3.6912497E-2,-9.287158E-2,-2.4011333E-2,1.05650224E-1,-8.644154E-2],"split_indices":[0,4,4,0,0,3,1,0,2,0,0,9,4,3,3,3,2,0,0,17,0,0,0,0,0,0,0,0,0,0,0,0,0,0,0],"split_type":[0,0,0,0,0,0,0,0,0,0,0,0,0,0,0,0,0,0,0,0,0,0,0,0,0,0,0,0,0,0,0,0,0,0,0],"sum_hessian":[6.634326E2,2.6147958E2,4.01953E2,2.4876344E2,1.2716146E1,2.9519287E2,1.0676011E2,6.514705E1,1.836164E2,2.9094214E2,4.25075E0,2.2747517E1,8.401259E1,1.2250312E2,6.111328E1,6.379334E0,2.845628E2,2.2337976E0,2.0169523E0,2.1574156E1,1.1733607E0,7.843103E1,5.5815635E0,1.148445E2,7.658623E0,5.5140038E1,5.9732423E0,4.7900286E0,1.5893056E0,2.7718326E2,7.3795543E0,1.7498123E1,4.0760326E0,7.634365E1,2.0873752E0],"tree_param":{"num_deleted":"0","num_feature":"18","num_nodes":"35","size_leaf_vector":"1"}},{"base_weights":[-3.859248E-2,6.717199E-1,-4.9772236E-1,1.3418992E-1,4.4228914E-1,-8.794058E-1,4.949941E-1,1.0459243E0,-5.605058E-1,-8.919206E-1,6.1677057E-2,-5.730495E-1,7.9005855E-1,-8.1371975E-1,1.1794263E0,-6.156322E-1,1.0290723E-1,-9.10143E-1,-2.5222304E-1,-6.510383E-2,-8.437393E-1,-7.91141E-1,9.844206E-1,-8.818776E-2,-1.244619E-2,1.24999456E-1,-4.1842E-2,-7.347807E-2,-1.3676169E-2,-4.643083E-2,-9.356533E-2,-4.6505198E-2,5.329601E-2,-6.594529E-2,3.34685E-2,-2.5244743E-2,-9.4544776E-2,2.1460172E-2,-9.602846E-2,-5.364145E-2,1.1425046E-1],"categories":[],"categories_nodes":[],"categories_segments":[],"categories_sizes":[],"default_left":[0,0,0,0,0,0,0,0,0,0,0,0,0,0,0,0,0,0,0,0,0,0,0,0,0,0,0,0,0,0,0,0,0,0,0,0,0,0,0,0,0],"id":11,"left_children":[1,3,5,-1,7,9,11,13,15,17,-1,19,21,23,25,27,-1,29,31,33,35,37,39,-1,-1,-1,-1,-1,-1,-1,-1,-1,-1,-1,-1,-1,-1,-1,-1,-1,-1],"loss_changes":[2.0465874E2,3.6703117E1,1.4525972E2,0E0,1.1410211E2,6.267441E0,3.465924E1,3.1005417E1,7.5240955E0,2.7406158E0,0E0,3.23733E0,2.7607315E1,2.0472622E-1,1.3463486E1,3.8079834E0,0E0,2.157837E0,2.2285275E0,2.9673316E0,4.676571E-1,2.1792116E0,1.9587814E1,0E0,0E0,0E0,0E0,0E0,0E0,0E0,0E0,0E0,0E0,0E0,0E0,0E0,0E0,0E0,0E0,0E0,0E0],"parents":[2147483647,0,0,1,1,2,2,4,4,5,5,6,6,7,7,8,8,9,9,11,11,12,12,13,13,14,14,15,15,17,17,18,18,19,19,20,20,21,21,22,22],"right_children":[2,4,6,-1,8,10,12,14,16,18,-1,20,22,24,26,28,-1,30,32,34,36,38,40,-1,-1,-1,-1,-1,-1,-1,-1,-1,-1,-1,-1,-1,-1,-1,-1,-1,-1],"split_conditions":[4.7E-1,1.2E-1,5E0,1.3418992E-1,3E0,2.86E2,2.17E2,3.6E-1,2.88E2,6E0,6.1677057E-2,1E0,4E0,2.49E2,1.62E2,6E0,1.0290723E-1,3E0,9E-1,1.46E2,5.8E-1,5.9E-1,7.1E-1,-8.818776E-2,-1.244619E-2,1.24999456E-1,-4.1842E-2,-7.347807E-2,-1.3676169E-2,-4.643083E-2,-9.356533E-2,-4.6505198E-2,5.329601E-2,-6.594529E-2,3.34685E-2,-2.5244743E-2,-9.4544776E-2,2.1460172E-2,-9.602846E-2,-5.364145E-2,1.1425046E-1],"split_indices":[0,0,4,0,2,3,3,0,3,2,0,7,2,3,3,2,0,2,1,3,1,0,0,0,0,0,0,0,0,0,0,0,0,0,0,0,0,0,0,0,0],"split_type":[0,0,0,0,0,0,0,0,0,0,0,0,0,0,0,0,0,0,0,0,0,0,0,0,0,0,0,0,0,0,0,0,0,0,0,0,0,0,0,0,0],"sum_hessian":[6.234953E2,2.4442432E2,3.7907095E2,5.9863197E1,1.8456113E2,2.7396436E2,1.0510659E2,1.15156395E2,6.940473E1,2.7249283E2,1.4715391E0,2.2343971E1,8.276262E1,7.0306787E0,1.0812571E2,6.8262794E1,1.1419321E0,2.6412347E2,8.369351E0,8.63032E0,1.3713652E1,8.387406E0,7.437521E1,5.889383E0,1.1412959E0,1.0396935E2,4.156363E0,5.3806343E1,1.4456455E1,1.6373346E1,2.4775014E2,7.226101E0,1.1432502E0,2.94826E0,5.6820593E0,3.0347843E0,1.0678867E1,1.1301179E0,7.257288E0,6.5523515E0,6.782287E1],"tree_param":{"num_deleted":"0","num_feature":"18","num_nodes":"41","size_leaf_vector":"1"}},{"base_weights":[-4.193895E-2,6.408006E-1,-5.0218403E-1,1.2930931E-1,4.210946E-1,-8.776169E-1,4.2182693E-1,9.7540754E-1,-5.3293097E-1,-8.934388E-1,8.701056E-2,-7.230509E-1,7.3797786E-1,1.124531E0,-8.461948E-2,-5.893537E-1,1.0148867E-1,5.762262E-3,-8.999819E-1,-5.616358E-2,6.816519E-2,-8.199781E-1,2.2106173E-2,1.1093076E0,-7.7026464E-2,-7.288556E-2,1.19190656E-1,-6.4630866E-2,1.8165467E-2,-4.734032E-2,-9.235189E-2,-2.2007639E-2,-8.844089E-2,-3.5172664E-2,1.1834156E-1,2.4105975E-2,-9.569936E-2],"categories":[],"categories_nodes":[],"categories_segments":[],"categories_sizes":[],"default_left":[0,0,0,0,0,0,0,0,0,0,0,0,0,0,0,0,0,0,0,0,0,0,0,0,0,0,0,0,0,0,0,0,0,0,0,0,0],"id":12,"left_children":[1,3,5,-1,7,9,11,13,15,17,19,21,23,25,-1,27,-1,-1,29,-1,-1,31,-1,33,35,-1,-1,-1,-1,-1,-1,-1,-1,-1,-1,-1,-1],"loss_changes":[1.8776743E2,3.340203E1,1.2452759E2,0E0,9.781398E1,4.038025E0,3.887207E1,3.353679E1,7.1824093E0,1.6622925E0,3.0520566E0,2.5232105E0,2.5239761E1,1.5286118E1,0E0,3.194498E0,0E0,0E0,1.6243286E0,0E0,0E0,4.547968E-1,0E0,7.008133E0,8.242218E0,0E0,0E0,0E0,0E0,0E0,0E0,0E0,0E0,0E0,0E0,0E0,0E0],"parents":[2147483647,0,0,1,1,2,2,4,4,5,5,6,6,7,7,8,8,9,9,10,10,11,11,12,12,13,13,15,15,18,18,21,21,23,23,24,24],"right_children":[2,4,6,-1,8,10,12,14,16,18,20,22,24,26,-1,28,-1,-1,30,-1,-1,32,-1,34,36,-1,-1,-1,-1,-1,-1,-1,-1,-1,-1,-1,-1],"split_conditions":[4.7E-1,1.2E-1,5E0,1.2930931E-1,3E0,2.75E2,2.17E2,5.8E-1,2.88E2,4.8E-1,7E-1,9.8E-1,6E0,4.4E-1,-8.461948E-2,9.7E-1,1.0148867E-1,5.762262E-3,3E0,-5.616358E-2,6.816519E-2,5.5E-1,2.2106173E-2,7.8E-1,7E0,-7.288556E-2,1.19190656E-1,-6.4630866E-2,1.8165467E-2,-4.734032E-2,-9.235189E-2,-2.2007639E-2,-8.844089E-2,-3.5172664E-2,1.1834156E-1,2.4105975E-2,-9.569936E-2],"split_indices":[0,0,4,0,2,3,3,1,3,0,0,1,4,1,0,1,0,0,2,0,0,0,0,1,4,0,0,0,0,0,0,0,0,0,0,0,0],"split_type":[0,0,0,0,0,0,0,0,0,0,0,0,0,0,0,0,0,0,0,0,0,0,0,0,0,0,0,0,0,0,0,0,0,0,0,0,0],"sum_hessian":[5.935043E2,2.3867017E2,3.548341E2,5.7672676E1,1.8099748E2,2.5238753E2,1.0244659E2,1.14452736E2,6.6544754E1,2.4845985E2,3.927679E0,2.1611336E1,8.083525E1,1.064996E2,7.9531336E0,6.539922E1,1.14553E0,1.5909935E0,2.4686887E2,1.9316297E0,1.9960493E0,1.983767E1,1.7736677E0,5.503717E1,2.5798079E1,3.0469742E0,1.0345263E2,6.1201675E1,4.1975474E0,1.5117051E1,2.3175182E2,2.780488E0,1.705718E1,2.2951944E0,5.2741974E1,2.0015198E1,5.7828794E0],"tree_param":{"num_deleted":"0","num_feature":"18","num_nodes":"37","size_leaf_vector":"1"}},{"base_weights":[-4.1216936E-2,6.290751E-1,-4.808308E-1,7.051278E-1,-8.294509E-1,-8.5889274E-1,3.9706525E-1,-8.82247E-2,7.71103E-1,-1.55378E-2,-8.876898E-2,-9.20241E-1,-5.062148E-1,-6.4831746E-1,7.0051336E-1,-8.797779E-2,8.276298E-1,-9.325437E-1,1.4578788E-2,-1.4109203E-1,-7.867946E-1,-7.934019E-1,5.3234084E-4,-5.4771054E-1,8.6082345E-1,9.1042444E-2,-7.338732E-3,-9.4937034E-2,-7.6970668E-3,-4.8328932E-2,5.6970544E-2,-4.869727E-2,2.1723641E-2,-1.865484E-2,-8.5138544E-2,-8.5799485E-2,-1.4678003E-2,4.5003995E-2,-5.263738E-2,-8.143964E-2,3.657259E-3,-7.763671E-2,9.995535E-2],"categories":[],"categories_nodes":[],"categories_segments":[],"categories_sizes":[],"default_left":[0,0,0,0,0,0,0,0,0,0,0,0,0,0,0,0,0,0,0,0,0,0,0,0,0,0,0,0,0,0,0,0,0,0,0,0,0,0,0,0,0,0,0],"id":13,"left_children":[1,3,5,7,9,11,13,-1,15,-1,-1,17,19,21,23,-1,25,27,29,31,33,35,37,39,41,-1,-1,-1,-1,-1,-1,-1,-1,-1,-1,-1,-1,-1,-1,-1,-1,-1,-1],"loss_changes":[1.6460902E2,2.5718895E1,1.1261692E2,2.3502731E1,1.9080067E-1,4.1824493E0,3.3545963E1,0E0,2.0498657E1,0E0,0E0,2.3146973E0,3.8214521E0,2.2775955E0,1.7091549E1,0E0,1.4929047E1,2.6805267E0,1.8089753E0,2.6392617E0,5.3070545E-1,5.737362E-1,1.993941E0,1.68122E0,1.7972046E1,0E0,0E0,0E0,0E0,0E0,0E0,0E0,0E0,0E0,0E0,0E0,0E0,0E0,0E0,0E0,0E0,0E0,0E0],"parents":[2147483647,0,0,1,1,2,2,3,3,4,4,5,5,6,6,8,8,11,11,12,12,13,13,14,14,16,16,17,17,18,18,19,19,20,20,21,21,22,22,23,23,24,24],"right_children":[2,4,6,8,10,12,14,-1,16,-1,-1,18,20,22,24,-1,26,28,30,32,34,36,38,40,42,-1,-1,-1,-1,-1,-1,-1,-1,-1,-1,-1,-1,-1,-1,-1,-1,-1,-1],"split_conditions":[4.7E-1,6E0,5E0,4.5E-1,1.4E2,4E0,8.2E-1,-8.82247E-2,1.26E2,-1.55378E-2,-8.876898E-2,2.77E2,1E0,1E0,2.17E2,-8.797779E-2,1E0,6E0,6.5E-1,7.4E-1,5.6E-1,1E0,8.1E-1,9.5E-1,4E0,9.1042444E-2,-7.338732E-3,-9.4937034E-2,-7.6970668E-3,-4.8328932E-2,5.6970544E-2,-4.869727E-2,2.1723641E-2,-1.865484E-2,-8.5138544E-2,-8.5799485E-2,-1.4678003E-2,4.5003995E-2,-5.263738E-2,-8.143964E-2,3.657259E-3,-7.763671E-2,9.995535E-2],"split_indices":[0,4,4,1,3,4,1,0,3,0,0,3,7,17,3,0,5,2,1,1,0,8,0,1,2,0,0,0,0,0,0,0,0,0,0,0,0,0,0,0,0,0,0],"split_type":[0,0,0,0,0,0,0,0,0,0,0,0,0,0,0,0,0,0,0,0,0,0,0,0,0,0,0,0,0,0,0,0,0,0,0,0,0,0,0,0,0,0,0],"sum_hessian":[5.545692E2,2.1931354E2,3.352557E2,2.094264E2,9.887129E0,2.3436903E2,1.00886665E2,7.369531E0,2.0205688E2,1.3697017E0,8.5174265E0,1.9689975E2,3.7469273E1,2.2185236E1,7.870142E1,5.725127E0,1.9633176E2,1.9434692E2,2.5528295E0,1.7587765E1,1.9881508E1,1.776694E1,4.4182954E0,8.407204E0,7.029423E1,1.7978995E2,1.6541811E1,1.9038338E2,3.9635549E0,1.4822661E0,1.0705634E0,8.583967E0,9.003798E0,2.6870356E0,1.7194473E1,1.5558937E1,2.2080033E0,2.5417087E0,1.8765867E0,5.231637E0,3.1755664E0,4.7730994E0,6.5521126E1],"tree_param":{"num_deleted":"0","num_feature":"18","num_nodes":"43","size_leaf_vector":"1"}},{"base_weights":[-5.98492E-2,5.5498165E-1,-4.8354182E-1,6.977255E-1,-4.127171E-1,-8.5467166E-1,3.5190272E-1,-8.177786E-2,7.525458E-1,8.862706E-2,-7.268176E-1,-9.2153305E-1,-4.8787338E-1,-6.624611E-1,6.412071E-1,3.999893E-1,1.010874E0,-8.825058E-1,-1.08290255E-1,-3.7881078E-3,-9.259226E-2,-1.0318162E-1,-8.1193465E-1,-7.113969E-1,-5.0184233E-3,7.6890475E-1,-9.2678346E-2,1.2261529E-1,-7.087197E-2,1.1532374E-1,-2.5563067E-2,-9.222817E-2,-1.1788911E-2,3.2350145E-2,-3.510937E-2,1.9362569E-2,-7.4747235E-2,-8.8295005E-2,-1.1118843E-2,-3.2968488E-2,-9.1018826E-2,-3.53365E-2,8.966469E-2],"categories":[],"categories_nodes":[],"categories_segments":[],"categories_sizes":[],"default_left":[0,0,0,0,0,0,0,0,0,0,0,0,0,0,0,0,0,0,0,0,0,0,0,0,0,0,0,0,0,0,0,0,0,0,0,0,0,0,0,0,0,0,0],"id":14,"left_children":[1,3,5,7,9,11,13,-1,15,-1,17,19,21,23,25,27,29,31,33,-1,-1,35,37,39,-1,41,-1,-1,-1,-1,-1,-1,-1,-1,-1,-1,-1,-1,-1,-1,-1,-1,-1],"loss_changes":[1.4049988E2,3.0983406E1,9.955861E1,1.72303E1,1.33466835E1,4.5347595E0,3.0074018E1,0E0,1.6212975E1,0E0,2.20648E0,6.4805603E-1,4.6209774E0,6.2022686E-1,1.7143665E1,7.716263E1,1.9801514E1,3.7899685E-1,9.910816E-1,0E0,0E0,4.0861444E0,8.2667637E-1,1.0102882E0,0E0,1.11970825E1,0E0,0E0,0E0,0E0,0E0,0E0,0E0,0E0,0E0,0E0,0E0,0E0,0E0,0E0,0E0,0E0,0E0],"parents":[2147483647,0,0,1,1,2,2,3,3,4,4,5,5,6,6,8,8,10,10,11,11,12,12,13,13,14,14,15,15,16,16,17,17,18,18,21,21,22,22,23,23,25,25],"right_children":[2,4,6,8,10,12,14,-1,16,-1,18,20,22,24,26,28,30,32,34,-1,-1,36,38,40,-1,42,-1,-1,-1,-1,-1,-1,-1,-1,-1,-1,-1,-1,-1,-1,-1,-1,-1],"split_conditions":[4.7E-1,5E0,5E0,4.5E-1,1.2E-1,4E0,8.2E-1,-8.177786E-2,3.6E-1,8.862706E-2,6E0,4.8E-1,1E0,2.75E2,7E0,1.3E-1,5.8E-1,1E0,1.76E2,-3.7881078E-3,-9.259226E-2,8.5E-1,6E0,6E0,-5.0184233E-3,2.16E2,-9.2678346E-2,1.2261529E-1,-7.087197E-2,1.1532374E-1,-2.5563067E-2,-9.222817E-2,-1.1788911E-2,3.2350145E-2,-3.510937E-2,1.9362569E-2,-7.4747235E-2,-8.8295005E-2,-1.1118843E-2,-3.2968488E-2,-9.1018826E-2,-3.53365E-2,8.966469E-2],"split_indices":[0,4,4,1,0,4,1,0,0,0,2,0,7,3,4,0,1,10,3,0,0,0,2,4,0,3,0,0,0,0,0,0,0,0,0,0,0,0,0,0,0,0,0],"split_type":[0,0,0,0,0,0,0,0,0,0,0,0,0,0,0,0,0,0,0,0,0,0,0,0,0,0,0,0,0,0,0,0,0,0,0,0,0,0,0,0,0,0,0],"sum_hessian":[5.3528815E2,2.1813187E2,3.1715628E2,1.9057796E2,2.755391E1,2.195704E2,9.758588E1,5.6813946E0,1.8489656E2,4.655887E0,2.2898022E1,1.831588E2,3.641161E1,2.1083364E1,7.650252E1,8.0343544E1,1.04553024E2,1.7611498E1,5.2865233E0,1.0005574E0,1.8215823E2,1.7854004E1,1.8557608E1,1.922319E1,1.8601733E0,7.1683815E1,4.8187027E0,4.5916573E1,3.442697E1,9.414894E1,1.04040785E1,1.6348629E1,1.2628695E0,1.6635015E0,3.6230218E0,1.3180879E1,4.6731253E0,1.6377811E1,2.1797965E0,8.403667E0,1.0819523E1,6.964575E0,6.471924E1],"tree_param":{"num_deleted":"0","num_feature":"18","num_nodes":"43","size_leaf_vector":"1"}},{"base_weights":[-2.194364E-2,5.743236E-1,-4.3479165E-1,1.1944287E-1,3.6357287E-1,-8.137371E-1,3.7649676E-1,9.234089E-1,-5.188124E-1,-8.252528E-1,2.955175E-2,-5.928674E-1,6.4793783E-1,1.0558565E0,-6.703803E-1,-6.3956815E-1,5.529175E-1,-8.8479924E-1,-5.08396E-1,-6.6127014E-1,2.5558943E-2,9.5480704E-1,-1.1328578E-2,-6.83487E-2,1.113822E-1,-7.964364E-2,-1.7294412E-2,-7.574906E-2,-1.7799044E-2,8.546376E-2,-1.1980308E-2,-9.030625E-2,-1.4614998E-2,-6.519177E-2,9.905978E-3,-7.174439E-2,-3.0957786E-3,-4.3603096E-2,1.00604825E-1,5.9190612E-2,-4.756204E-2],"categories":[],"categories_nodes":[],"categories_segments":[],"categories_sizes":[],"default_left":[0,0,0,0,0,0,0,0,0,0,0,0,0,0,0,0,0,0,0,0,0,0,0,0,0,0,0,0,0,0,0,0,0,0,0,0,0,0,0,0,0],"id":15,"left_children":[1,3,5,-1,7,9,11,13,15,17,-1,19,21,23,25,27,29,31,33,35,-1,37,39,-1,-1,-1,-1,-1,-1,-1,-1,-1,-1,-1,-1,-1,-1,-1,-1,-1,-1],"loss_changes":[1.2381448E2,2.602768E1,9.196178E1,0E0,7.825639E1,3.082962E0,2.6020021E1,2.1776863E1,8.733887E0,2.9041748E0,0E0,1.6170793E0,1.5382893E1,1.0579559E1,2.652881E-1,2.814808E0,1.6972742E0,1.9890289E0,3.319622E0,6.974268E-1,0E0,4.571598E0,7.8713174E0,0E0,0E0,0E0,0E0,0E0,0E0,0E0,0E0,0E0,0E0,0E0,0E0,0E0,0E0,0E0,0E0,0E0,0E0],"parents":[2147483647,0,0,1,1,2,2,4,4,5,5,6,6,7,7,8,8,9,9,11,11,12,12,13,13,14,14,15,15,16,16,17,17,18,18,19,19,21,21,22,22],"right_children":[2,4,6,-1,8,10,12,14,16,18,-1,20,22,24,26,28,30,32,34,36,-1,38,40,-1,-1,-1,-1,-1,-1,-1,-1,-1,-1,-1,-1,-1,-1,-1,-1,-1,-1],"split_conditions":[4.7E-1,1.2E-1,5E0,1.1944287E-1,3E0,2.86E2,8.2E-1,5.8E-1,2.77E2,4E0,2.955175E-2,1E0,6E0,1.25E2,4E0,6E0,7.6E-1,6E0,1E0,2.75E2,2.5558943E-2,1.44E2,1E0,-6.83487E-2,1.113822E-1,-7.964364E-2,-1.7294412E-2,-7.574906E-2,-1.7799044E-2,8.546376E-2,-1.1980308E-2,-9.030625E-2,-1.4614998E-2,-6.519177E-2,9.905978E-3,-7.174439E-2,-3.0957786E-3,-4.3603096E-2,1.00604825E-1,5.9190612E-2,-4.756204E-2],"split_indices":[0,0,4,0,2,3,1,1,3,4,0,9,4,3,4,2,1,2,17,3,0,3,7,0,0,0,0,0,0,0,0,0,0,0,0,0,0,0,0,0,0],"split_type":[0,0,0,0,0,0,0,0,0,0,0,0,0,0,0,0,0,0,0,0,0,0,0,0,0,0,0,0,0,0,0,0,0,0,0,0,0,0,0,0,0],"sum_hessian":[4.9893918E2,2.0380536E2,2.9513382E2,4.9328377E1,1.5447699E2,2.011653E2,9.396851E1,9.44558E1,6.0021187E1,1.9960516E2,1.5601375E0,2.0038649E1,7.392986E1,8.783181E1,6.6239915E0,5.4668015E1,5.3531704E0,1.6501016E2,3.4595E1,1.8951979E1,1.0866716E0,4.983606E1,2.40938E1,2.136619E0,8.569519E1,4.3256555E0,2.298336E0,4.252236E1,1.2145654E1,3.3222685E0,2.030902E0,1.6059425E2,4.4159064E0,2.7865032E1,6.729969E0,1.7147327E1,1.8046502E0,1.2371567E0,4.8598904E1,1.0239863E1,1.3853936E1],"tree_param":{"num_deleted":"0","num_feature":"18","num_nodes":"41","size_leaf_vector":"1"}},{"base_weights":[-2.7671123E-2,5.2705795E-1,-4.1971454E-1,1.1580699E-1,3.3543757E-1,-7.861335E-1,3.5126334E-1,8.380038E-1,-4.42227E-1,-8.558575E-1,-4.3612668E-1,7.577787E-1,-2.8556183E-1,-7.877779E-1,9.7274804E-1,-4.9891904E-1,8.958662E-2,-2.3765016E-1,-8.9134383E-1,-6.199015E-1,4.3157298E-2,-4.5804814E-1,9.255663E-1,-1.0171853E-2,-9.385443E-2,-8.604126E-2,-1.0008332E-2,-7.486238E-2,1.04082994E-1,-5.616771E-2,2.8428396E-2,-5.724544E-2,4.9318317E-2,-9.072096E-2,-1.3975504E-2,-6.762042E-2,2.0213552E-2,7.4399695E-2,-3.0806476E-2,2.3386415E-2,-7.354087E-2,-5.5257946E-2,1.01200126E-1,-8.0418535E-2,2.5010785E-2],"categories":[],"categories_nodes":[],"categories_segments":[],"categories_sizes":[],"default_left":[0,0,0,0,0,0,0,0,0,0,0,0,0,0,0,0,0,0,0,0,0,0,0,0,0,0,0,0,0,0,0,0,0,0,0,0,0,0,0,0,0,0,0,0,0],"id":16,"left_children":[1,3,5,-1,7,9,11,13,15,17,19,21,23,25,27,29,-1,31,33,35,37,39,41,43,-1,-1,-1,-1,-1,-1,-1,-1,-1,-1,-1,-1,-1,-1,-1,-1,-1,-1,-1,-1,-1],"loss_changes":[1.0267581E2,2.2866974E1,7.867633E1,0E0,6.0463104E1,3.8431396E0,2.3854292E1,2.2018051E1,5.543769E0,2.971283E0,3.1644897E0,1.2224892E1,6.5810814E0,2.4047565E-1,1.1783684E1,3.272851E0,0E0,3.2875009E0,1.4829178E0,1.4610214E0,3.3283014E0,1.8986108E0,7.4642334E0,6.1553583E0,0E0,0E0,0E0,0E0,0E0,0E0,0E0,0E0,0E0,0E0,0E0,0E0,0E0,0E0,0E0,0E0,0E0,0E0,0E0,0E0,0E0],"parents":[2147483647,0,0,1,1,2,2,4,4,5,5,6,6,7,7,8,8,9,9,10,10,11,11,12,12,13,13,14,14,15,15,17,17,18,18,19,19,20,20,21,21,22,22,23,23],"right_children":[2,4,6,-1,8,10,12,14,16,18,20,22,24,26,28,30,-1,32,34,36,38,40,42,44,-1,-1,-1,-1,-1,-1,-1,-1,-1,-1,-1,-1,-1,-1,-1,-1,-1,-1,-1,-1,-1],"split_conditions":[4.7E-1,1.2E-1,5E0,1.1580699E-1,3E0,4E0,6E0,3.6E-1,2.88E2,3E0,5E0,6.6E-1,7E0,2.43E2,1.26E2,9.7E-1,8.958662E-2,7.8E-1,6E0,2.74E2,1.63E2,4E0,1.46E2,4E0,-9.385443E-2,-8.604126E-2,-1.0008332E-2,-7.486238E-2,1.04082994E-1,-5.616771E-2,2.8428396E-2,-5.724544E-2,4.9318317E-2,-9.072096E-2,-1.3975504E-2,-6.762042E-2,2.0213552E-2,7.4399695E-2,-3.0806476E-2,2.3386415E-2,-7.354087E-2,-5.5257946E-2,1.01200126E-1,-8.0418535E-2,2.5010785E-2],"split_indices":[0,0,4,0,2,4,4,0,3,2,2,0,4,3,3,1,0,1,2,3,3,2,3,2,0,0,0,0,0,0,0,0,0,0,0,0,0,0,0,0,0,0,0,0,0],"split_type":[0,0,0,0,0,0,0,0,0,0,0,0,0,0,0,0,0,0,0,0,0,0,0,0,0,0,0,0,0,0,0,0,0,0,0,0,0,0,0,0,0,0,0,0,0],"sum_hessian":[4.680863E2,1.9354189E2,2.745444E2,4.2733147E1,1.5080875E2,1.860717E2,8.847272E1,9.151314E1,5.9295605E1,1.5275186E2,3.3319843E1,5.3769352E1,3.470336E1,6.262221E0,8.5250916E1,5.8088795E1,1.2068101E0,9.127935E0,1.4362392E2,2.3660696E1,9.659148E0,6.100911E0,4.766844E1,2.5837685E1,8.865677E0,5.2096634E0,1.0525573E0,2.4828544E0,8.276806E1,5.4303177E1,3.7856193E0,6.5573483E0,2.5705867E0,1.402492E2,3.3747182E0,2.247608E1,1.184617E0,2.47795E0,7.181198E0,1.8355461E0,4.265365E0,2.0375614E0,4.5630882E1,5.346913E0,2.0490772E1],"tree_param":{"num_deleted":"0","num_feature":"18","num_nodes":"45","size_leaf_vector":"1"}},{"base_weights":[-3.6110774E-2,4.8828155E-1,-3.9494824E-1,1.1337935E-1,2.968834E-1,-7.4769545E-1,2.8568345E-1,-5.9661907E-1,7.61494E-1,-7.655786E-1,4.7887083E-2,6.5601385E-1,-3.157099E-1,-7.04471E-1,3.3230555E-1,9.417034E-1,-4.267516E-1,-8.42009E-1,-3.9846745E-1,-7.06225E-2,7.755462E-1,2.469671E-1,-6.703721E-1,-7.710429E-2,2.0118594E-2,5.3619113E-2,-8.361115E-3,-7.780284E-2,1.0385708E-1,-9.1894634E-2,1.0718602E-2,-2.1099892E-2,-8.808596E-2,-5.823788E-2,4.360023E-3,-3.0577486E-2,8.903597E-2,-3.8722157E-2,6.898314E-2,-7.858847E-2,3.4114443E-2],"categories":[],"categories_nodes":[],"categories_segments":[],"categories_sizes":[],"default_left":[0,0,0,0,0,0,0,0,0,0,0,0,0,0,0,0,0,0,0,0,0,0,0,0,0,0,0,0,0,0,0,0,0,0,0,0,0,0,0,0,0],"id":17,"left_children":[1,3,5,-1,7,9,11,13,15,17,-1,19,21,23,25,27,29,31,33,-1,35,37,39,-1,-1,-1,-1,-1,-1,-1,-1,-1,-1,-1,-1,-1,-1,-1,-1,-1,-1],"loss_changes":[8.412877E1,2.1776134E1,6.4131195E1,0E0,6.021321E1,4.578697E0,2.0908226E1,5.4768124E0,2.111739E1,4.1989136E0,0E0,1.0474506E1,7.59898E0,3.0494862E0,6.459085E-1,1.5441986E1,3.841747E0,3.1059647E0,2.7910438E0,0E0,7.2370186E0,4.899363E0,3.2092533E0,0E0,0E0,0E0,0E0,0E0,0E0,0E0,0E0,0E0,0E0,0E0,0E0,0E0,0E0,0E0,0E0,0E0,0E0],"parents":[2147483647,0,0,1,1,2,2,4,4,5,5,6,6,7,7,8,8,9,9,11,11,12,12,13,13,14,14,15,15,16,16,17,17,18,18,20,20,21,21,22,22],"right_children":[2,4,6,-1,8,10,12,14,16,18,-1,20,22,24,26,28,30,32,34,-1,36,38,40,-1,-1,-1,-1,-1,-1,-1,-1,-1,-1,-1,-1,-1,-1,-1,-1,-1,-1],"split_conditions":[4.7E-1,1.2E-1,5E0,1.1337935E-1,3.6E-1,2.86E2,6E0,2.77E2,1.62E2,4E0,4.7887083E-2,1.46E2,1E0,1E0,7.6E-1,1.26E2,2.05E2,3E0,5E0,-7.06225E-2,6.6E-1,2.33E2,9.9E-1,-7.710429E-2,2.0118594E-2,5.3619113E-2,-8.361115E-3,-7.780284E-2,1.0385708E-1,-9.1894634E-2,1.0718602E-2,-2.1099892E-2,-8.808596E-2,-5.823788E-2,4.360023E-3,-3.0577486E-2,8.903597E-2,-3.8722157E-2,6.898314E-2,-7.858847E-2,3.4114443E-2],"split_indices":[0,0,4,0,0,3,4,3,3,4,0,3,7,10,1,3,3,2,2,0,0,3,1,0,0,0,0,0,0,0,0,0,0,0,0,0,0,0,0,0,0],"split_type":[0,0,0,0,0,0,0,0,0,0,0,0,0,0,0,0,0,0,0,0,0,0,0,0,0,0,0,0,0,0,0,0,0,0,0,0,0,0,0,0,0],"sum_hessian":[4.4303564E2,1.7970284E2,2.633328E2,3.884527E1,1.4085757E2,1.733135E2,9.001929E1,4.799299E1,9.2864586E1,1.7156381E2,1.7497058E0,5.5599915E1,3.441937E1,4.3433445E1,4.5595436E0,8.0995735E1,1.1868848E1,1.398588E2,3.1705004E1,3.6932867E0,5.1906628E1,1.3542036E1,2.0877333E1,4.073632E1,2.6971228E0,2.671564E0,1.8879793E0,3.5690455E0,7.74267E1,5.425428E0,6.4434195E0,8.8575E0,1.310013E2,2.1941847E1,9.763157E0,4.663069E0,4.724356E1,5.671559E0,7.8704777E0,1.9137955E1,1.7393785E0],"tree_param":{"num_deleted":"0","num_feature":"18","num_nodes":"41","size_leaf_vector":"1"}},{"base_weights":[-3.1127661E-2,4.9495238E-1,-4.011176E-1,5.7551146E-1,-8.900749E-2,-7.596997E-1,3.0684754E-1,-8.5416496E-2,6.416866E-1,-1.9827214E-1,-8.0116576E-1,6.676775E-1,-2.5240427E-1,-8.319857E-2,7.013966E-1,-4.5166564E-1,6.0997015E-1,-8.6919045E-1,-4.7399682E-1,-5.506355E-1,7.8737724E-1,3.070982E-1,-6.397554E-1,-3.331813E-2,7.585029E-2,-7.9150945E-2,1.936618E-2,8.740522E-2,-5.495896E-3,-2.7036855E-2,-8.936525E-2,-6.64227E-2,-5.588896E-3,-6.420365E-2,-3.4852724E-3,-4.3722145E-2,8.63334E-2,5.6575436E-2,-6.367547E-2,-7.5791284E-2,3.267814E-2],"categories":[],"categories_nodes":[],"categories_segments":[],"categories_sizes":[],"default_left":[0,0,0,0,0,0,0,0,0,0,0,0,0,0,0,0,0,0,0,0,0,0,0,0,0,0,0,0,0,0,0,0,0,0,0,0,0,0,0,0,0],"id":18,"left_children":[1,3,5,7,-1,9,11,-1,13,15,17,19,21,-1,23,25,27,29,31,33,35,37,39,-1,-1,-1,-1,-1,-1,-1,-1,-1,-1,-1,-1,-1,-1,-1,-1,-1,-1],"loss_changes":[8.306062E1,2.0689987E1,6.4043625E1,1.696952E1,0E0,3.565773E0,1.7615593E1,0E0,1.5377724E1,3.4450774E0,2.6185837E0,8.536928E0,7.9849434E0,0E0,9.739426E0,2.9179623E0,8.377378E-1,1.3574753E0,2.3933454E0,2.325418E-1,5.2859173E0,4.5490355E0,2.9334288E0,0E0,0E0,0E0,0E0,0E0,0E0,0E0,0E0,0E0,0E0,0E0,0E0,0E0,0E0,0E0,0E0,0E0,0E0],"parents":[2147483647,0,0,1,1,2,2,3,3,5,5,6,6,8,8,9,9,10,10,11,11,12,12,14,14,15,15,16,16,17,17,18,18,19,19,20,20,21,21,22,22],"right_children":[2,4,6,8,-1,10,12,-1,14,16,18,20,22,-1,24,26,28,30,32,34,36,38,40,-1,-1,-1,-1,-1,-1,-1,-1,-1,-1,-1,-1,-1,-1,-1,-1,-1,-1],"split_conditions":[4.7E-1,6E0,5E0,4.5E-1,-8.900749E-2,3E0,6E0,-8.5416496E-2,1.26E2,2.55E2,4E0,1.53E2,1E0,-8.319857E-2,3E0,7.6E-1,1E0,5E-1,5E0,1.44E2,5.9E-1,7E0,9.9E-1,-3.331813E-2,7.585029E-2,-7.9150945E-2,1.936618E-2,8.740522E-2,-5.495896E-3,-2.7036855E-2,-8.936525E-2,-6.64227E-2,-5.588896E-3,-6.420365E-2,-3.4852724E-3,-4.3722145E-2,8.63334E-2,5.6575436E-2,-6.367547E-2,-7.5791284E-2,3.267814E-2],"split_indices":[0,4,4,1,0,2,4,0,3,3,4,3,7,0,4,1,7,0,2,3,0,4,1,0,0,0,0,0,0,0,0,0,0,0,0,0,0,0,0,0,0],"split_type":[0,0,0,0,0,0,0,0,0,0,0,0,0,0,0,0,0,0,0,0,0,0,0,0,0,0,0,0,0,0,0,0,0,0,0,0,0,0,0,0,0],"sum_hessian":[4.2269034E2,1.7425117E2,2.4843916E2,1.6577779E2,8.473389E0,1.6481482E2,8.362434E1,6.2803E0,1.5949748E2,1.2130982E1,1.5268384E2,5.059356E1,3.3030777E1,5.203549E0,1.5429395E2,9.907283E0,2.2236993E0,1.23659294E2,2.902455E1,3.8819988E0,4.671156E1,1.3682174E1,1.9348604E1,7.565384E0,1.4672856E2,6.1929107E0,3.714372E0,1.1413816E0,1.0823177E0,5.799316E0,1.1785998E2,1.9139284E1,9.885266E0,2.881765E0,1.000234E0,2.1725557E0,4.4539005E1,1.1368028E1,2.3141458E0,1.7625599E1,1.7230047E0],"tree_param":{"num_deleted":"0","num_feature":"18","num_nodes":"41","size_leaf_vector":"1"}},{"base_weights":[-2.6507733E-2,4.8722288E-1,-3.954872E-1,1.0915674E-1,3.058723E-1,-7.377382E-1,2.4872144E-1,-4.8958355E-1,7.033975E-1,-1.4322956E-1,-7.8346634E-1,5.811087E-1,-2.53189E-1,-6.3940877E-1,8.7253E-2,8.8227224E-1,-2.5228468E-1,-4.1002944E-1,6.3712496E-1,-8.18459E-1,-7.48329E-2,-6.5307766E-2,6.881505E-1,-8.3887005E-1,-1.16154235E-2,-7.211925E-2,-4.4624554E-5,-4.2371754E-2,7.505221E-2,-7.765839E-2,9.926509E-2,-7.1954206E-2,3.9962783E-2,-7.665055E-2,2.1999283E-2,9.675898E-2,-7.7216523E-3,-8.76103E-2,-5.20945E-2,-3.7715953E-2,5.5984426E-2,-4.599941E-2,7.6860294E-2,-4.3768804E-3,-9.234719E-2,1.9398896E-2,-7.716618E-2],"categories":[],"categories_nodes":[],"categories_segments":[],"categories_sizes":[],"default_left":[0,0,0,0,0,0,0,0,0,0,0,0,0,0,0,0,0,0,0,0,0,0,0,0,0,0,0,0,0,0,0,0,0,0,0,0,0,0,0,0,0,0,0,0,0,0,0],"id":19,"left_children":[1,3,5,-1,7,9,11,13,15,17,19,21,23,25,27,29,31,33,35,37,39,-1,41,43,45,-1,-1,-1,-1,-1,-1,-1,-1,-1,-1,-1,-1,-1,-1,-1,-1,-1,-1,-1,-1,-1,-1],"loss_changes":[7.602891E1,1.7712368E1,5.181662E1,0E0,4.2357628E1,3.932129E0,1.4050421E1,4.0083923E0,1.560569E1,3.305627E0,3.3869476E0,7.532406E0,4.825548E0,1.8823061E0,4.3831725E0,1.5301506E1,5.3079705E0,2.8478556E0,1.1383132E0,1.3967056E0,2.1225624E0,0E0,5.0650845E0,5.899377E-1,4.4049315E0,0E0,0E0,0E0,0E0,0E0,0E0,0E0,0E0,0E0,0E0,0E0,0E0,0E0,0E0,0E0,0E0,0E0,0E0,0E0,0E0,0E0,0E0],"parents":[2147483647,0,0,1,1,2,2,4,4,5,5,6,6,7,7,8,8,9,9,10,10,11,11,12,12,13,13,14,14,15,15,16,16,17,17,18,18,19,19,20,20,22,22,23,23,24,24],"right_children":[2,4,6,-1,8,10,12,14,16,18,20,22,24,26,28,30,32,34,36,38,40,-1,42,44,46,-1,-1,-1,-1,-1,-1,-1,-1,-1,-1,-1,-1,-1,-1,-1,-1,-1,-1,-1,-1,-1,-1],"split_conditions":[4.8E-1,1.3E-1,5E0,1.0915674E-1,3.6E-1,3E0,6E0,6E0,5.8E-1,2.52E2,6E0,1.46E2,4E0,2.71E2,5E0,4.5E-1,4E0,7.6E-1,7.5E-1,4E0,2.52E2,-6.5307766E-2,5.9E-1,5.8E-1,7E0,-7.211925E-2,-4.4624554E-5,-4.2371754E-2,7.505221E-2,-7.765839E-2,9.926509E-2,-7.1954206E-2,3.9962783E-2,-7.665055E-2,2.1999283E-2,9.675898E-2,-7.7216523E-3,-8.76103E-2,-5.20945E-2,-3.7715953E-2,5.5984426E-2,-4.599941E-2,7.6860294E-2,-4.3768804E-3,-9.234719E-2,1.9398896E-2,-7.716618E-2],"split_indices":[0,0,4,0,0,2,4,2,1,3,2,3,2,3,4,1,4,1,1,4,3,0,0,0,4,0,0,0,0,0,0,0,0,0,0,0,0,0,0,0,0,0,0,0,0,0,0],"split_type":[0,0,0,0,0,0,0,0,0,0,0,0,0,0,0,0,0,0,0,0,0,0,0,0,0,0,0,0,0,0,0,0,0,0,0,0,0,0,0,0,0,0,0,0,0,0,0],"sum_hessian":[3.9705634E2,1.6570462E2,2.313517E2,3.5930214E1,1.2977441E2,1.5089487E2,8.0456825E1,4.3089104E1,8.66853E1,1.1367759E1,1.3952711E2,4.8212677E1,3.2244152E1,3.4032646E1,9.056455E0,7.3147865E1,1.3537436E1,9.178716E0,2.1890438E0,1.3266605E2,6.861075E0,3.0335636E0,4.517911E1,7.9718404E0,2.4272312E1,2.9942753E1,4.0898943E0,5.523548E0,3.532906E0,3.8104346E0,6.933743E1,7.7646527E0,5.7727833E0,5.585239E0,3.5934768E0,1.0118891E0,1.1771545E0,1.0787545E2,2.4790586E1,5.196994E0,1.6640812E0,2.340623E0,4.283849E1,1.0585084E0,6.913332E0,2.0276686E1,3.995626E0],"tree_param":{"num_deleted":"0","num_feature":"18","num_nodes":"47","size_leaf_vector":"1"}},{"base_weights":[-4.4144984E-2,4.241202E-1,-3.856486E-1,1.0730878E-1,2.4742354E-1,-7.1005946E-1,2.1404766E-1,6.919589E-1,-3.4827116E-1,-7.4572647E-1,2.1613425E-1,-6.2836474E-1,4.657584E-1,8.535372E-1,-7.0294267E-1,-4.2869753E-1,3.4496933E-1,-7.812192E-1,5.908948E-4,-2.1849336E-1,9.0760626E-2,-6.872746E-1,6.2034177E-3,-7.173654E-1,6.394423E-1,9.4356E-2,-6.1558582E-2,-8.7215684E-2,-7.992321E-4,-5.0934076E-2,2.7698008E-2,7.907351E-2,-2.3101203E-3,-8.533987E-2,-4.19812E-2,3.4074236E-2,-5.414411E-2,2.9567886E-2,-5.7199445E-2,-3.1627454E-2,-8.27133E-2,2.0976733E-2,-9.1153026E-2,-6.872576E-2,8.257157E-2],"categories":[],"categories_nodes":[],"categories_segments":[],"categories_sizes":[],"default_left":[0,0,0,0,0,0,0,0,0,0,0,0,0,0,0,0,0,0,0,0,0,0,0,0,0,0,0,0,0,0,0,0,0,0,0,0,0,0,0,0,0,0,0,0,0],"id":20,"left_children":[1,3,5,-1,7,9,11,13,15,17,19,21,23,25,27,29,31,33,35,37,-1,39,-1,41,43,-1,-1,-1,-1,-1,-1,-1,-1,-1,-1,-1,-1,-1,-1,-1,-1,-1,-1,-1,-1],"loss_changes":[6.098143E1,1.7920773E1,4.3178677E1,0E0,3.466196E1,5.0621185E0,1.7316107E1,1.8010422E1,3.4453473E0,3.6724854E0,2.461565E0,8.581624E-1,1.3637001E1,1.0121372E1,1.025538E0,3.2134418E0,1.1818628E0,2.7350998E0,1.8976241E0,1.3981003E0,0E0,3.939066E-1,0E0,1.9784803E0,1.4735119E1,0E0,0E0,0E0,0E0,0E0,0E0,0E0,0E0,0E0,0E0,0E0,0E0,0E0,0E0,0E0,0E0,0E0,0E0,0E0,0E0],"parents":[2147483647,0,0,1,1,2,2,4,4,5,5,6,6,7,7,8,8,9,9,10,10,11,11,12,12,13,13,14,14,15,15,16,16,17,17,18,18,19,19,21,21,23,23,24,24],"right_children":[2,4,6,-1,8,10,12,14,16,18,20,22,24,26,28,30,32,34,36,38,-1,40,-1,42,44,-1,-1,-1,-1,-1,-1,-1,-1,-1,-1,-1,-1,-1,-1,-1,-1,-1,-1,-1,-1],"split_conditions":[4.8E-1,1.2E-1,5E0,1.0730878E-1,3E0,2.74E2,2.17E2,5.8E-1,2.77E2,6E0,9E-1,9.9E-1,4E0,1.62E2,2.12E2,9.5E-1,2.8E2,4E0,7.6E-1,1E0,9.0760626E-2,4E0,6.2034177E-3,6.1E-1,7.1E-1,9.4356E-2,-6.1558582E-2,-8.7215684E-2,-7.992321E-4,-5.0934076E-2,2.7698008E-2,7.907351E-2,-2.3101203E-3,-8.533987E-2,-4.19812E-2,3.4074236E-2,-5.414411E-2,2.9567886E-2,-5.7199445E-2,-3.1627454E-2,-8.27133E-2,2.0976733E-2,-9.1153026E-2,-6.872576E-2,8.257157E-2],"split_indices":[0,0,4,0,2,3,3,1,3,2,1,1,2,3,3,1,3,4,0,7,0,2,0,0,0,0,0,0,0,0,0,0,0,0,0,0,0,0,0,0,0,0,0,0,0],"split_type":[0,0,0,0,0,0,0,0,0,0,0,0,0,0,0,0,0,0,0,0,0,0,0,0,0,0,0,0,0,0,0,0,0,0,0,0,0,0,0,0,0,0,0,0,0],"sum_hessian":[3.7729266E2,1.589115E2,2.1838115E2,3.1836605E1,1.270749E2,1.4147888E2,7.6902275E1,7.258521E1,5.4489693E1,1.3660791E2,4.870974E0,1.7003405E1,5.9898865E1,6.574576E1,6.8394485E0,4.9509098E1,4.9805946E0,1.3031688E2,6.2910223E0,3.8310106E0,1.0399636E0,1.5674956E1,1.3284494E0,6.866196E0,5.303267E1,6.2623863E1,3.1218984E0,5.090077E0,1.7493712E0,4.493094E1,4.5781593E0,1.2138569E0,3.7667377E0,1.0635352E2,2.3963364E1,4.32168E0,1.9693421E0,1.6940835E0,2.1369271E0,6.077103E0,9.597853E0,1.1611274E0,5.705069E0,5.866994E0,4.7165676E1],"tree_param":{"num_deleted":"0","num_feature":"18","num_nodes":"45","size_leaf_vector":"1"}},{"base_weights":[-4.762687E-2,3.9569923E-1,-3.663434E-1,1.0556779E-1,2.2470744E-1,-7.1387905E-1,2.2187097E-1,-4.2214003E-1,6.146976E-1,-8.560955E-2,-7.6593953E-1,-5.6996995E-1,4.397319E-1,1.1130529E-1,-5.0758016E-1,8.024345E-1,-3.916559E-1,-4.440374E-1,7.989387E-1,-8.371903E-1,-4.4131124E-1,-7.056846E-1,-3.6943257E-2,5.5343646E-1,-8.48382E-2,7.2294444E-2,-2.2308962E-2,-7.0431046E-2,-8.034626E-3,-7.29002E-2,9.0427436E-2,-7.254905E-2,3.4747176E-2,-7.317867E-2,7.96306E-3,1.14844635E-1,-7.1412385E-3,-8.6264566E-2,2.3797473E-2,2.108592E-2,-7.250549E-2,-3.0118585E-2,-8.448821E-2,2.8856898E-2,-4.5025498E-2,6.346857E-2,-8.518283E-2],"categories":[],"categories_nodes":[],"categories_segments":[],"categories_sizes":[],"default_left":[0,0,0,0,0,0,0,0,0,0,0,0,0,0,0,0,0,0,0,0,0,0,0,0,0,0,0,0,0,0,0,0,0,0,0,0,0,0,0,0,0,0,0,0,0,0,0],"id":21,"left_children":[1,3,5,-1,7,9,11,13,15,17,19,21,23,25,27,29,31,33,35,37,39,41,43,45,-1,-1,-1,-1,-1,-1,-1,-1,-1,-1,-1,-1,-1,-1,-1,-1,-1,-1,-1,-1,-1,-1,-1],"loss_changes":[5.150341E1,1.6741585E1,4.363485E1,0E0,3.1725147E1,4.241127E0,1.4341078E1,2.287736E0,1.5363028E1,4.6665406E0,2.110588E0,1.2630706E0,1.0319292E1,2.0053484E0,3.373845E0,1.16717E1,3.861308E0,1.6486187E0,1.4761672E0,3.1143951E0,5.1914954E0,3.007884E-1,1.0402018E0,7.9387474E0,0E0,0E0,0E0,0E0,0E0,0E0,0E0,0E0,0E0,0E0,0E0,0E0,0E0,0E0,0E0,0E0,0E0,0E0,0E0,0E0,0E0,0E0,0E0],"parents":[2147483647,0,0,1,1,2,2,4,4,5,5,6,6,7,7,8,8,9,9,10,10,11,11,12,12,13,13,14,14,15,15,16,16,17,17,18,18,19,19,20,20,21,21,22,22,23,23],"right_children":[2,4,6,-1,8,10,12,14,16,18,20,22,24,26,28,30,32,34,36,38,40,42,44,46,-1,-1,-1,-1,-1,-1,-1,-1,-1,-1,-1,-1,-1,-1,-1,-1,-1,-1,-1,-1,-1,-1,-1],"split_conditions":[4.7E-1,1.2E-1,5E0,1.0556779E-1,3.6E-1,3E0,8.1E-1,1.5E-1,5.8E-1,2.53E2,4E0,2.55E2,7E0,4E0,2.7E-1,4.5E-1,2.12E2,7.6E-1,1E0,2.75E2,6.3E-1,6.9E-1,5E0,9.3E-1,-8.48382E-2,7.2294444E-2,-2.2308962E-2,-7.0431046E-2,-8.034626E-3,-7.29002E-2,9.0427436E-2,-7.254905E-2,3.4747176E-2,-7.317867E-2,7.96306E-3,1.14844635E-1,-7.1412385E-3,-8.6264566E-2,2.3797473E-2,2.108592E-2,-7.250549E-2,-3.0118585E-2,-8.448821E-2,2.8856898E-2,-4.5025498E-2,6.346857E-2,-8.518283E-2],"split_indices":[0,0,4,0,0,2,1,0,1,3,4,3,4,4,0,1,3,1,7,3,0,0,2,0,0,0,0,0,0,0,0,0,0,0,0,0,0,0,0,0,0,0,0,0,0,0,0],"split_type":[0,0,0,0,0,0,0,0,0,0,0,0,0,0,0,0,0,0,0,0,0,0,0,0,0,0,0,0,0,0,0,0,0,0,0,0,0,0,0,0,0,0,0,0,0,0,0],"sum_hessian":[3.6045694E2,1.5055539E2,2.0990155E2,2.8851042E1,1.2170434E2,1.3167596E2,7.8225586E1,4.5715157E1,7.598918E1,1.0480883E1,1.2119508E2,1.6181091E1,6.2044495E1,6.2276134E0,3.9487545E1,6.438358E1,1.1605602E1,8.167388E0,2.3134947E0,9.679277E1,2.440231E1,1.2380928E1,3.8001637E0,5.8060104E1,3.9843876E0,1.379848E0,4.8477654E0,2.614936E1,1.3338182E1,3.2465348E0,6.1137047E1,8.020129E0,3.585473E0,4.7580485E0,3.4093397E0,1.1946975E0,1.1187972E0,9.4940315E1,1.8524587E0,7.553866E0,1.6848444E1,4.7897353E0,7.591193E0,2.4635608E0,1.3366028E0,5.5923443E1,2.1366632E0],"tree_param":{"num_deleted":"0","num_feature":"18","num_nodes":"47","size_leaf_vector":"1"}},{"base_weights":[-1.6274814E-2,3.9288473E-1,-3.1385612E-1,1.04024746E-1,2.2416186E-1,-6.940174E-1,5.393861E-2,6.5607876E-1,-3.1093106E-1,-7.3194766E-1,2.3384625E-1,-4.7821665E-1,3.136808E-1,-7.178542E-1,7.9971397E-1,-3.6925274E-1,8.3656795E-2,-4.7800437E-2,-7.9406583E-1,-4.015429E-2,6.068017E-2,-6.659049E-1,2.8949788E-1,-4.8686275E-1,4.8177755E-1,-7.964303E-2,-8.63733E-3,8.8563874E-2,-4.241411E-2,2.7324516E-2,-4.4244457E-2,-4.568807E-2,5.3717624E-2,-3.0351935E-3,-8.0282085E-2,-7.4129246E-2,1.26298955E-2,-1.8996337E-2,1.17005564E-1,6.1464854E-2,-8.87901E-2,-3.5840705E-2,6.526725E-2],"categories":[],"categories_nodes":[],"categories_segments":[],"categories_sizes":[],"default_left":[0,0,0,0,0,0,0,0,0,0,0,0,0,0,0,0,0,0,0,0,0,0,0,0,0,0,0,0,0,0,0,0,0,0,0,0,0,0,0,0,0,0,0],"id":22,"left_children":[1,3,5,-1,7,9,11,13,15,17,19,21,23,25,27,29,-1,31,33,-1,-1,35,37,39,41,-1,-1,-1,-1,-1,-1,-1,-1,-1,-1,-1,-1,-1,-1,-1,-1,-1,-1],"loss_changes":[4.198562E1,1.5396252E1,2.7979467E1,0E0,2.7622494E1,3.8012352E0,1.4577398E1,1.4133736E1,4.2284594E0,3.9573746E0,1.7611786E0,5.3814874E0,9.972392E0,2.2374415E-1,7.1154594E0,2.7214274E0,0E0,2.8905535E0,5.321579E-1,0E0,0E0,1.887351E0,3.9087505E0,6.9447002E0,8.992396E0,0E0,0E0,0E0,0E0,0E0,0E0,0E0,0E0,0E0,0E0,0E0,0E0,0E0,0E0,0E0,0E0,0E0,0E0],"parents":[2147483647,0,0,1,1,2,2,4,4,5,5,6,6,7,7,8,8,9,9,10,10,11,11,12,12,13,13,14,14,15,15,17,17,18,18,21,21,22,22,23,23,24,24],"right_children":[2,4,6,-1,8,10,12,14,16,18,20,22,24,26,28,30,-1,32,34,-1,-1,36,38,40,42,-1,-1,-1,-1,-1,-1,-1,-1,-1,-1,-1,-1,-1,-1,-1,-1,-1,-1],"split_conditions":[4.7E-1,1.2E-1,4E0,1.04024746E-1,3E0,6E0,8.1E-1,3.6E-1,2.88E2,3E0,6.2E-1,1E0,4E0,2.49E2,1.62E2,1.5E-1,8.3656795E-2,7.8E-1,1.29E2,-4.015429E-2,6.068017E-2,2.73E2,2.55E2,6.1E-1,7.1E-1,-7.964303E-2,-8.63733E-3,8.8563874E-2,-4.241411E-2,2.7324516E-2,-4.4244457E-2,-4.568807E-2,5.3717624E-2,-3.0351935E-3,-8.0282085E-2,-7.4129246E-2,1.26298955E-2,-1.8996337E-2,1.17005564E-1,6.1464854E-2,-8.87901E-2,-3.5840705E-2,6.526725E-2],"split_indices":[0,0,4,0,2,2,1,0,3,2,1,17,2,3,3,0,0,1,3,0,0,3,3,0,0,0,0,0,0,0,0,0,0,0,0,0,0,0,0,0,0,0,0],"split_type":[0,0,0,0,0,0,0,0,0,0,0,0,0,0,0,0,0,0,0,0,0,0,0,0,0,0,0,0,0,0,0,0,0,0,0,0,0,0,0,0,0,0,0],"sum_hessian":[3.4080225E2,1.4322897E2,1.9757327E2,2.747623E1,1.1575275E2,9.6281006E1,1.0129226E2,6.3801323E1,5.1951424E1,9.290541E1,3.375596E0,3.2672066E1,6.862019E1,5.281925E0,5.8519398E1,5.0729515E1,1.2219082E0,8.027906E0,8.48775E1,1.1918266E0,2.1837695E0,2.6466785E1,6.2052813E0,1.1250099E1,5.7370094E1,4.232809E0,1.0491163E0,5.519683E1,3.3225665E0,4.62893E0,4.6100586E1,4.9819384E0,3.0459685E0,1.063233E0,8.381427E1,2.428437E1,2.1824148E0,5.0332365E0,1.1720448E0,2.7183788E0,8.53172E0,9.325906E0,4.804419E1],"tree_param":{"num_deleted":"0","num_feature":"18","num_nodes":"43","size_leaf_vector":"1"}},{"base_weights":[-5.025112E-2,3.330296E-1,-3.3207437E-1,1.0235315E-1,1.6153151E-1,-6.451451E-1,1.894905E-1,-5.111765E-1,5.665885E-1,-3.6471394E-1,-7.47772E-1,5.27107E-1,-3.3330557E-1,-6.089871E-1,2.7011603E-1,7.592895E-1,-3.570525E-1,-5.9215176E-1,1.4769629E-1,-7.831187E-1,1.3202812E-1,-3.6694837E-1,6.635077E-1,2.2354472E-1,-6.9414896E-1,-6.91286E-2,7.0127468E-3,7.18354E-2,-1.4232876E-2,-7.996461E-2,8.843302E-2,-6.5217175E-2,2.0236636E-2,-7.721031E-2,5.4375012E-3,5.5532675E-2,-5.3210326E-2,-2.5353357E-2,-8.162127E-2,5.895394E-2,-4.3790404E-2,2.7440256E-2,-6.638165E-2,7.7477954E-2,-2.7482117E-2,4.872792E-2,-5.984358E-2,-8.102909E-2,2.2905821E-2],"categories":[],"categories_nodes":[],"categories_segments":[],"categories_sizes":[],"default_left":[0,0,0,0,0,0,0,0,0,0,0,0,0,0,0,0,0,0,0,0,0,0,0,0,0,0,0,0,0,0,0,0,0,0,0,0,0,0,0,0,0,0,0,0,0,0,0,0,0],"id":23,"left_children":[1,3,5,-1,7,9,11,13,15,17,19,21,23,25,27,29,31,33,35,37,39,41,43,45,47,-1,-1,-1,-1,-1,-1,-1,-1,-1,-1,-1,-1,-1,-1,-1,-1,-1,-1,-1,-1,-1,-1,-1,-1],"loss_changes":[3.546051E1,1.6157455E1,3.110616E1,0E0,3.1617517E1,2.8667488E0,1.3137488E1,3.6808376E0,1.3365526E1,4.33181E0,2.8468094E0,5.9491377E0,6.2681274E0,2.309991E0,1.362826E0,1.3158802E1,2.5417523E0,3.0045395E0,4.0730352E0,1.0215607E0,1.8175714E0,1.7383375E0,4.5577354E0,3.438581E0,2.3525505E0,0E0,0E0,0E0,0E0,0E0,0E0,0E0,0E0,0E0,0E0,0E0,0E0,0E0,0E0,0E0,0E0,0E0,0E0,0E0,0E0,0E0,0E0,0E0,0E0],"parents":[2147483647,0,0,1,1,2,2,4,4,5,5,6,6,7,7,8,8,9,9,10,10,11,11,12,12,13,13,14,14,15,15,16,16,17,17,18,18,19,19,20,20,21,21,22,22,23,23,24,24],"right_children":[2,4,6,-1,8,10,12,14,16,18,20,22,24,26,28,30,32,34,36,38,40,42,44,46,48,-1,-1,-1,-1,-1,-1,-1,-1,-1,-1,-1,-1,-1,-1,-1,-1,-1,-1,-1,-1,-1,-1,-1,-1],"split_conditions":[4.8E-1,1.2E-1,5E0,1.0235315E-1,3.6E-1,6.2E-1,6E0,2.77E2,1.61E2,2.36E2,2.74E2,6.6E-1,1E0,9.5E-1,2.8E2,1.26E2,2.37E2,4E0,2.66E2,3E0,1E0,4E0,1E0,7E0,9.9E-1,-6.91286E-2,7.0127468E-3,7.18354E-2,-1.4232876E-2,-7.996461E-2,8.843302E-2,-6.5217175E-2,2.0236636E-2,-7.721031E-2,5.4375012E-3,5.5532675E-2,-5.3210326E-2,-2.5353357E-2,-8.162127E-2,5.895394E-2,-4.3790404E-2,2.7440256E-2,-6.638165E-2,7.7477954E-2,-2.7482117E-2,4.872792E-2,-5.984358E-2,-8.102909E-2,2.2905821E-2],"split_indices":[0,0,4,0,0,0,4,3,3,3,3,0,7,1,3,3,3,4,3,2,7,2,5,4,1,0,0,0,0,0,0,0,0,0,0,0,0,0,0,0,0,0,0,0,0,0,0,0,0],"split_type":[0,0,0,0,0,0,0,0,0,0,0,0,0,0,0,0,0,0,0,0,0,0,0,0,0,0,0,0,0,0,0,0,0,0,0,0,0,0,0,0,0,0,0,0,0,0,0,0,0],"sum_hessian":[3.242375E2,1.3723456E2,1.8700291E2,2.5326448E1,1.1190811E2,1.1656223E2,7.044068E1,4.186156E1,7.004655E1,3.3668785E1,8.289345E1,4.2790504E1,2.7650177E1,3.759597E1,4.26559E0,5.8249683E1,1.17968645E1,2.3103052E1,1.0565734E1,7.990305E1,2.990396E0,5.2166796E0,3.7573826E1,1.1171463E1,1.6478714E1,3.3500362E1,4.0956054E0,1.3332461E0,2.932344E0,3.5240235E0,5.4725662E1,7.5056725E0,4.291192E0,1.7768879E1,5.3341737E0,6.834028E0,3.7317061E0,5.7182903E0,7.418476E1,1.6206325E0,1.3697635E0,1.698534E0,3.5181458E0,3.3902134E1,3.67169E0,9.074322E0,2.0971408E0,1.4854585E1,1.6241286E0],"tree_param":{"num_deleted":"0","num_feature":"18","num_nodes":"49","size_leaf_vector":"1"}},{"base_weights":[-3.4039088E-2,3.3251595E-1,-3.104673E-1,1.0056645E-1,1.7625049E-1,-6.2590265E-1,1.9220161E-1,-4.0053457E-1,5.075899E-1,-7.2770184E-1,-2.5693908E-1,-4.7237957E-1,3.9886567E-1,-5.1159346E-1,3.5964242E-1,7.2386104E-1,-1.9258167E-1,-7.559067E-1,2.9929591E-2,-4.960203E-1,2.3996542E-1,-9.141895E-2,-7.5226915E-1,-3.05396E-1,5.300006E-1,-7.752084E-2,-1.8734394E-2,8.047259E-2,-4.458227E-3,-7.483282E-2,8.187219E-2,-5.463624E-2,3.1218747E-2,-8.360871E-2,-2.744033E-2,-6.0958803E-2,2.5034282E-2,-2.6051586E-2,7.2181374E-2,3.0282943E-2,-4.6386573E-2,-4.10837E-3,-8.257441E-2,8.996743E-2,-6.522568E-2,-5.878004E-2,6.728161E-2],"categories":[],"categories_nodes":[],"categories_segments":[],"categories_sizes":[],"default_left":[0,0,0,0,0,0,0,0,0,0,0,0,0,0,0,0,0,0,0,0,0,0,0,0,0,0,0,0,0,0,0,0,0,0,0,0,0,0,0,0,0,0,0,0,0,0,0],"id":24,"left_children":[1,3,5,-1,7,9,11,13,15,17,19,21,23,25,27,29,31,33,-1,35,37,39,41,43,45,-1,-1,-1,-1,-1,-1,-1,-1,-1,-1,-1,-1,-1,-1,-1,-1,-1,-1,-1,-1,-1,-1],"loss_changes":[3.1314856E1,1.3631019E1,2.8156185E1,0E0,2.1492079E1,3.7067833E0,9.910275E0,3.8608952E0,1.1023661E1,2.8873749E0,3.3964083E0,1.7156975E0,5.313731E0,2.8657675E0,1.2319043E0,8.854937E0,3.6135588E0,2.7216148E0,0E0,1.8819113E0,2.7837949E0,1.696136E0,4.4125032E-1,5.2492237E0,8.179285E0,0E0,0E0,0E0,0E0,0E0,0E0,0E0,0E0,0E0,0E0,0E0,0E0,0E0,0E0,0E0,0E0,0E0,0E0,0E0,0E0,0E0,0E0],"parents":[2147483647,0,0,1,1,2,2,4,4,5,5,6,6,7,7,8,8,9,9,10,10,11,11,12,12,13,13,14,14,15,15,16,16,17,17,19,19,20,20,21,21,22,22,23,23,24,24],"right_children":[2,4,6,-1,8,10,12,14,16,18,20,22,24,26,28,30,32,34,-1,36,38,40,42,44,46,-1,-1,-1,-1,-1,-1,-1,-1,-1,-1,-1,-1,-1,-1,-1,-1,-1,-1,-1,-1,-1,-1],"split_conditions":[4.9E-1,1.2E-1,5E0,1.0056645E-1,3.6E-1,4E0,8.2E-1,2.77E2,3E0,2.75E2,5E0,6E0,7.2E-1,5E0,2.8E2,1.26E2,1.99E2,1E0,2.9929591E-2,2.64E2,7.7E-1,6.3E-1,5.5E-1,3E0,4E0,-7.752084E-2,-1.8734394E-2,8.047259E-2,-4.458227E-3,-7.483282E-2,8.187219E-2,-5.463624E-2,3.1218747E-2,-8.360871E-2,-2.744033E-2,-6.0958803E-2,2.5034282E-2,-2.6051586E-2,7.2181374E-2,3.0282943E-2,-4.6386573E-2,-4.10837E-3,-8.257441E-2,8.996743E-2,-6.522568E-2,-5.878004E-2,6.728161E-2],"split_indices":[0,0,4,0,0,4,1,3,2,3,2,4,0,2,3,3,3,16,0,3,1,1,0,2,2,0,0,0,0,0,0,0,0,0,0,0,0,0,0,0,0,0,0,0,0,0,0],"split_type":[0,0,0,0,0,0,0,0,0,0,0,0,0,0,0,0,0,0,0,0,0,0,0,0,0,0,0,0,0,0,0,0,0,0,0,0,0,0,0,0,0,0,0,0,0,0,0],"sum_hessian":[3.0501242E2,1.3095499E2,1.7405743E2,2.262434E1,1.0833064E2,1.0664508E2,6.741236E1,3.9373257E1,6.895738E1,8.205974E1,2.4585337E1,1.5380608E1,5.203175E1,3.492488E1,4.4483757E0,5.2632446E1,1.632494E1,8.0380165E1,1.6795803E0,1.6601316E1,7.9840193E0,7.6378713E0,7.742736E0,7.7504005E0,4.428135E1,1.7729359E1,1.7195522E1,1.1740626E0,3.2743132E0,2.3520775E0,5.028037E1,9.501066E0,6.8238735E0,6.764332E1,1.2736842E1,1.4726953E1,1.8743649E0,4.366916E0,3.617103E0,3.891945E0,3.7459266E0,1.0170189E0,6.725717E0,1.0198154E0,6.730585E0,4.310663E0,3.9970688E1],"tree_param":{"num_deleted":"0","num_feature":"18","num_nodes":"47","size_leaf_vector":"1"}},{"base_weights":[-3.5023548E-2,3.5607693E-1,-3.241506E-1,9.9047415E-2,2.1136546E-1,-7.389393E-1,4.8604902E-2,5.985474E-1,-3.503108E-1,-8.029133E-1,-3.454317E-1,1.7178419E-1,-9.889685E-2,-8.199581E-2,7.507484E-1,-4.1961315E-1,3.8521197E-1,-8.937212E-2,-5.492762E-1,1.07059605E-1,-6.070267E-1,5.0940126E-1,-1.643727E-1,-4.557504E-2,8.747942E-2,-4.7055244E-2,4.596109E-2,8.77294E-2,-2.4071304E-2,5.1220297E-3,-6.984811E-2,7.9437904E-2,-4.4190034E-2,1.8991968E-2,-7.7818476E-2,-6.670483E-2,6.457942E-2,-7.102537E-2,1.4785612E-2],"categories":[],"categories_nodes":[],"categories_segments":[],"categories_sizes":[],"default_left":[0,0,0,0,0,0,0,0,0,0,0,0,0,0,0,0,0,0,0,0,0,0,0,0,0,0,0,0,0,0,0,0,0,0,0,0,0,0,0],"id":25,"left_children":[1,3,5,-1,7,9,11,13,15,17,19,21,-1,-1,23,25,27,-1,29,31,33,35,37,-1,-1,-1,-1,-1,-1,-1,-1,-1,-1,-1,-1,-1,-1,-1,-1],"loss_changes":[3.348491E1,1.1144155E1,2.6376543E1,0E0,2.3275402E1,1.475563E0,1.2031874E1,1.4822344E1,2.5736265E0,5.811844E-1,1.8804245E0,9.641569E0,0E0,0E0,9.462147E0,2.282392E0,1.9144021E0,0E0,2.1394339E0,3.3875904E0,1.6146774E0,7.622739E0,7.59715E0,0E0,0E0,0E0,0E0,0E0,0E0,0E0,0E0,0E0,0E0,0E0,0E0,0E0,0E0,0E0,0E0],"parents":[2147483647,0,0,1,1,2,2,4,4,5,5,6,6,7,7,8,8,9,9,10,10,11,11,14,14,15,15,16,16,18,18,19,19,20,20,21,21,22,22],"right_children":[2,4,6,-1,8,10,12,14,16,18,20,22,-1,-1,24,26,28,-1,30,32,34,36,38,-1,-1,-1,-1,-1,-1,-1,-1,-1,-1,-1,-1,-1,-1,-1,-1],"split_conditions":[4.8E-1,1.2E-1,4E0,9.9047415E-2,1.61E2,1E0,9.3E-1,1.26E2,1E0,1E0,4E0,1E0,-9.889685E-2,-8.199581E-2,3.1E-1,2.87E2,6.6E-1,-8.937212E-2,5.8E-1,3E0,5.6E-1,1.5E2,7.2E-1,-4.557504E-2,8.747942E-2,-4.7055244E-2,4.596109E-2,8.77294E-2,-2.4071304E-2,5.1220297E-3,-6.984811E-2,7.9437904E-2,-4.4190034E-2,1.8991968E-2,-7.7818476E-2,-6.670483E-2,6.457942E-2,-7.102537E-2,1.4785612E-2],"split_indices":[0,0,4,0,3,16,0,3,10,15,2,7,0,0,0,3,1,0,0,4,0,3,0,0,0,0,0,0,0,0,0,0,0,0,0,0,0,0,0],"split_type":[0,0,0,0,0,0,0,0,0,0,0,0,0,0,0,0,0,0,0,0,0,0,0,0,0,0,0,0,0,0,0,0,0,0,0,0,0,0,0],"sum_hessian":[2.9208145E2,1.2395081E2,1.6813065E2,2.0851488E1,1.0309933E2,7.864861E1,8.948204E1,6.095189E1,4.2147434E1,6.58606E1,1.2788011E1,8.147796E1,8.004078E0,5.0559554E0,5.5895935E1,3.930322E1,2.8442156E0,4.47808E1,2.1079802E1,5.1175194E0,7.6704917E0,4.013644E1,4.134152E1,4.712543E0,5.118339E1,3.8029533E1,1.2736851E0,1.1426831E0,1.7015326E0,4.4566793E0,1.6623121E1,1.8753648E0,3.2421544E0,1.3173617E0,6.35313E0,3.3614192E0,3.677502E1,1.4114701E1,2.7226818E1],"tree_param":{"num_deleted":"0","num_feature":"18","num_nodes":"39","size_leaf_vector":"1"}},{"base_weights":[-2.8582811E-2,9.764593E-2,-1.0934689E-1,4.154831E-1,-2.8363216E-1,5.907056E-1,-2.4321516E-1,-6.1795485E-1,-1.7817333E-2,-7.495949E-2,7.0645916E-1,-6.653898E-1,5.346946E-1,-6.561838E-1,8.457833E-2,-9.940566E-2,9.0195745E-2,-6.317985E-2,7.936939E-2,-9.904765E-2,1.2178445E-2,-2.1530127E-2,1.0350429E-1,3.4262363E-2,-6.8304874E-2,-3.6350813E-2,1.864663E-2],"categories":[],"categories_nodes":[],"categories_segments":[],"categories_sizes":[],"default_left":[0,0,0,0,0,0,0,0,0,0,0,0,0,0,0,0,0,0,0,0,0,0,0,0,0,0,0],"id":26,"left_children":[1,-1,3,5,7,9,11,13,15,-1,17,19,21,23,-1,25,-1,-1,-1,-1,-1,-1,-1,-1,-1,-1,-1],"loss_changes":[2.3257345E1,0E0,2.4436241E1,7.9936123E0,1.7734268E1,9.331741E0,5.7842073E0,6.0587654E0,8.686654E0,0E0,6.8531895E0,3.0314088E0,2.900855E0,2.810955E0,0E0,8.133299E0,0E0,0E0,0E0,0E0,0E0,0E0,0E0,0E0,0E0,0E0,0E0],"parents":[2147483647,0,0,2,2,3,3,4,4,5,5,6,6,7,7,8,8,10,10,11,11,12,12,13,13,15,15],"right_children":[2,-1,4,6,8,10,12,14,16,-1,18,20,22,24,-1,26,-1,-1,-1,-1,-1,-1,-1,-1,-1,-1,-1],"split_conditions":[1.2E-1,9.764593E-2,3E0,1.69E2,4E0,1.26E2,2.48E2,2.87E2,1E0,-7.495949E-2,3.6E-1,7.8E-1,5.9E-1,1.6E-1,8.457833E-2,5E0,9.0195745E-2,-6.317985E-2,7.936939E-2,-9.904765E-2,1.2178445E-2,-2.1530127E-2,1.0350429E-1,3.4262363E-2,-6.8304874E-2,-3.6350813E-2,1.864663E-2],"split_indices":[0,0,2,3,4,3,3,3,1,0,0,1,0,0,0,2,0,0,0,0,0,0,0,0,0,0,0],"split_type":[0,0,0,0,0,0,0,0,0,0,0,0,0,0,0,0,0,0,0,0,0,0,0,0,0,0,0],"sum_hessian":[2.81891E2,1.93177E1,2.625733E2,6.476795E1,1.9780534E2,5.1322044E1,1.3445902E1,8.643904E1,1.113663E2,3.2093775E0,4.8112667E1,8.903323E0,4.542579E0,8.531428E1,1.1247662E0,1.03930984E2,7.4353166E0,2.1802778E0,4.5932392E1,5.9355326E0,2.9677904E0,2.2737465E0,2.2688327E0,1.6188877E0,8.369539E1,5.3740097E1,5.0190884E1],"tree_param":{"num_deleted":"0","num_feature":"18","num_nodes":"27","size_leaf_vector":"1"}},{"base_weights":[-3.3709437E-2,3.169873E-1,-2.8157353E-1,9.653942E-2,1.7184727E-1,-6.8205297E-1,5.0807595E-2,-4.44537E-1,4.1649148E-1,-7.8002846E-1,-2.561198E-1,-4.1885775E-1,2.9772282E-1,-5.499533E-1,5.226211E-2,-8.181433E-2,5.1689476E-1,-8.364658E-1,-3.931137E-1,3.7509957E-1,-4.520091E-1,-1.2015572E-1,-6.5734446E-1,-5.4367846E-1,4.8778358E-1,-3.433348E-3,-7.189825E-2,7.569619E-2,-1.4338933E-2,-8.544454E-3,-8.521829E-2,-6.910861E-2,-1.7391726E-3,1.1653959E-1,-4.868106E-2,-5.930944E-2,2.1733785E-2,-6.4369865E-2,9.724754E-3,-7.477091E-2,1.4204921E-2,3.96343E-2,-8.299027E-2,5.831622E-2,-6.292897E-2],"categories":[],"categories_nodes":[],"categories_segments":[],"categories_sizes":[],"default_left":[0,0,0,0,0,0,0,0,0,0,0,0,0,0,0,0,0,0,0,0,0,0,0,0,0,0,0,0,0,0,0,0,0,0,0,0,0,0,0,0,0,0,0,0,0],"id":27,"left_children":[1,3,5,-1,7,9,11,13,15,17,19,21,23,25,-1,-1,27,29,31,33,35,37,39,41,43,-1,-1,-1,-1,-1,-1,-1,-1,-1,-1,-1,-1,-1,-1,-1,-1,-1,-1,-1,-1],"loss_changes":[2.3900105E1,1.0391771E1,2.1493576E1,0E0,1.4777159E1,2.6524582E0,1.0664898E1,3.441083E0,9.451987E0,6.193619E-1,2.3984375E0,2.1058202E0,1.0131092E1,2.2449417E0,0E0,0E0,1.0588676E1,4.358673E-1,1.2318472E0,4.5659695E0,1.5437522E0,2.0095441E0,1.4565592E0,3.8887231E0,6.064102E0,0E0,0E0,0E0,0E0,0E0,0E0,0E0,0E0,0E0,0E0,0E0,0E0,0E0,0E0,0E0,0E0,0E0,0E0,0E0,0E0],"parents":[2147483647,0,0,1,1,2,2,4,4,5,5,6,6,7,7,8,8,9,9,10,10,11,11,12,12,13,13,16,16,17,17,18,18,19,19,20,20,21,21,22,22,23,23,24,24],"right_children":[2,4,6,-1,8,10,12,14,16,18,20,22,24,26,-1,-1,28,30,32,34,36,38,40,42,44,-1,-1,-1,-1,-1,-1,-1,-1,-1,-1,-1,-1,-1,-1,-1,-1,-1,-1,-1,-1],"split_conditions":[4.7E-1,1.2E-1,4E0,9.653942E-2,2.7E-1,2.5E2,2.17E2,1E0,4.5E-1,1E0,2.56E2,1E0,4E0,1.6E-1,5.226211E-2,-8.181433E-2,5.8E-1,4.6E-1,7.3E-1,6.7E-1,2.76E2,1.46E2,1E0,5.9E-1,6E0,-3.433348E-3,-7.189825E-2,7.569619E-2,-1.4338933E-2,-8.544454E-3,-8.521829E-2,-6.910861E-2,-1.7391726E-3,1.1653959E-1,-4.868106E-2,-5.930944E-2,2.1733785E-2,-6.4369865E-2,9.724754E-3,-7.477091E-2,1.4204921E-2,3.96343E-2,-8.299027E-2,5.831622E-2,-6.292897E-2],"split_indices":[0,0,4,0,0,3,3,10,1,16,3,7,2,0,0,0,1,1,1,0,3,3,8,1,2,0,0,0,0,0,0,0,0,0,0,0,0,0,0,0,0,0,0,0,0],"split_type":[0,0,0,0,0,0,0,0,0,0,0,0,0,0,0,0,0,0,0,0,0,0,0,0,0,0,0,0,0,0,0,0,0,0,0,0,0,0,0,0,0,0,0,0,0],"sum_hessian":[2.7089688E2,1.1194745E2,1.5894942E2,1.840792E1,9.353953E1,7.113555E1,8.7813866E1,2.6113094E1,6.742644E1,5.648084E1,1.4654714E1,2.97785E1,5.8035362E1,2.4324562E1,1.7885337E0,3.9956596E0,6.343078E1,4.7263046E1,9.217793E0,3.037426E0,1.1617288E1,1.455552E1,1.52229805E1,1.0008135E1,4.802723E1,6.599422E0,1.772514E1,4.6303017E1,1.712776E1,1.2327026E0,4.6030342E1,4.2045765E0,5.013217E0,1.2171705E0,1.8202554E0,9.783052E0,1.8342353E0,3.1201007E0,1.1435419E1,1.3793097E1,1.4298831E0,2.156446E0,7.8516884E0,4.5129837E1,2.897391E0],"tree_param":{"num_deleted":"0","num_feature":"18","num_nodes":"45","size_leaf_vector":"1"}},{"base_weights":[-5.1841955E-3,3.300282E-1,-2.4409877E-1,-8.301776E-2,4.020974E-1,-5.49595E-1,1.707455E-1,-7.9728045E-2,4.6773505E-1,-6.672885E-1,-1.7350921E-1,4.5970213E-1,-2.543476E-1,5.36745E-1,-6.2043136E-1,-6.9949543E-1,2.1661209E-2,-3.7252963E-1,2.1151078E-1,-6.031857E-2,5.640855E-1,-5.1735267E-2,-8.303022E-2,8.338886E-2,2.7442528E-2,-4.0444057E-3,-7.106392E-2,-4.7666337E-2,-8.0404095E-2,2.4040682E-2,-4.4993255E-2,4.929346E-2,-4.8655927E-2,6.706705E-2,-2.3879377E-2,3.493972E-2,-3.525874E-2],"categories":[],"categories_nodes":[],"categories_segments":[],"categories_sizes":[],"default_left":[0,0,0,0,0,0,0,0,0,0,0,0,0,0,0,0,0,0,0,0,0,0,0,0,0,0,0,0,0,0,0,0,0,0,0,0,0],"id":28,"left_children":[1,3,5,-1,7,9,11,-1,13,15,17,19,21,23,25,27,-1,29,31,-1,33,35,-1,-1,-1,-1,-1,-1,-1,-1,-1,-1,-1,-1,-1,-1,-1],"loss_changes":[2.121615E1,9.886436E0,1.9786818E1,0E0,9.02387E0,3.7315655E0,8.477491E0,0E0,8.247309E0,2.22439E0,2.0000002E0,5.192322E0,3.2336247E0,7.0258503E0,3.0605316E-1,7.6153564E-1,0E0,1.0026989E0,2.3399084E0,0E0,3.5775518E0,3.0433369E0,0E0,0E0,0E0,0E0,0E0,0E0,0E0,0E0,0E0,0E0,0E0,0E0,0E0,0E0,0E0],"parents":[2147483647,0,0,1,1,2,2,4,4,5,5,6,6,8,8,9,9,10,10,11,11,12,12,13,13,14,14,15,15,17,17,18,18,20,20,21,21],"right_children":[2,4,6,-1,8,10,12,-1,14,16,18,20,22,24,26,28,-1,30,32,-1,34,36,-1,-1,-1,-1,-1,-1,-1,-1,-1,-1,-1,-1,-1,-1,-1],"split_conditions":[4.8E-1,1.26E2,5E0,-8.301776E-2,4.5E-1,5E0,6E0,-7.9728045E-2,6E0,2.77E2,8.3E-1,1.46E2,7E0,5.7E-1,1.7E2,1.83E2,2.1661209E-2,5.2E-1,9.6E-1,-6.031857E-2,1E0,1E0,-8.303022E-2,8.338886E-2,2.7442528E-2,-4.0444057E-3,-7.106392E-2,-4.7666337E-2,-8.0404095E-2,2.4040682E-2,-4.4993255E-2,4.929346E-2,-4.8655927E-2,6.706705E-2,-2.3879377E-2,3.493972E-2,-3.525874E-2],"split_indices":[0,3,4,0,1,2,4,0,4,3,1,3,4,1,3,3,0,0,1,0,5,7,0,0,0,0,0,0,0,0,0,0,0,0,0,0,0],"split_type":[0,0,0,0,0,0,0,0,0,0,0,0,0,0,0,0,0,0,0,0,0,0,0,0,0,0,0,0,0,0,0,0,0,0,0,0,0],"sum_hessian":[2.6090155E2,1.08252975E2,1.5264857E2,5.1007175E0,1.0315226E2,8.753622E1,6.511235E1,4.1955104E0,9.895675E1,6.549226E1,2.2043957E1,3.8666206E1,2.6446148E1,9.4008354E1,4.9483895E0,6.359238E1,1.89988E0,1.45749235E1,7.4690323E0,2.6030815E0,3.606312E1,2.117629E1,5.269857E0,4.2035122E1,5.1973236E1,1.0559418E0,3.8924477E0,2.3858427E1,3.9733955E1,1.1619413E0,1.3412983E1,5.7419233E0,1.727109E0,3.212743E1,3.9356918E0,8.937293E0,1.2238997E1],"tree_param":{"num_deleted":"0","num_feature":"18","num_nodes":"37","size_leaf_vector":"1"}},{"base_weights":[-1.8753313E-2,3.1452307E-1,-2.651431E-1,-8.2416676E-2,3.817142E-1,-6.370693E-1,9.405752E-3,-7.4540555E-2,4.394217E-1,-7.7330214E-1,-1.0838321E-1,1.09795816E-1,-9.0612106E-2,5.345403E-1,-2.5932539E-1,-1.4208752E-1,-8.36001E-2,5.277663E-2,-2.794226E-1,-3.6070603E-1,2.608341E-1,6.49404E-2,-8.661918E-3,-3.561665E-2,2.5891483E-2,-5.334316E-2,2.7179558E-2,-4.0994417E-2,2.1927882E-2,2.2863718E-2,-6.750074E-2,-3.5070572E-2,4.2709246E-2],"categories":[],"categories_nodes":[],"categories_segments":[],"categories_sizes":[],"default_left":[0,0,0,0,0,0,0,0,0,0,0,0,0,0,0,0,0,0,0,0,0,0,0,0,0,0,0,0,0,0,0,0,0],"id":29,"left_children":[1,3,5,-1,7,9,11,-1,13,15,17,19,-1,21,23,25,-1,-1,27,29,31,-1,-1,-1,-1,-1,-1,-1,-1,-1,-1,-1,-1],"loss_changes":[2.0996206E1,8.948387E0,1.5014791E1,0E0,7.422328E0,4.328579E0,8.149081E0,0E0,6.9390945E0,1.7139359E0,1.9396894E0,5.8544574E0,0E0,6.4537296E0,8.5474396E-1,1.401887E0,0E0,0E0,1.0403473E0,4.0532084E0,6.554504E0,0E0,0E0,0E0,0E0,0E0,0E0,0E0,0E0,0E0,0E0,0E0,0E0],"parents":[2147483647,0,0,1,1,2,2,4,4,5,5,6,6,8,8,9,9,10,10,11,11,13,13,14,14,15,15,18,18,19,19,20,20],"right_children":[2,4,6,-1,8,10,12,-1,14,16,18,20,-1,22,24,26,-1,-1,28,30,32,-1,-1,-1,-1,-1,-1,-1,-1,-1,-1,-1,-1],"split_conditions":[4.9E-1,4.5E-1,4E0,-8.2416676E-2,1.26E2,2.5E2,9.3E-1,-7.4540555E-2,1E0,1.4E2,2.54E2,4E0,-9.0612106E-2,5E0,9.7E-1,4E0,-8.36001E-2,5.277663E-2,1E0,1.83E2,7.7E-1,6.49404E-2,-8.661918E-3,-3.561665E-2,2.5891483E-2,-5.334316E-2,2.7179558E-2,-4.0994417E-2,2.1927882E-2,2.2863718E-2,-6.750074E-2,-3.5070572E-2,4.2709246E-2],"split_indices":[0,1,4,0,3,3,0,0,5,3,3,2,0,4,1,2,0,0,17,3,1,0,0,0,0,0,0,0,0,0,0,0,0],"split_type":[0,0,0,0,0,0,0,0,0,0,0,0,0,0,0,0,0,0,0,0,0,0,0,0,0,0,0,0,0,0,0,0,0],"sum_hessian":[2.5165878E2,1.0673365E2,1.4492513E2,4.6916766E0,1.0204198E2,6.0426132E1,8.449899E1,3.8091576E0,9.823282E1,4.7309864E1,1.3116266E1,7.773525E1,6.76374E0,8.687655E1,1.1356267E1,4.8649354E0,4.2444927E1,1.8953986E0,1.1220868E1,1.8215498E1,5.9519756E1,7.324185E1,1.3634697E1,1.0095285E1,1.2609814E0,2.2036235E0,2.6613119E0,9.175408E0,2.0454597E0,6.5252247E0,1.1690273E1,1.2248374E1,4.727138E1],"tree_param":{"num_deleted":"0","num_feature":"18","num_nodes":"33","size_leaf_vector":"1"}},{"base_weights":[-6.405477E-2,9.081183E-1,-1.3804963E-1,1.6372187E-2,9.5521286E-2,2.9060036E-1,-2.7155817E-1,4.903405E-1,-2.749146E-1,-5.7275194E-1,-1.4534575E-2,-7.108789E-2,6.1529046E-1,-6.1819065E-1,5.0108725E-1,-6.558717E-1,-2.2553923E-2,-3.2069904E-1,2.464045E-1,7.5062774E-2,-4.086503E-2,-9.8355554E-2,2.0383243E-2,8.1970684E-2,-3.596713E-2,-4.4475153E-2,-8.272923E-2,-3.9218076E-2,1.0890974E-1,-4.03653E-2,1.0045462E-1,-3.947903E-2,4.6354577E-2],"categories":[],"categories_nodes":[],"categories_segments":[],"categories_sizes":[],"default_left":[0,0,0,0,0,0,0,0,0,0,0,0,0,0,0,0,0,0,0,0,0,0,0,0,0,0,0,0,0,0,0,0,0],"id":30,"left_children":[1,3,5,-1,-1,7,9,11,13,15,17,-1,19,21,23,25,27,29,31,-1,-1,-1,-1,-1,-1,-1,-1,-1,-1,-1,-1,-1,-1],"loss_changes":[1.8228275E1,3.1614304E-1,1.3547621E1,0E0,0E0,6.655291E0,1.3874378E1,7.253022E0,4.891551E0,3.7464352E0,8.056835E0,0E0,6.0961084E0,4.0092273E0,2.241517E0,1.8575249E0,6.1580305E0,5.9077387E0,7.9552336E0,0E0,0E0,0E0,0E0,0E0,0E0,0E0,0E0,0E0,0E0,0E0,0E0,0E0,0E0],"parents":[2147483647,0,0,1,1,2,2,5,5,6,6,7,7,8,8,9,9,10,10,12,12,13,13,14,14,15,15,16,16,17,17,18,18],"right_children":[2,4,6,-1,-1,8,10,12,14,16,18,-1,20,22,24,26,28,30,32,-1,-1,-1,-1,-1,-1,-1,-1,-1,-1,-1,-1,-1,-1],"split_conditions":[1.3E-1,7.8E-1,3E0,1.6372187E-2,9.5521286E-2,1.61E2,2.16E2,1.26E2,2.48E2,6E0,5E0,-7.108789E-2,5.8E-1,7.8E-1,7.5E-1,1E0,1E0,2.87E2,7.2E-1,7.5062774E-2,-4.086503E-2,-9.8355554E-2,2.0383243E-2,8.1970684E-2,-3.596713E-2,-4.4475153E-2,-8.272923E-2,-3.9218076E-2,1.0890974E-1,-4.03653E-2,1.0045462E-1,-3.947903E-2,4.6354577E-2],"split_indices":[0,1,2,0,0,3,3,3,3,2,4,0,1,1,0,7,16,3,0,0,0,0,0,0,0,0,0,0,0,0,0,0,0],"split_type":[0,0,0,0,0,0,0,0,0,0,0,0,0,0,0,0,0,0,0,0,0,0,0,0,0,0,0,0,0,0,0,0,0],"sum_hessian":[2.4791089E2,1.593997E1,2.3197092E2,1.4811507E0,1.4458819E1,5.453251E1,1.774384E2,4.0495384E1,1.4037127E1,8.05679E1,9.68705E1,2.9317808E0,3.7563602E1,1.00140085E1,4.0231185E0,6.966006E1,1.0907849E1,4.4361877E1,5.250862E1,3.364985E1,3.913754E0,6.660571E0,3.3534377E0,3.005853E0,1.0172653E0,3.4436882E1,3.5223175E1,9.157406E0,1.7504427E0,4.305751E1,1.3043673E0,1.2869657E1,3.9638966E1],"tree_param":{"num_deleted":"0","num_feature":"18","num_nodes":"33","size_leaf_vector":"1"}},{"base_weights":[-5.3396378E-2,9.222743E-2,-1.2339119E-1,2.9584002E-1,-2.5248972E-1,5.31784E-1,-3.708778E-1,-4.8673847E-1,4.498571E-3,-7.4891314E-2,6.7251337E-1,-6.866682E-1,9.589447E-2,-5.912041E-1,1.4817631E-1,-2.7253622E-1,2.3132329E-1,-4.1102793E-2,7.546618E-2,-8.690986E-2,2.216304E-2,7.87469E-2,-2.754407E-2,-6.4349286E-2,5.698089E-2,-2.1697408E-2,1.1998017E-1,-3.5931457E-2,8.786823E-2,-3.7390124E-2,4.4082657E-2],"categories":[],"categories_nodes":[],"categories_segments":[],"categories_sizes":[],"default_left":[0,0,0,0,0,0,0,0,0,0,0,0,0,0,0,0,0,0,0,0,0,0,0,0,0,0,0,0,0,0,0],"id":31,"left_children":[1,-1,3,5,7,9,11,13,15,-1,17,19,21,23,25,27,29,-1,-1,-1,-1,-1,-1,-1,-1,-1,-1,-1,-1,-1,-1],"loss_changes":[1.6466305E1,0E0,1.225278E1,8.821844E0,1.0362161E1,8.287069E0,2.3694692E0,6.146595E0,5.4063063E0,0E0,3.953476E0,1.9263058E0,2.457724E0,5.450979E0,6.0192957E0,4.5021777E0,6.3249536E0,0E0,0E0,0E0,0E0,0E0,0E0,0E0,0E0,0E0,0E0,0E0,0E0,0E0,0E0],"parents":[2147483647,0,0,2,2,3,3,4,4,5,5,6,6,7,7,8,8,10,10,11,11,12,12,13,13,14,14,15,15,16,16],"right_children":[2,-1,4,6,8,10,12,14,16,-1,18,20,22,24,26,28,30,-1,-1,-1,-1,-1,-1,-1,-1,-1,-1,-1,-1,-1,-1],"split_conditions":[1.2E-1,9.222743E-2,3E0,5.9E-1,2.26E2,4.5E-1,8.3E-1,6E0,5E0,-7.4891314E-2,3.6E-1,2.55E2,8.7E-1,1E0,1E0,2.87E2,7.2E-1,-4.1102793E-2,7.546618E-2,-8.690986E-2,2.216304E-2,7.87469E-2,-2.754407E-2,-6.4349286E-2,5.698089E-2,-2.1697408E-2,1.1998017E-1,-3.5931457E-2,8.786823E-2,-3.7390124E-2,4.4082657E-2],"split_indices":[0,0,2,1,3,1,1,2,4,0,0,3,1,1,16,3,0,0,0,0,0,0,0,0,0,0,0,0,0,0,0],"split_type":[0,0,0,0,0,0,0,0,0,0,0,0,0,0,0,0,0,0,0,0,0,0,0,0,0,0,0,0,0,0,0],"sum_hessian":[2.357838E2,1.4152789E1,2.2163101E2,5.157253E1,1.7005847E2,3.8391113E1,1.3181415E1,8.802987E1,8.202861E1,2.9452035E0,3.5445908E1,7.3002806E0,5.881134E0,7.571053E1,1.2319333E1,3.6745743E1,4.5282864E1,1.9336759E0,3.3512234E1,6.151147E0,1.1491333E0,1.2716079E0,4.609526E0,7.330077E1,2.4097633E0,1.0322471E1,1.9968626E0,3.5449356E1,1.2963897E0,1.1240704E1,3.404216E1],"tree_param":{"num_deleted":"0","num_feature":"18","num_nodes":"31","size_leaf_vector":"1"}},{"base_weights":[-1.0779441E-2,9.070029E-2,-7.3825836E-2,-1.2231981E-2,-9.338316E-2,7.265743E-2,-5.4524577E-1,4.3639922E-1,-5.765178E-2,-6.4347804E-1,6.384906E-2,-6.0379427E-2,5.5094488E-2,-4.3567624E-2,1.7586617E-2,-6.9164835E-2,1.0768036E-2,-4.939119E-2,5.872924E-2],"categories":[],"categories_nodes":[],"categories_segments":[],"categories_sizes":[],"default_left":[0,0,0,0,0,0,0,0,0,0,0,0,0,0,0,0,0,0,0],"id":32,"left_children":[1,-1,3,5,-1,7,9,11,13,15,17,-1,-1,-1,-1,-1,-1,-1,-1],"loss_changes":[1.3275005E1,0E0,1.1331964E1,9.221837E0,0E0,8.395571E0,1.7571659E0,6.226207E0,1.1752E1,1.0277557E0,2.246425E0,0E0,0E0,0E0,0E0,0E0,0E0,0E0,0E0],"parents":[2147483647,0,0,2,2,3,3,5,5,6,6,7,7,8,8,9,9,10,10],"right_children":[2,-1,4,6,-1,8,10,12,14,16,18,-1,-1,-1,-1,-1,-1,-1,-1],"split_conditions":[1.2E-1,9.070029E-2,9.3E-1,1E0,-9.338316E-2,3E0,8.2E-1,3.6E-1,4E0,2.76E2,8.1E-1,-6.0379427E-2,5.5094488E-2,-4.3567624E-2,1.7586617E-2,-6.9164835E-2,1.0768036E-2,-4.939119E-2,5.872924E-2],"split_indices":[0,0,0,5,0,2,0,0,4,3,1,0,0,0,0,0,0,0,0],"split_type":[0,0,0,0,0,0,0,0,0,0,0,0,0,0,0,0,0,0,0],"sum_hessian":[2.2510739E2,1.2748705E1,2.1235869E2,2.0005887E2,1.2299825E1,1.7406422E2,2.599463E1,4.4671486E1,1.2939275E2,2.2287327E1,3.7073052E0,3.583864E0,4.1087624E1,4.8747578E1,8.0645164E1,2.1093115E1,1.1942111E0,1.8494442E0,1.857861E0],"tree_param":{"num_deleted":"0","num_feature":"18","num_nodes":"19","size_leaf_vector":"1"}},{"base_weights":[-4.640795E-2,2.2577962E-2,-9.463559E-2,8.964487E-2,-4.034521E-2,-8.826554E-2,4.693688E-3,3.3947977E-1,-1.3822795E-1,6.4512335E-2,-2.627985E-3,-5.5512097E-2,4.1626436E-3],"categories":[],"categories_nodes":[],"categories_segments":[],"categories_sizes":[],"default_left":[0,0,0,0,0,0,0,0,0,0,0,0,0],"id":33,"left_children":[1,3,-1,-1,5,-1,7,9,11,-1,-1,-1,-1],"loss_changes":[1.3812851E1,1.1507423E1,0E0,0E0,7.44033E0,0E0,9.087022E0,6.3848877E0,1.0029173E1,0E0,0E0,0E0,0E0],"parents":[2147483647,0,0,1,1,4,4,6,6,7,7,8,8],"right_children":[2,4,-1,-1,6,-1,8,10,12,-1,-1,-1,-1],"split_conditions":[9.2E-1,1.2E-1,-9.463559E-2,8.964487E-2,1.26E2,-8.826554E-2,1.62E2,1E0,2.11E2,6.4512335E-2,-2.627985E-3,-5.5512097E-2,4.1626436E-3],"split_indices":[0,0,0,0,3,0,3,7,3,0,0,0,0],"split_type":[0,0,0,0,0,0,0,0,0,0,0,0,0],"sum_hessian":[2.1979913E2,2.0596094E2,1.3838203E1,1.2054587E1,1.9390634E2,7.954136E0,1.8595221E2,5.4810665E1,1.3114154E2,2.9026972E1,2.5783691E1,3.8267197E1,9.2874344E1],"tree_param":{"num_deleted":"0","num_feature":"18","num_nodes":"13","size_leaf_vector":"1"}},{"base_weights":[-4.7235046E-2,8.737809E-2,-1.02365814E-1,-4.6222903E-2,-9.419163E-2,8.953321E-3,-6.859098E-1,-8.342895E-2,5.2490223E-2,-8.640055E-2,1.7761324E-2,4.1297477E-2,-1.067626E-2,3.2090515E-2,-3.9937038E-2],"categories":[],"categories_nodes":[],"categories_segments":[],"categories_sizes":[],"default_left":[0,0,0,0,0,0,0,0,0,0,0,0,0,0,0],"id":34,"left_children":[1,-1,3,5,-1,7,9,-1,11,-1,13,-1,-1,-1,-1],"loss_changes":[1.1164482E1,0E0,9.619102E0,6.899124E0,0E0,6.7545185E0,1.9755945E0,0E0,1.0109694E1,0E0,9.004939E-1,0E0,0E0,0E0,0E0],"parents":[2147483647,0,0,2,2,3,3,5,5,6,6,8,8,10,10],"right_children":[2,-1,4,6,-1,8,10,-1,12,-1,14,-1,-1,-1,-1],"split_conditions":[1.2E-1,8.737809E-2,9.3E-1,2E0,-9.419163E-2,1.27E2,2.55E2,-8.342895E-2,1.65E2,-8.640055E-2,2.72E2,4.1297477E-2,-1.067626E-2,3.2090515E-2,-3.9937038E-2],"split_indices":[0,0,0,7,0,3,3,0,3,0,3,0,0,0,0],"split_type":[0,0,0,0,0,0,0,0,0,0,0,0,0,0,0],"sum_hessian":[2.1435266E2,1.042889E1,2.0392377E2,1.9311948E2,1.0804284E1,1.7960007E2,1.3519405E1,7.0341325E0,1.7256595E2,1.0425145E1,3.0942607E0,5.1899612E1,1.2066633E2,2.0591667E0,1.035094E0],"tree_param":{"num_deleted":"0","num_feature":"18","num_nodes":"15","size_leaf_vector":"1"}},{"base_weights":[-2.2161286E-2,7.333584E-2,-6.0293126E-1,2.9396856E-1,-1.5785326E-1,2.0995157E-2,-6.5481025E-1,3.4850827E-1,-6.766089E-2,7.1644473E-1,-2.4025805E-1,-7.0965886E-1,1.4923093E-2,-6.3174985E-2,3.9513394E-1,8.0182604E-2,9.786371E-3,2.7143214E-2,-3.6866924E-1,4.603609E-3,-7.506962E-2,7.9102896E-2,2.0443274E-2,3.2037947E-2,-4.3492034E-2,-6.498539E-2,-8.834497E-3],"categories":[],"categories_nodes":[],"categories_segments":[],"categories_sizes":[],"default_left":[0,0,0,0,0,0,0,0,0,0,0,0,0,0,0,0,0,0,0,0,0,0,0,0,0,0,0],"id":35,"left_children":[1,3,5,7,9,-1,11,13,-1,15,17,19,-1,-1,21,-1,-1,23,25,-1,-1,-1,-1,-1,-1,-1,-1],"loss_changes":[1.2036238E1,9.62039E0,1.5669794E0,5.567874E0,7.009447E0,0E0,1.5032873E0,4.7257004E0,0E0,2.9044533E-1,2.9744549E0,9.300728E-1,0E0,0E0,6.433897E0,0E0,0E0,4.31326E0,4.4777794E0,0E0,0E0,0E0,0E0,0E0,0E0,0E0,0E0],"parents":[2147483647,0,0,1,1,2,2,3,3,4,4,6,6,7,7,9,9,10,10,11,11,14,14,17,17,18,18],"right_children":[2,4,6,8,10,-1,12,14,-1,16,18,20,-1,-1,22,-1,-1,24,26,-1,-1,-1,-1,-1,-1,-1,-1],"split_conditions":[1E0,1E0,1.5E-1,9.3E-1,1.5E-1,2.0995157E-2,1E0,1.27E2,-6.766089E-2,1E0,5.9E-1,1.31E2,1.4923093E-2,-6.3174985E-2,1.65E2,8.0182604E-2,9.786371E-3,4.6E-1,2.26E2,4.603609E-3,-7.506962E-2,7.9102896E-2,2.0443274E-2,3.2037947E-2,-4.3492034E-2,-6.498539E-2,-8.834497E-3],"split_indices":[5,7,0,0,0,0,9,3,0,17,1,3,0,0,3,0,0,0,3,0,0,0,0,0,0,0,0],"split_type":[0,0,0,0,0,0,0,0,0,0,0,0,0,0,0,0,0,0,0,0,0,0,0,0,0,0,0],"sum_hessian":[2.134238E2,1.8478645E2,2.8637339E1,9.427401E1,9.051244E1,1.352431E0,2.7284908E1,9.047197E1,3.8020427E0,6.470744E0,8.40417E1,2.5762274E1,1.5226341E0,2.9682693E0,8.75037E1,5.165318E0,1.3054262E0,2.777687E1,5.626483E1,1.3143897E0,2.4447884E1,2.6400452E1,6.110325E1,1.7368E1,1.040887E1,2.6773108E1,2.9491722E1],"tree_param":{"num_deleted":"0","num_feature":"18","num_nodes":"27","size_leaf_vector":"1"}},{"base_weights":[-1.3842204E-2,4.410628E-2,-8.6244896E-2,1.8651892E-3,1.0958624E-1,-8.5311174E-2,4.019332E-2,-8.177204E-2,7.639504E-2,1.4467011E-2,-3.8217846E-2],"categories":[],"categories_nodes":[],"categories_segments":[],"categories_sizes":[],"default_left":[0,0,0,0,0,0,0,0,0,0,0],"id":36,"left_children":[1,3,-1,5,-1,-1,7,-1,9,-1,-1],"loss_changes":[1.0465489E1,8.866719E0,0E0,6.4247103E0,0E0,0E0,5.949911E0,0E0,5.8021746E0,0E0,0E0],"parents":[2147483647,0,0,1,1,3,3,6,6,8,8],"right_children":[2,4,-1,6,-1,-1,8,-1,10,-1,-1],"split_conditions":[9.2E-1,2.88E2,-8.6244896E-2,4.5E-1,1.0958624E-1,-8.5311174E-2,1.26E2,-8.177204E-2,1E0,1.4467011E-2,-3.8217846E-2],"split_indices":[0,3,0,1,0,0,3,0,5,0,0],"split_type":[0,0,0,0,0,0,0,0,0,0,0],"sum_hessian":[2.0927222E2,1.9767004E2,1.1602168E1,1.9196387E2,5.706189E0,6.412197E0,1.8555167E2,5.7646403E0,1.7978702E2,1.576798E2,2.2107235E1],"tree_param":{"num_deleted":"0","num_feature":"18","num_nodes":"11","size_leaf_vector":"1"}},{"base_weights":[-4.0498536E-2,8.5783936E-2,-9.235065E-2,-3.9843563E-2,-8.7744735E-2,3.1714946E-2,-5.0522786E-1,2.32512E-1,-1.7201297E-1,-6.292279E-1,1.9379847E-1,-3.4412187E-2,3.0761337E-2,-2.6197288E-2,2.0661183E-2,-7.033532E-2,1.9274406E-2,-4.6750948E-2,7.4489824E-2],"categories":[],"categories_nodes":[],"categories_segments":[],"categories_sizes":[],"default_left":[0,0,0,0,0,0,0,0,0,0,0,0,0,0,0,0,0,0,0],"id":37,"left_children":[1,-1,3,5,-1,7,9,11,13,15,17,-1,-1,-1,-1,-1,-1,-1,-1],"loss_changes":[9.960018E0,0E0,8.205381E0,6.367964E0,0E0,6.9026895E0,2.4519105E0,3.8860307E0,2.9672089E0,1.6180592E0,2.652473E0,0E0,0E0,0E0,0E0,0E0,0E0,0E0,0E0],"parents":[2147483647,0,0,2,2,3,3,5,5,6,6,7,7,8,8,9,9,10,10],"right_children":[2,-1,4,6,-1,8,10,12,14,16,18,-1,-1,-1,-1,-1,-1,-1,-1],"split_conditions":[1.2E-1,8.5783936E-2,9.2E-1,1E0,-8.7744735E-2,1E0,8.2E-1,2.7E-1,1E0,1E0,8.1E-1,-3.4412187E-2,3.0761337E-2,-2.6197288E-2,2.0661183E-2,-7.033532E-2,1.9274406E-2,-4.6750948E-2,7.4489824E-2],"split_indices":[0,0,0,5,0,7,0,0,17,9,1,0,0,0,0,0,0,0,0],"split_type":[0,0,0,0,0,0,0,0,0,0,0,0,0,0,0,0,0,0,0],"sum_hessian":[2.0842126E2,9.677126E0,1.9874414E2,1.8825517E2,1.0488963E1,1.647817E2,2.347349E1,8.2845474E1,8.193622E1,2.0106506E1,3.366984E0,8.720977E0,7.41245E1,6.670382E1,1.5232401E1,1.8708038E1,1.398467E0,1.6683533E0,1.6986306E0],"tree_param":{"num_deleted":"0","num_feature":"18","num_nodes":"19","size_leaf_vector":"1"}},{"base_weights":[-7.81303E-3,-4.9726296E-2,1.13559745E-1,-6.756214E-3,-8.603012E-2,-8.579395E-2,3.1549633E-2,7.221933E-1,-1.3146104E-2,-2.2522386E-2,8.610337E-2,-2.1444866E-2,1.466015E-2],"categories":[],"categories_nodes":[],"categories_segments":[],"categories_sizes":[],"default_left":[0,0,0,0,0,0,0,0,0,0,0,0,0],"id":38,"left_children":[1,3,-1,5,-1,-1,7,9,11,-1,-1,-1,-1],"loss_changes":[1.0057918E1,7.027393E0,0E0,6.377459E0,0E0,0E0,5.8072853E0,1.8917766E0,5.7894855E0,0E0,0E0,0E0,0E0],"parents":[2147483647,0,0,1,1,3,3,6,6,7,7,8,8],"right_children":[2,4,-1,6,-1,-1,8,10,12,-1,-1,-1,-1],"split_conditions":[2.88E2,9.3E-1,1.13559745E-1,4.5E-1,-8.603012E-2,-8.579395E-2,4.8E-1,1.28E2,4E0,-2.2522386E-2,8.610337E-2,-2.1444866E-2,1.466015E-2],"split_indices":[3,0,0,1,0,0,1,3,4,0,0,0,0],"split_type":[0,0,0,0,0,0,0,0,0,0,0,0,0],"sum_hessian":[2.0551535E2,2.0009367E2,5.4216843E0,1.9193549E2,8.158187E0,6.4227705E0,1.8551271E2,9.433239E0,1.7607948E2,1.046665E0,8.386574E0,7.760382E1,9.8475655E1],"tree_param":{"num_deleted":"0","num_feature":"18","num_nodes":"13","size_leaf_vector":"1"}},{"base_weights":[-2.7145732E-2,5.6185644E-2,-5.6621426E-1,-9.931808E-2,3.0311298E-1,-6.202535E-1,1.9661536E-2,1.422747E-1,-3.7075648E-1,7.979595E-1,1.9019759E-1,-6.7965394E-1,1.635632E-2,-7.915523E-2,2.602394E-1,-5.177543E-1,8.746147E-2,8.754107E-2,2.4102111E-1,-4.9034423E-1,2.4845523E-1,-7.1831375E-1,1.740483E-3,5.415578E-2,-9.349495E-3,3.6622398E-2,-5.9124377E-2,-4.432237E-2,4.3763418E-2,-1.4264585E-2,4.536145E-2,-5.670331E-2,-6.4290124E-3,7.397845E-2,1.4073384E-2,-7.436679E-2,-1.2655072E-2],"categories":[],"categories_nodes":[],"categories_segments":[],"categories_sizes":[],"default_left":[0,0,0,0,0,0,0,0,0,0,0,0,0,0,0,0,0,0,0,0,0,0,0,0,0,0,0,0,0,0,0,0,0,0,0,0,0],"id":39,"left_children":[1,3,5,7,9,11,-1,13,15,17,19,21,-1,-1,23,25,27,-1,29,31,33,35,-1,-1,-1,-1,-1,-1,-1,-1,-1,-1,-1,-1,-1,-1,-1],"loss_changes":[9.160031E0,6.8645167E0,1.3689642E0,7.3345704E0,3.550058E0,1.4313831E0,0E0,6.996207E0,3.6245637E0,1.0372782E-1,2.574084E0,6.85956E-1,0E0,0E0,5.531826E0,3.0323734E0,3.0740085E0,0E0,4.7588372E-1,1.0051048E-1,2.7277298E0,1.6113853E-1,0E0,0E0,0E0,0E0,0E0,0E0,0E0,0E0,0E0,0E0,0E0,0E0,0E0,0E0,0E0],"parents":[2147483647,0,0,1,1,2,2,3,3,4,4,5,5,7,7,8,8,9,9,10,10,11,11,14,14,15,15,16,16,18,18,19,19,20,20,21,21],"right_children":[2,4,6,8,10,12,-1,14,16,18,20,22,-1,-1,24,26,28,-1,30,32,34,36,-1,-1,-1,-1,-1,-1,-1,-1,-1,-1,-1,-1,-1,-1,-1],"split_conditions":[1E0,2.36E2,2.76E2,1.69E2,1.7E-1,1E0,1.9661536E-2,1.26E2,9.1E-1,5E0,2.7E-1,1E0,1.635632E-2,-7.915523E-2,1E0,4.8E-1,5E0,8.754107E-2,2.76E2,2.73E2,5E-1,1E0,1.740483E-3,5.415578E-2,-9.349495E-3,3.6622398E-2,-5.9124377E-2,-4.432237E-2,4.3763418E-2,-1.4264585E-2,4.536145E-2,-5.670331E-2,-6.4290124E-3,7.397845E-2,1.4073384E-2,-7.436679E-2,-1.2655072E-2],"split_indices":[5,3,3,3,0,9,0,3,1,4,0,10,0,0,7,1,4,0,3,3,0,13,0,0,0,0,0,0,0,0,0,0,0,0,0,0,0],"split_type":[0,0,0,0,0,0,0,0,0,0,0,0,0,0,0,0,0,0,0,0,0,0,0,0,0,0,0,0,0,0,0,0,0,0,0,0,0],"sum_hessian":[2.004964E2,1.7520418E2,2.5292221E1,1.0823697E2,6.696721E1,2.3968115E1,1.3241061E0,5.7770363E1,5.0466606E1,1.0187444E1,5.6779762E1,2.2526741E1,1.4413736E0,5.198452E0,