{"learner":{"attributes":{"scikit_learn":"{\"_estimator_type\": \"classifier\"}"},"feature_names":["last_evaluation","number_project","tenure","work_accident","promotion_last_5years","salary","department_IT","department_RandD","department_accounting","department_hr","department_management","department_marketing","department_product_mng","department_sales","department_support","department_technical","overworked"],"feature_types":["float","int","int","int","int","int","i","i","i","i","i","i","i","i","i","i","int"],"gradient_booster":{"model":{"gbtree_model_param":{"num_parallel_tree":"1","num_trees":"500"},"iteration_indptr":[0,1,2,3,4,5,6,7,8,9,10,11,12,13,14,15,16,17,18,19,20,21,22,23,24,25,26,27,28,29,30,31,32,33,34,35,36,37,38,39,40,41,42,43,44,45,46,47,48,49,50,51,52,53,54,55,56,57,58,59,60,61,62,63,64,65,66,67,68,69,70,71,72,73,74,75,76,77,78,79,80,81,82,83,84,85,86,87,88,89,90,91,92,93,94,95,96,97,98,99,100,101,102,103,104,105,106,107,108,109,110,111,112,113,114,115,116,117,118,119,120,121,122,123,124,125,126,127,128,129,130,131,132,133,134,135,136,137,138,139,140,141,142,143,144,145,146,147,148,149,150,151,152,153,154,155,156,157,158,159,160,161,162,163,164,165,166,167,168,169,170,171,172,173,174,175,176,177,178,179,180,181,182,183,184,185,186,187,188,189,190,191,192,193,194,195,196,197,198,199,200,201,202,203,204,205,206,207,208,209,210,211,212,213,214,215,216,217,218,219,220,221,222,223,224,225,226,227,228,229,230,231,232,233,234,235,236,237,238,239,240,241,242,243,244,245,246,247,248,249,250,251,252,253,254,255,256,257,258,259,260,261,262,263,264,265,266,267,268,269,270,271,272,273,274,275,276,277,278,279,280,281,282,283,284,285,286,287,288,289,290,291,292,293,294,295,296,297,298,299,300,301,302,303,304,305,306,307,308,309,310,311,312,313,314,315,316,317,318,319,320,321,322,323,324,325,326,327,328,329,330,331,332,333,334,335,336,337,338,339,340,341,342,343,344,345,346,347,348,349,350,351,352,353,354,355,356,357,358,359,360,361,362,363,364,365,366,367,368,369,370,371,372,373,374,375,376,377,378,379,380,381,382,383,384,385,386,387,388,389,390,391,392,393,394,395,396,397,398,399,400,401,402,403,404,405,406,407,408,409,410,411,412,413,414,415,416,417,418,419,420,421,422,423,424,425,426,427,428,429,430,431,432,433,434,435,436,437,438,439,440,441,442,443,444,445,446,447,448,449,450,451,452,453,454,455,456,457,458,459,460,461,462,463,464,465,466,467,468,469,470,471,472,473,474,475,476,477,478,479,480,481,482,483,484,485,486,487,488,489,490,491,492,493,494,495,496,497,498,499,500],"tree_info":[0,0,0,0,0,0,0,0,0,0,0,0,0,0,0,0,0,0,0,0,0,0,0,0,0,0,0,0,0,0,0,0,0,0,0,0,0,0,0,0,0,0,0,0,0,0,0,0,0,0,0,0,0,0,0,0,0,0,0,0,0,0,0,0,0,0,0,0,0,0,0,0,0,0,0,0,0,0,0,0,0,0,0,0,0,0,0,0,0,0,0,0,0,0,0,0,0,0,0,0,0,0,0,0,0,0,0,0,0,0,0,0,0,0,0,0,0,0,0,0,0,0,0,0,0,0,0,0,0,0,0,0,0,0,0,0,0,0,0,0,0,0,0,0,0,0,0,0,0,0,0,0,0,0,0,0,0,0,0,0,0,0,0,0,0,0,0,0,0,0,0,0,0,0,0,0,0,0,0,0,0,0,0,0,0,0,0,0,0,0,0,0,0,0,0,0,0,0,0,0,0,0,0,0,0,0,0,0,0,0,0,0,0,0,0,0,0,0,0,0,0,0,0,0,0,0,0,0,0,0,0,0,0,0,0,0,0,0,0,0,0,0,0,0,0,0,0,0,0,0,0,0,0,0,0,0,0,0,0,0,0,0,0,0,0,0,0,0,0,0,0,0,0,0,0,0,0,0,0,0,0,0,0,0,0,0,0,0,0,0,0,0,0,0,0,0,0,0,0,0,0,0,0,0,0,0,0,0,0,0,0,0,0,0,0,0,0,0,0,0,0,0,0,0,0,0,0,0,0,0,0,0,0,0,0,0,0,0,0,0,0,0,0,0,0,0,0,0,0,0,0,0,0,0,0,0,0,0,0,0,0,0,0,0,0,0,0,0,0,0,0,0,0,0,0,0,0,0,0,0,0,0,0,0,0,0,0,0,0,0,0,0,0,0,0,0,0,0,0,0,0,0,0,0,0,0,0,0,0,0,0,0,0,0,0,0,0,0,0,0,0,0,0,0,0,0,0,0,0,0,0,0,0,0,0,0,0,0,0,0,0,0,0,0,0,0,0,0,0,0,0,0,0,0,0,0,0,0,0,0,0,0,0,0,0,0,0,0,0,0,0,0,0,0,0,0,0,0,0,0,0,0,0,0,0,0,0,0,0,0,0,0,0,0,0,0,0,0,0,0],"trees":[{"base_weights":[3.482141E-8,2.7168612E0,-4.1726795E-1,4.34485E0,-8.723621E-1,-1.1322404E0,9.2759126E-1,4.948468E0,-7.238849E-1,-9.18271E-1,1.6566665E-3,-1.1421386E-2,-7.0772576E-1,-9.507494E-1,2.3381486E0,-1.0156738E-2,5.3001466E0,-9.5922705E-3,-1.3297826E-1,-1.0452921E0,-7.374515E-1,-8.674161E-1,8.591226E-2,-9.9982625E-1,-5.809313E-1,4.5215127E-1,3.7894561E0,-8.688057E-3,5.4816827E-2,-3.1794237E-3,2.2520677E-3,-3.2746443E-3,-1.0749931E-2,-3.1287216E-3,-7.995468E-3,-9.512156E-3,-3.5030986E-3,6.7042205E-3,-4.136656E-3,-1.0496235E-2,-7.5457683E-3,-3.8582366E-3,-1.0032327E-2,-9.623779E-3,1.6044237E-2,-4.2548007E-3,4.2639256E-2],"categories":[],"categories_nodes":[],"categories_segments":[],"categories_sizes":[],"default_left":[0,0,0,0,0,0,0,0,0,0,0,0,0,0,0,0,0,0,0,0,0,0,0,0,0,0,0,0,0,0,0,0,0,0,0,0,0,0,0,0,0,0,0,0,0,0,0],"id":0,"left_children":[1,3,5,7,9,11,13,15,17,19,-1,-1,21,23,25,-1,27,-1,29,31,33,35,37,39,41,43,45,-1,-1,-1,-1,-1,-1,-1,-1,-1,-1,-1,-1,-1,-1,-1,-1,-1,-1,-1,-1],"loss_changes":[1.4138262E3,9.7399524E2,1.0405638E3,3.5358423E2,2.6608696E0,2.159607E0,9.97909E2,2.200581E2,1.6866426E0,3.905754E-1,0E0,0E0,2.4473257E0,2.3573303E0,5.865427E2,0E0,1.13180664E2,0E0,3.9469546E-1,2.3015976E-1,3.894596E-1,3.460865E-1,1.4588052E0,9.3647766E-1,1.3722959E0,1.5572871E2,2.4443347E2,0E0,0E0,0E0,0E0,0E0,0E0,0E0,0E0,0E0,0E0,0E0,0E0,0E0,0E0,0E0,0E0,0E0,0E0,0E0,0E0],"parents":[2147483647,0,0,1,1,2,2,3,3,4,4,5,5,6,6,7,7,8,8,9,9,12,12,13,13,14,14,16,16,18,18,19,19,20,20,21,21,22,22,23,23,24,24,25,25,26,26],"right_children":[2,4,6,8,10,12,14,16,18,20,-1,-1,22,24,26,-1,28,-1,30,32,34,36,38,40,42,44,46,-1,-1,-1,-1,-1,-1,-1,-1,-1,-1,-1,-1,-1,-1,-1,-1,-1,-1,-1,-1],"split_conditions":[3E0,5.8E-1,4E0,1E0,9.9E-1,6E0,7.7E-1,4.5E-1,1E0,7.6E-1,1.6566665E-3,-1.1421386E-2,1E0,6E0,5E0,-1.0156738E-2,3E0,-9.5922705E-3,4E0,5.9E-1,7.9E-1,9E-1,1E0,1E0,6E0,5E0,1E0,-8.688057E-3,5.4816827E-2,-3.1794237E-3,2.2520677E-3,-3.2746443E-3,-1.0749931E-2,-3.1287216E-3,-7.995468E-3,-9.512156E-3,-3.5030986E-3,6.7042205E-3,-4.136656E-3,-1.0496235E-2,-7.5457683E-3,-3.8582366E-3,-1.0032327E-2,-9.623779E-3,1.6044237E-2,-4.2548007E-3,4.2639256E-2],"split_indices":[1,0,2,16,0,1,0,0,13,0,0,0,14,1,1,0,2,0,2,0,0,0,16,15,2,2,16,0,0,0,0,0,0,0,0,0,0,0,0,0,0,0,0,0,0,0,0],"split_type":[0,0,0,0,0,0,0,0,0,0,0,0,0,0,0,0,0,0,0,0,0,0,0,0,0,0,0,0,0,0,0,0,0,0,0,0,0,0,0,0,0,0,0,0,0,0,0],"sum_hessian":[1.2451351E3,1.650396E2,1.0800955E3,1.1339549E2,5.16441E1,7.0529504E2,3.7480048E2,1.01349815E2,1.2045674E1,4.956726E1,2.0768404E0,6.8757263E2,1.7722372E1,1.6088591E2,2.1391457E2,5.5382414E0,9.581158E1,8.168906E0,3.8767688E0,2.6306646E1,2.3260612E1,1.4676339E1,3.0460327E0,1.4053287E2,2.0353037E1,9.3596275E1,1.2031829E2,2.6306646E0,9.318091E1,2.6306646E0,1.2461042E0,1.5230163E0,2.478363E1,3.738313E0,1.95223E1,1.1907219E1,2.7691207E0,1.2461042E0,1.7999284E0,1.1408777E2,2.6445103E1,1.5230164E1,5.1228733E0,4.2090633E1,5.1505642E1,1.2184131E1,1.0813416E2],"tree_param":{"num_deleted":"0","num_feature":"17","num_nodes":"47","size_leaf_vector":"1"}},{"base_weights":[-1.6841856E-4,2.6408563E0,-4.1434497E-1,4.1792994E0,-8.6890954E-1,-1.1294984E0,9.124674E-1,4.741747E0,-7.2056484E-1,-9.149146E-1,1.6442495E-3,-1.1394448E-2,-7.042909E-1,-9.4735384E-1,2.279178E0,-1.01291295E-2,5.067672E0,-9.561598E-3,-1.319413E-1,-1.0422986E0,-7.339405E-1,-8.641181E-1,8.566754E-2,-9.965508E-1,-5.7777345E-1,4.4630238E-1,3.6590068E0,-8.66167E-3,5.2355304E-2,-3.161274E-3,2.2376955E-3,-3.2592004E-3,-1.0720867E-2,-3.1091874E-3,-7.960012E-3,-9.480184E-3,-3.4833779E-3,6.6504073E-3,-4.11741E-3,-1.0465188E-2,-7.509681E-3,-3.8313402E-3,-1.0004692E-2,-9.590222E-3,1.5720405E-2,-4.226632E-3,4.1046362E-2],"categories":[],"categories_nodes":[],"categories_segments":[],"categories_sizes":[],"default_left":[0,0,0,0,0,0,0,0,0,0,0,0,0,0,0,0,0,0,0,0,0,0,0,0,0,0,0,0,0,0,0,0,0,0,0,0,0,0,0,0,0,0,0,0,0,0,0],"id":1,"left_children":[1,3,5,7,9,11,13,15,17,19,-1,-1,21,23,25,-1,27,-1,29,31,33,35,37,39,41,43,45,-1,-1,-1,-1,-1,-1,-1,-1,-1,-1,-1,-1,-1,-1,-1,-1,-1,-1,-1,-1],"loss_changes":[1.3642391E3,9.1656226E2,1.0240262E3,3.278462E2,2.639244E0,2.1621094E0,9.63327E2,2.0344165E2,1.6752119E0,3.94001E-1,0E0,0E0,2.4275732E0,2.3493958E0,5.50355E2,0E0,1.04369385E2,0E0,3.9000788E-1,2.2943115E-1,3.864851E-1,3.4459782E-1,1.4400083E0,9.394531E-1,1.3674216E0,1.5160902E2,2.2797034E2,0E0,0E0,0E0,0E0,0E0,0E0,0E0,0E0,0E0,0E0,0E0,0E0,0E0,0E0,0E0,0E0,0E0,0E0,0E0,0E0],"parents":[2147483647,0,0,1,1,2,2,3,3,4,4,5,5,6,6,7,7,8,8,9,9,12,12,13,13,14,14,16,16,18,18,19,19,20,20,21,21,22,22,23,23,24,24,25,25,26,26],"right_children":[2,4,6,8,10,12,14,16,18,20,-1,-1,22,24,26,-1,28,-1,30,32,34,36,38,40,42,44,46,-1,-1,-1,-1,-1,-1,-1,-1,-1,-1,-1,-1,-1,-1,-1,-1,-1,-1,-1,-1],"split_conditions":[3E0,5.8E-1,4E0,1E0,9.9E-1,6E0,7.7E-1,4.5E-1,1E0,7.6E-1,1.6442495E-3,-1.1394448E-2,1E0,6E0,5E0,-1.01291295E-2,3E0,-9.561598E-3,4E0,5.9E-1,7.9E-1,9E-1,1E0,1E0,6E0,5E0,1E0,-8.66167E-3,5.2355304E-2,-3.161274E-3,2.2376955E-3,-3.2592004E-3,-1.0720867E-2,-3.1091874E-3,-7.960012E-3,-9.480184E-3,-3.4833779E-3,6.6504073E-3,-4.11741E-3,-1.0465188E-2,-7.509681E-3,-3.8313402E-3,-1.0004692E-2,-9.590222E-3,1.5720405E-2,-4.226632E-3,4.1046362E-2],"split_indices":[1,0,2,16,0,1,0,0,13,0,0,0,14,1,1,0,2,0,2,0,0,0,16,15,2,2,16,0,0,0,0,0,0,0,0,0,0,0,0,0,0,0,0,0,0,0,0],"split_type":[0,0,0,0,0,0,0,0,0,0,0,0,0,0,0,0,0,0,0,0,0,0,0,0,0,0,0,0,0,0,0,0,0,0,0,0,0,0,0,0,0,0,0,0,0,0,0],"sum_hessian":[1.2451895E3,1.6807454E2,1.0771149E3,1.1672115E2,5.135339E1,6.9997577E2,3.7713907E2,1.0473147E2,1.1989689E1,4.927425E1,2.0791392E0,6.8233484E2,1.7640945E1,1.5988043E2,2.1725865E2,5.5007167E0,9.923075E1,8.11663E0,3.8730597E0,2.61256E1,2.3148647E1,1.4594299E1,3.046647E0,1.396009E2,2.027952E1,9.387913E1,1.2337952E2,2.615415E0,9.661533E1,2.6250803E0,1.2479794E0,1.5196865E0,2.4605915E1,3.730503E0,1.9418144E1,1.18316555E1,2.762644E0,1.2516893E0,1.7949576E0,1.1328896E2,2.6311941E1,1.5190932E1,5.0885878E0,4.1820396E1,5.2058735E1,1.2149522E1,1.11229996E2],"tree_param":{"num_deleted":"0","num_feature":"17","num_nodes":"47","size_leaf_vector":"1"}},{"base_weights":[-3.2875975E-4,2.5695345E0,-4.1146708E-1,4.0271606E0,-8.654714E-1,-1.1267824E0,8.9784014E-1,4.5532064E0,-7.1726E-1,-9.1157264E-1,1.6319312E-3,-1.1367777E-2,-7.0087254E-1,-9.439734E-1,2.2231798E0,-1.010171E-2,4.8565392E0,-9.531086E-3,-1.3091262E-1,-1.0393248E0,-7.304416E-1,-8.60834E-1,8.541685E-2,-9.9329185E-1,-5.7462925E-1,4.405667E-1,3.537639E0,-8.635425E-3,5.012456E-2,-3.1432165E-3,2.2234197E-3,-3.243828E-3,-1.0692013E-2,-3.0897588E-3,-7.924674E-3,-9.448364E-3,-3.4637551E-3,6.5970975E-3,-4.0982524E-3,-1.04343295E-2,-7.47371E-3,-3.8045838E-3,-9.977239E-3,-9.556812E-3,1.5407389E-2,-4.1985987E-3,3.9573412E-2],"categories":[],"categories_nodes":[],"categories_segments":[],"categories_sizes":[],"default_left":[0,0,0,0,0,0,0,0,0,0,0,0,0,0,0,0,0,0,0,0,0,0,0,0,0,0,0,0,0,0,0,0,0,0,0,0,0,0,0,0,0,0,0,0,0,0,0],"id":2,"left_children":[1,3,5,7,9,11,13,15,17,19,-1,-1,21,23,25,-1,27,-1,29,31,33,35,37,39,41,43,45,-1,-1,-1,-1,-1,-1,-1,-1,-1,-1,-1,-1,-1,-1,-1,-1,-1,-1,-1,-1],"loss_changes":[1.3176151E3,8.646575E2,1.00789056E3,3.050829E2,2.6177979E0,2.164856E0,9.306379E2,1.88844E2,1.6638632E0,3.9743423E-1,0E0,0E0,2.4079323E0,2.3415222E0,5.174719E2,0E0,9.666528E1,0E0,3.8537422E-1,2.2872734E-1,3.835268E-1,3.431263E-1,1.4214612E0,9.4247437E-1,1.3625774E0,1.4764058E2,2.1319165E2,0E0,0E0,0E0,0E0,0E0,0E0,0E0,0E0,0E0,0E0,0E0,0E0,0E0,0E0,0E0,0E0,0E0,0E0,0E0,0E0],"parents":[2147483647,0,0,1,1,2,2,3,3,4,4,5,5,6,6,7,7,8,8,9,9,12,12,13,13,14,14,16,16,18,18,19,19,20,20,21,21,22,22,23,23,24,24,25,25,26,26],"right_children":[2,4,6,8,10,12,14,16,18,20,-1,-1,22,24,26,-1,28,-1,30,32,34,36,38,40,42,44,46,-1,-1,-1,-1,-1,-1,-1,-1,-1,-1,-1,-1,-1,-1,-1,-1,-1,-1,-1,-1],"split_conditions":[3E0,5.8E-1,4E0,1E0,9.9E-1,6E0,7.7E-1,4.5E-1,1E0,7.6E-1,1.6319312E-3,-1.1367777E-2,1E0,6E0,5E0,-1.010171E-2,3E0,-9.531086E-3,4E0,5.9E-1,7.9E-1,9E-1,1E0,1E0,6E0,5E0,1E0,-8.635425E-3,5.012456E-2,-3.1432165E-3,2.2234197E-3,-3.243828E-3,-1.0692013E-2,-3.0897588E-3,-7.924674E-3,-9.448364E-3,-3.4637551E-3,6.5970975E-3,-4.0982524E-3,-1.04343295E-2,-7.47371E-3,-3.8045838E-3,-9.977239E-3,-9.556812E-3,1.5407389E-2,-4.1985987E-3,3.9573412E-2],"split_indices":[1,0,2,16,0,1,0,0,13,0,0,0,14,1,1,0,2,0,2,0,0,0,16,15,2,2,16,0,0,0,0,0,0,0,0,0,0,0,0,0,0,0,0,0,0,0,0],"split_type":[0,0,0,0,0,0,0,0,0,0,0,0,0,0,0,0,0,0,0,0,0,0,0,0,0,0,0,0,0,0,0,0,0,0,0,0,0,0,0,0,0,0,0,0,0,0,0],"sum_hessian":[1.2450685E3,1.7099521E2,1.0740734E3,1.19930824E2,5.106439E1,6.9468475E2,3.7938855E2,1.07996796E2,1.1934026E1,4.8982967E1,2.0814216E0,6.7712476E2,1.7559994E1,1.5888087E2,2.2050768E2,5.463393E0,1.025334E2,8.064651E0,3.8693755E0,2.594555E1,2.3037416E1,1.4512739E1,3.0472538E0,1.3867438E2,2.02065E1,9.415452E1,1.2635316E2,2.600246E0,9.993316E1,2.6195319E0,1.2498436E0,1.516375E0,2.4429176E1,3.7227488E0,1.9314667E1,1.175653E1,2.7562094E0,1.2572386E0,1.7900152E0,1.124947E2,2.6179672E1,1.5152013E1,5.0544863E0,4.155177E1,5.260275E1,1.2115179E1,1.1423798E2],"tree_param":{"num_deleted":"0","num_feature":"17","num_nodes":"47","size_leaf_vector":"1"}},{"base_weights":[-4.816945E-4,2.5024686E0,-4.0863293E-1,3.8868551E0,-8.6204755E-1,-1.1240916E0,8.8368356E-1,4.3805346E0,-7.139701E-1,-9.082449E-1,1.6197095E-3,-1.1341365E-2,-6.9747025E-1,-9.4060796E-1,2.1699283E0,-1.0074475E-2,4.663924E0,-9.500729E-3,-1.2989222E-1,-1.0363703E0,-7.2695476E-1,-8.5756344E-1,8.5160546E-2,-9.900492E-1,-5.714989E-1,4.349404E-1,3.424422E0,-8.609317E-3,4.8093423E-2,-3.1252524E-3,2.2092396E-3,-3.2285266E-3,-1.0663369E-2,-3.0704343E-3,-7.889454E-3,-9.416695E-3,-3.4442304E-3,6.544286E-3,-4.079179E-3,-1.040366E-2,-7.437855E-3,-3.7779703E-3,-9.949965E-3,-9.523549E-3,1.5104639E-2,-4.170706E-3,3.820718E-2],"categories":[],"categories_nodes":[],"categories_segments":[],"categories_sizes":[],"default_left":[0,0,0,0,0,0,0,0,0,0,0,0,0,0,0,0,0,0,0,0,0,0,0,0,0,0,0,0,0,0,0,0,0,0,0,0,0,0,0,0,0,0,0,0,0,0,0],"id":3,"left_children":[1,3,5,7,9,11,13,15,17,19,-1,-1,21,23,25,-1,27,-1,29,31,33,35,37,39,41,43,45,-1,-1,-1,-1,-1,-1,-1,-1,-1,-1,-1,-1,-1,-1,-1,-1,-1,-1,-1,-1],"loss_changes":[1.2736879E3,8.175554E2,9.921393E2,2.8483606E2,2.596527E0,2.1676636E0,8.9969214E2,1.7593872E2,1.6525955E0,4.008789E-1,0E0,0E0,2.388401E0,2.3337555E0,4.8749902E2,0E0,8.9883545E1,0E0,3.807938E-1,2.280407E-1,3.8059044E-1,3.4166908E-1,1.4031605E0,9.4551086E-1,1.3577609E0,1.438156E2,1.9986902E2,0E0,0E0,0E0,0E0,0E0,0E0,0E0,0E0,0E0,0E0,0E0,0E0,0E0,0E0,0E0,0E0,0E0,0E0,0E0,0E0],"parents":[2147483647,0,0,1,1,2,2,3,3,4,4,5,5,6,6,7,7,8,8,9,9,12,12,13,13,14,14,16,16,18,18,19,19,20,20,21,21,22,22,23,23,24,24,25,25,26,26],"right_children":[2,4,6,8,10,12,14,16,18,20,-1,-1,22,24,26,-1,28,-1,30,32,34,36,38,40,42,44,46,-1,-1,-1,-1,-1,-1,-1,-1,-1,-1,-1,-1,-1,-1,-1,-1,-1,-1,-1,-1],"split_conditions":[3E0,5.8E-1,4E0,1E0,9.9E-1,6E0,7.7E-1,4.5E-1,1E0,7.6E-1,1.6197095E-3,-1.1341365E-2,1E0,6E0,5E0,-1.0074475E-2,3E0,-9.500729E-3,4E0,5.9E-1,7.9E-1,9E-1,1E0,1E0,6E0,5E0,1E0,-8.609317E-3,4.8093423E-2,-3.1252524E-3,2.2092396E-3,-3.2285266E-3,-1.0663369E-2,-3.0704343E-3,-7.889454E-3,-9.416695E-3,-3.4442304E-3,6.544286E-3,-4.079179E-3,-1.040366E-2,-7.437855E-3,-3.7779703E-3,-9.949965E-3,-9.523549E-3,1.5104639E-2,-4.170706E-3,3.820718E-2],"split_indices":[1,0,2,16,0,1,0,0,13,0,0,0,14,1,1,0,2,0,2,0,0,0,16,15,2,2,16,0,0,0,0,0,0,0,0,0,0,0,0,0,0,0,0,0,0,0,0],"split_type":[0,0,0,0,0,0,0,0,0,0,0,0,0,0,0,0,0,0,0,0,0,0,0,0,0,0,0,0,0,0,0,0,0,0,0,0,0,0,0,0,0,0,0,0,0,0,0],"sum_hessian":[1.2447787E3,1.7380489E2,1.0709738E3,1.2302778E2,5.07771E1,6.894224E2,3.8155133E2,1.1114909E2,1.1878684E1,4.869341E1,2.083688E0,6.7194293E2,1.7479517E1,1.5788725E2,2.2366408E2,5.4262714E0,1.05722824E2,8.012968E0,3.8657167E0,2.57665E1,2.2926908E1,1.44316635E1,3.0478532E0,1.3775328E2,2.0133972E1,9.44226E1,1.2924147E2,2.5851576E0,1.03137665E2,2.6140199E0,1.2516968E0,1.5130818E0,2.425342E1,3.7150488E0,1.921186E1,1.1681847E1,2.7498171E0,1.2627523E0,1.7851009E0,1.1170498E2,2.6048296E1,1.5113403E1,5.0205684E0,4.1284763E1,5.3137836E1,1.20811E1,1.1716038E2],"tree_param":{"num_deleted":"0","num_feature":"17","num_nodes":"47","size_leaf_vector":"1"}},{"base_weights":[-6.281645E-4,2.4392817E0,-4.0584156E-1,3.757043E0,-8.586376E-1,-1.1214257E0,8.6997306E-1,4.2217975E0,-7.10695E-1,-9.04931E-1,1.6075867E-3,-1.1315209E-2,-6.9408387E-1,-9.3725675E-1,2.119219E0,-1.0047418E-2,4.4874787E0,-9.470526E-3,-1.2887987E-1,-1.0334349E0,-7.234798E-1,-8.5430616E-1,8.489869E-2,-9.86822E-1,-5.683821E-1,4.2942017E-1,3.3185492E0,-8.583349E-3,4.6236124E-2,-3.1073785E-3,2.1951534E-3,-3.2132966E-3,-1.0634927E-2,-3.0512142E-3,-7.854349E-3,-9.3851695E-3,-3.4248023E-3,6.491969E-3,-4.060192E-3,-1.03731705E-2,-7.4021122E-3,-3.7514968E-3,-9.922868E-3,-9.490428E-3,1.4811646E-2,-4.1429517E-3,3.6936335E-2],"categories":[],"categories_nodes":[],"categories_segments":[],"categories_sizes":[],"default_left":[0,0,0,0,0,0,0,0,0,0,0,0,0,0,0,0,0,0,0,0,0,0,0,0,0,0,0,0,0,0,0,0,0,0,0,0,0,0,0,0,0,0,0,0,0,0,0],"id":4,"left_children":[1,3,5,7,9,11,13,15,17,19,-1,-1,21,23,25,-1,27,-1,29,31,33,35,37,39,41,43,45,-1,-1,-1,-1,-1,-1,-1,-1,-1,-1,-1,-1,-1,-1,-1,-1,-1,-1,-1,-1],"loss_changes":[1.2322236E3,7.746467E2,9.7675665E2,2.6673486E2,2.575428E0,2.1705322E0,8.703551E2,1.6446313E2,1.6414089E0,4.043312E-1,0E0,0E0,2.3689804E0,2.3260498E0,4.6009882E2,0E0,8.387671E1,0E0,3.762658E-1,2.2737885E-1,3.776741E-1,3.4022713E-1,1.3851035E0,9.486084E-1,1.3529716E0,1.4012685E2,1.8781299E2,0E0,0E0,0E0,0E0,0E0,0E0,0E0,0E0,0E0,0E0,0E0,0E0,0E0,0E0,0E0,0E0,0E0,0E0,0E0,0E0],"parents":[2147483647,0,0,1,1,2,2,3,3,4,4,5,5,6,6,7,7,8,8,9,9,12,12,13,13,14,14,16,16,18,18,19,19,20,20,21,21,22,22,23,23,24,24,25,25,26,26],"right_children":[2,4,6,8,10,12,14,16,18,20,-1,-1,22,24,26,-1,28,-1,30,32,34,36,38,40,42,44,46,-1,-1,-1,-1,-1,-1,-1,-1,-1,-1,-1,-1,-1,-1,-1,-1,-1,-1,-1,-1],"split_conditions":[3E0,5.8E-1,4E0,1E0,9.9E-1,6E0,7.7E-1,4.5E-1,1E0,7.6E-1,1.6075867E-3,-1.1315209E-2,1E0,6E0,5E0,-1.0047418E-2,3E0,-9.470526E-3,4E0,5.9E-1,7.9E-1,9E-1,1E0,1E0,6E0,5E0,1E0,-8.583349E-3,4.6236124E-2,-3.1073785E-3,2.1951534E-3,-3.2132966E-3,-1.0634927E-2,-3.0512142E-3,-7.854349E-3,-9.3851695E-3,-3.4248023E-3,6.491969E-3,-4.060192E-3,-1.03731705E-2,-7.4021122E-3,-3.7514968E-3,-9.922868E-3,-9.490428E-3,1.4811646E-2,-4.1429517E-3,3.6936335E-2],"split_indices":[1,0,2,16,0,1,0,0,13,0,0,0,14,1,1,0,2,0,2,0,0,0,16,15,2,2,16,0,0,0,0,0,0,0,0,0,0,0,0,0,0,0,0,0,0,0,0],"split_type":[0,0,0,0,0,0,0,0,0,0,0,0,0,0,0,0,0,0,0,0,0,0,0,0,0,0,0,0,0,0,0,0,0,0,0,0,0,0,0,0,0,0,0,0,0,0,0],"sum_hessian":[1.2443254E3,1.7650667E2,1.0678187E3,1.26015144E2,5.0491528E1,6.8418896E2,3.8362973E2,1.14191475E2,1.1823668E1,4.840559E1,2.0859382E0,6.667895E2,1.7399519E1,1.5689963E2,2.2673012E2,5.3893523E0,1.08802124E2,7.9615846E0,3.862083E0,2.5588457E1,2.2817135E1,1.4351073E1,3.0484452E0,1.3683768E2,2.0061941E1,9.4683556E1,1.3204655E2,2.5701501E0,1.0623197E2,2.6085436E0,1.2535392E0,1.509807E0,2.407865E1,3.707403E0,1.9109732E1,1.1607607E1,2.7434664E0,1.2682304E0,1.7802148E0,1.1091987E2,2.5917818E1,1.5075104E1,4.986837E0,4.1019386E1,5.3664173E1,1.2047287E1,1.1999927E2],"tree_param":{"num_deleted":"0","num_feature":"17","num_nodes":"47","size_leaf_vector":"1"}},{"base_weights":[-7.6841377E-4,2.3796422E0,-4.0309158E-1,3.6365812E0,-8.552413E-1,-1.1187841E0,8.566862E-1,4.0753636E0,-7.074346E-1,-9.016307E-1,1.5955595E-3,-1.1289302E-2,-6.9071317E-1,-9.339197E-1,2.0708683E0,-1.0020541E-2,4.32524E0,-9.440472E-3,-1.278757E-1,-1.0305178E0,-7.2001666E-1,-8.510619E-1,8.4631346E-2,-9.836102E-1,-5.652789E-1,4.2400303E-1,3.219316E0,-8.557515E-3,4.453116E-2,-3.0895965E-3,2.1811614E-3,-3.1981375E-3,-1.0606685E-2,-3.032099E-3,-7.819358E-3,-9.353788E-3,-3.4054723E-3,6.44014E-3,-4.041292E-3,-1.0342859E-2,-7.366484E-3,-3.7251643E-3,-9.895942E-3,-9.457444E-3,1.4527947E-2,-4.1153333E-3,3.575107E-2],"categories":[],"categories_nodes":[],"categories_segments":[],"categories_sizes":[],"default_left":[0,0,0,0,0,0,0,0,0,0,0,0,0,0,0,0,0,0,0,0,0,0,0,0,0,0,0,0,0,0,0,0,0,0,0,0,0,0,0,0,0,0,0,0,0,0,0],"id":5,"left_children":[1,3,5,7,9,11,13,15,17,19,-1,-1,21,23,25,-1,27,-1,29,31,33,35,37,39,41,43,45,-1,-1,-1,-1,-1,-1,-1,-1,-1,-1,-1,-1,-1,-1,-1,-1,-1,-1,-1,-1],"loss_changes":[1.1930149E3,7.3542065E2,9.6172723E2,2.5047473E2,2.5545082E0,2.173584E0,8.42506E2,1.5420471E2,1.6303015E0,4.0778732E-1,0E0,0E0,2.3496695E0,2.3184052E0,4.3498212E2,0E0,7.852637E1,0E0,3.717899E-1,2.2673416E-1,3.747759E-1,3.3879852E-1,1.3672866E0,9.517212E-1,1.348207E0,1.3656767E2,1.7686292E2,0E0,0E0,0E0,0E0,0E0,0E0,0E0,0E0,0E0,0E0,0E0,0E0,0E0,0E0,0E0,0E0,0E0,0E0,0E0,0E0],"parents":[2147483647,0,0,1,1,2,2,3,3,4,4,5,5,6,6,7,7,8,8,9,9,12,12,13,13,14,14,16,16,18,18,19,19,20,20,21,21,22,22,23,23,24,24,25,25,26,26],"right_children":[2,4,6,8,10,12,14,16,18,20,-1,-1,22,24,26,-1,28,-1,30,32,34,36,38,40,42,44,46,-1,-1,-1,-1,-1,-1,-1,-1,-1,-1,-1,-1,-1,-1,-1,-1,-1,-1,-1,-1],"split_conditions":[3E0,5.8E-1,4E0,1E0,9.9E-1,6E0,7.7E-1,4.5E-1,1E0,7.6E-1,1.5955595E-3,-1.1289302E-2,1E0,6E0,5E0,-1.0020541E-2,3E0,-9.440472E-3,4E0,5.9E-1,7.9E-1,9E-1,1E0,1E0,6E0,5E0,1E0,-8.557515E-3,4.453116E-2,-3.0895965E-3,2.1811614E-3,-3.1981375E-3,-1.0606685E-2,-3.032099E-3,-7.819358E-3,-9.353788E-3,-3.4054723E-3,6.44014E-3,-4.041292E-3,-1.0342859E-2,-7.366484E-3,-3.7251643E-3,-9.895942E-3,-9.457444E-3,1.4527947E-2,-4.1153333E-3,3.575107E-2],"split_indices":[1,0,2,16,0,1,0,0,13,0,0,0,14,1,1,0,2,0,2,0,0,0,16,15,2,2,16,0,0,0,0,0,0,0,0,0,0,0,0,0,0,0,0,0,0,0,0],"split_type":[0,0,0,0,0,0,0,0,0,0,0,0,0,0,0,0,0,0,0,0,0,0,0,0,0,0,0,0,0,0,0,0,0,0,0,0,0,0,0,0,0,0,0,0,0,0,0],"sum_hessian":[1.243714E3,1.791036E2,1.0646105E3,1.2889592E2,5.0207684E1,6.7898444E2,3.8562598E2,1.17126945E2,1.1768975E1,4.8119514E1,2.0881724E0,6.616644E2,1.7319996E1,1.5591797E2,2.2970802E2,5.3526363E0,1.11774315E2,7.9105015E0,3.8584743E0,2.5411423E1,2.2708092E1,1.4270967E1,3.04903E0,1.3592757E2,1.9990396E1,9.493752E1,1.347705E2,2.5552237E0,1.09219086E2,2.6031032E0,1.2553709E0,1.5065503E0,2.3904871E1,3.6998115E0,1.900828E1,1.1533809E1,2.7371573E0,1.2736734E0,1.7753567E0,1.1013934E2,2.5788229E1,1.5037107E1,4.95329E0,4.0755634E1,5.418189E1,1.2013735E1,1.2275676E2],"tree_param":{"num_deleted":"0","num_feature":"17","num_nodes":"47","size_leaf_vector":"1"}},{"base_weights":[-9.030211E-4,2.3232539E0,-4.0038183E-1,3.5244865E0,-8.518583E-1,-1.116166E0,8.438021E-1,3.939848E0,-7.041885E-1,-8.983436E-1,1.5836271E-3,-1.1263637E-2,-6.87358E-1,-9.305965E-1,2.0247097E0,-9.993836E-3,4.1755486E0,-9.410564E-3,-1.268797E-1,-1.0276188E0,-7.165652E-1,-8.478304E-1,8.435876E-2,-9.804134E-1,-5.621891E-1,4.1868594E-1,3.1261058E0,-8.531814E-3,4.2960424E-2,-3.0719074E-3,2.1672621E-3,-3.1830482E-3,-1.0578636E-2,-3.0130867E-3,-7.7844798E-3,-9.3225455E-3,-3.3862384E-3,6.3887923E-3,-4.0224753E-3,-1.031272E-2,-7.330967E-3,-3.698972E-3,-9.869185E-3,-9.424594E-3,1.4253094E-2,-4.0878514E-3,3.4642905E-2],"categories":[],"categories_nodes":[],"categories_segments":[],"categories_sizes":[],"default_left":[0,0,0,0,0,0,0,0,0,0,0,0,0,0,0,0,0,0,0,0,0,0,0,0,0,0,0,0,0,0,0,0,0,0,0,0,0,0,0,0,0,0,0,0,0,0,0],"id":6,"left_children":[1,3,5,7,9,11,13,15,17,19,-1,-1,21,23,25,-1,27,-1,29,31,33,35,37,39,41,43,45,-1,-1,-1,-1,-1,-1,-1,-1,-1,-1,-1,-1,-1,-1,-1,-1,-1,-1,-1,-1],"loss_changes":[1.1558773E3,6.994422E2,9.47037E2,2.3580505E2,2.5337524E0,2.1766968E0,8.16036E2,1.4499036E2,1.6192698E0,4.1124725E-1,0E0,0E0,2.3304682E0,2.3108063E0,4.118988E2,0E0,7.3736206E1,0E0,3.6736557E-1,2.2610283E-1,3.718958E-1,3.3738327E-1,1.3497059E0,9.54895E-1,1.3434668E0,1.3313174E2,1.6688416E2,0E0,0E0,0E0,0E0,0E0,0E0,0E0,0E0,0E0,0E0,0E0,0E0,0E0,0E0,0E0,0E0,0E0,0E0,0E0,0E0],"parents":[2147483647,0,0,1,1,2,2,3,3,4,4,5,5,6,6,7,7,8,8,9,9,12,12,13,13,14,14,16,16,18,18,19,19,20,20,21,21,22,22,23,23,24,24,25,25,26,26],"right_children":[2,4,6,8,10,12,14,16,18,20,-1,-1,22,24,26,-1,28,-1,30,32,34,36,38,40,42,44,46,-1,-1,-1,-1,-1,-1,-1,-1,-1,-1,-1,-1,-1,-1,-1,-1,-1,-1,-1,-1],"split_conditions":[3E0,5.8E-1,4E0,1E0,9.9E-1,6E0,7.7E-1,4.5E-1,1E0,7.6E-1,1.5836271E-3,-1.1263637E-2,1E0,6E0,5E0,-9.993836E-3,3E0,-9.410564E-3,4E0,5.9E-1,7.9E-1,9E-1,1E0,1E0,6E0,5E0,1E0,-8.531814E-3,4.2960424E-2,-3.0719074E-3,2.1672621E-3,-3.1830482E-3,-1.0578636E-2,-3.0130867E-3,-7.7844798E-3,-9.3225455E-3,-3.3862384E-3,6.3887923E-3,-4.0224753E-3,-1.031272E-2,-7.330967E-3,-3.698972E-3,-9.869185E-3,-9.424594E-3,1.4253094E-2,-4.0878514E-3,3.4642905E-2],"split_indices":[1,0,2,16,0,1,0,0,13,0,0,0,14,1,1,0,2,0,2,0,0,0,16,15,2,2,16,0,0,0,0,0,0,0,0,0,0,0,0,0,0,0,0,0,0,0,0],"split_type":[0,0,0,0,0,0,0,0,0,0,0,0,0,0,0,0,0,0,0,0,0,0,0,0,0,0,0,0,0,0,0,0,0,0,0,0,0,0,0,0,0,0,0,0,0,0,0],"sum_hessian":[1.24295E3,1.8159857E2,1.0613513E3,1.31673E2,4.9925568E1,6.738091E2,3.875423E2,1.199584E2,1.1714609E1,4.7835175E1,2.0903904E0,6.565681E2,1.7240953E1,1.5494229E2,2.3259999E2,5.316125E0,1.1464227E2,7.859719E0,3.8548906E0,2.5235403E1,2.2599773E1,1.4191346E1,3.0496068E0,1.3502295E2,1.9919346E1,9.5184654E1,1.3741533E2,2.540378E0,1.121019E2,2.5976987E0,1.2571919E0,1.5033118E0,2.3732092E1,3.6922734E0,1.89075E1,1.1460457E1,2.7308893E0,1.2790806E0,1.7705263E0,1.0936343E2,2.5659527E1,1.4999415E1,4.9199305E0,4.0493507E1,5.4691147E1,1.1980444E1,1.2543489E2],"tree_param":{"num_deleted":"0","num_feature":"17","num_nodes":"47","size_leaf_vector":"1"}},{"base_weights":[-1.0325429E-3,2.2698543E0,-3.9771137E-1,3.4199104E0,-8.484884E-1,-1.1135714E0,8.313008E-1,3.8140664E0,-7.009567E-1,-8.950695E-1,1.5717898E-3,-1.1238214E-2,-6.840183E-1,-9.2728657E-1,1.9805917E0,-9.967301E-3,4.0369964E0,-9.3808E-3,-1.2589163E-1,-1.0247375E0,-7.1312517E-1,-8.446116E-1,8.408103E-2,-9.7723097E-1,-5.5911297E-1,4.1346574E-1,3.0383768E0,-8.506247E-3,4.1508596E-2,-3.0543082E-3,2.153456E-3,-3.1680295E-3,-1.05507765E-2,-2.9941772E-3,-7.7497107E-3,-9.29144E-3,-3.367099E-3,6.3379235E-3,-4.0037455E-3,-1.0282748E-2,-7.2955587E-3,-3.6729223E-3,-9.842595E-3,-9.391878E-3,1.39866695E-2,-4.060508E-3,3.3604432E-2],"categories":[],"categories_nodes":[],"categories_segments":[],"categories_sizes":[],"default_left":[0,0,0,0,0,0,0,0,0,0,0,0,0,0,0,0,0,0,0,0,0,0,0,0,0,0,0,0,0,0,0,0,0,0,0,0,0,0,0,0,0,0,0,0,0,0,0],"id":7,"left_children":[1,3,5,7,9,11,13,15,17,19,-1,-1,21,23,25,-1,27,-1,29,31,33,35,37,39,41,43,45,-1,-1,-1,-1,-1,-1,-1,-1,-1,-1,-1,-1,-1,-1,-1,-1,-1,-1,-1,-1],"loss_changes":[1.1206472E3,6.663413E2,9.326731E2,2.2251636E2,2.5131683E0,2.1797485E0,7.908461E2,1.3667615E2,1.6083136E0,4.1469955E-1,0E0,0E0,2.3113756E0,2.3032837E0,3.9063324E2,0E0,6.942786E1,0E0,3.6299223E-1,2.2549629E-1,3.6903477E-1,3.3597946E-1,1.3323596E0,9.5809937E-1,1.3387475E0,1.2981317E2,1.5776196E2,0E0,0E0,0E0,0E0,0E0,0E0,0E0,0E0,0E0,0E0,0E0,0E0,0E0,0E0,0E0,0E0,0E0,0E0,0E0,0E0],"parents":[2147483647,0,0,1,1,2,2,3,3,4,4,5,5,6,6,7,7,8,8,9,9,12,12,13,13,14,14,16,16,18,18,19,19,20,20,21,21,22,22,23,23,24,24,25,25,26,26],"right_children":[2,4,6,8,10,12,14,16,18,20,-1,-1,22,24,26,-1,28,-1,30,32,34,36,38,40,42,44,46,-1,-1,-1,-1,-1,-1,-1,-1,-1,-1,-1,-1,-1,-1,-1,-1,-1,-1,-1,-1],"split_conditions":[3E0,5.8E-1,4E0,1E0,9.9E-1,6E0,7.7E-1,4.5E-1,1E0,7.6E-1,1.5717898E-3,-1.1238214E-2,1E0,6E0,5E0,-9.967301E-3,3E0,-9.3808E-3,4E0,5.9E-1,7.9E-1,9E-1,1E0,1E0,6E0,5E0,1E0,-8.506247E-3,4.1508596E-2,-3.0543082E-3,2.153456E-3,-3.1680295E-3,-1.05507765E-2,-2.9941772E-3,-7.7497107E-3,-9.29144E-3,-3.367099E-3,6.3379235E-3,-4.0037455E-3,-1.0282748E-2,-7.2955587E-3,-3.6729223E-3,-9.842595E-3,-9.391878E-3,1.39866695E-2,-4.060508E-3,3.3604432E-2],"split_indices":[1,0,2,16,0,1,0,0,13,0,0,0,14,1,1,0,2,0,2,0,0,0,16,15,2,2,16,0,0,0,0,0,0,0,0,0,0,0,0,0,0,0,0,0,0,0,0],"split_type":[0,0,0,0,0,0,0,0,0,0,0,0,0,0,0,0,0,0,0,0,0,0,0,0,0,0,0,0,0,0,0,0,0,0,0,0,0,0,0,0,0,0,0,0,0,0,0],"sum_hessian":[1.2420381E3,1.8399435E2,1.0580437E3,1.3434918E2,4.964518E1,6.6866296E2,3.8938074E2,1.2268861E2,1.1660567E1,4.7552586E1,2.0925932E0,6.5150055E2,1.7162388E1,1.5397266E2,2.354081E2,5.2798195E0,1.1740879E2,7.809236E0,3.8513315E0,2.5060404E1,2.2492184E1,1.4112211E1,3.0501761E0,1.3412387E2,1.9848785E1,9.542511E1,1.3998299E2,2.5256138E0,1.1488318E2,2.5923293E0,1.2590021E0,1.5000916E0,2.3560312E1,3.6847887E0,1.8807394E1,1.1387548E1,2.7246623E0,1.2844523E0,1.7657237E0,1.08592155E2,2.5531715E1,1.49620285E1,4.886758E0,4.0233017E1,5.5192093E1,1.1947412E1,1.2803557E2],"tree_param":{"num_deleted":"0","num_feature":"17","num_nodes":"47","size_leaf_vector":"1"}},{"base_weights":[-1.1572165E-3,2.2192075E0,-3.9507887E-1,3.322115E0,-8.451313E-1,-1.1109993E0,8.1916416E-1,3.697E0,-6.97739E-1,-8.918079E-1,1.5600453E-3,-1.1213023E-2,-6.806937E-1,-9.239897E-1,1.9383769E0,-9.940935E-3,3.9083776E0,-9.351176E-3,-1.24911495E-1,-1.0218734E0,-7.096964E-1,-8.41405E-1,8.3798364E-2,-9.7406274E-1,-5.5604994E-1,4.0833974E-1,2.9556496E0,4.0155716E-2,-9.165189E-3,-3.0367996E-3,2.1397409E-3,-3.1530804E-3,-1.0523102E-2,-2.9753703E-3,-7.715049E-3,-9.260469E-3,-3.348057E-3,6.287525E-3,-3.985099E-3,-1.0252943E-2,-7.2602597E-3,-3.6470094E-3,-9.816168E-3,-9.359287E-3,1.3728286E-2,-4.0333006E-3,3.2629173E-2],"categories":[],"categories_nodes":[],"categories_segments":[],"categories_sizes":[],"default_left":[0,0,0,0,0,0,0,0,0,0,0,0,0,0,0,0,0,0,0,0,0,0,0,0,0,0,0,0,0,0,0,0,0,0,0,0,0,0,0,0,0,0,0,0,0,0,0],"id":8,"left_children":[1,3,5,7,9,11,13,15,17,19,-1,-1,21,23,25,-1,27,-1,29,31,33,35,37,39,41,43,45,-1,-1,-1,-1,-1,-1,-1,-1,-1,-1,-1,-1,-1,-1,-1,-1,-1,-1,-1,-1],"loss_changes":[1.0871771E3,6.358007E2,9.186228E2,2.1043347E2,2.4927368E0,2.1829224E0,7.6684717E2,1.2914343E2,1.597436E0,4.181671E-1,0E0,0E0,2.2923908E0,2.2957916E0,3.7099744E2,0E0,6.6301025E1,0E0,3.586692E-1,2.2490501E-1,3.66189E-1,3.345871E-1,1.3152435E0,9.613266E-1,1.3340516E0,1.2660641E2,1.4939758E2,0E0,0E0,0E0,0E0,0E0,0E0,0E0,0E0,0E0,0E0,0E0,0E0,0E0,0E0,0E0,0E0,0E0,0E0,0E0,0E0],"parents":[2147483647,0,0,1,1,2,2,3,3,4,4,5,5,6,6,7,7,8,8,9,9,12,12,13,13,14,14,16,16,18,18,19,19,20,20,21,21,22,22,23,23,24,24,25,25,26,26],"right_children":[2,4,6,8,10,12,14,16,18,20,-1,-1,22,24,26,-1,28,-1,30,32,34,36,38,40,42,44,46,-1,-1,-1,-1,-1,-1,-1,-1,-1,-1,-1,-1,-1,-1,-1,-1,-1,-1,-1,-1],"split_conditions":[3E0,5.8E-1,4E0,1E0,9.9E-1,6E0,7.7E-1,4.5E-1,1E0,7.6E-1,1.5600453E-3,-1.1213023E-2,1E0,6E0,5E0,-9.940935E-3,4E0,-9.351176E-3,4E0,5.9E-1,7.9E-1,9E-1,1E0,1E0,6E0,5E0,1E0,4.0155716E-2,-9.165189E-3,-3.0367996E-3,2.1397409E-3,-3.1530804E-3,-1.0523102E-2,-2.9753703E-3,-7.715049E-3,-9.260469E-3,-3.348057E-3,6.287525E-3,-3.985099E-3,-1.0252943E-2,-7.2602597E-3,-3.6470094E-3,-9.816168E-3,-9.359287E-3,1.3728286E-2,-4.0333006E-3,3.2629173E-2],"split_indices":[1,0,2,16,0,1,0,0,13,0,0,0,14,1,1,0,2,0,2,0,0,0,16,15,2,2,16,0,0,0,0,0,0,0,0,0,0,0,0,0,0,0,0,0,0,0,0],"split_type":[0,0,0,0,0,0,0,0,0,0,0,0,0,0,0,0,0,0,0,0,0,0,0,0,0,0,0,0,0,0,0,0,0,0,0,0,0,0,0,0,0,0,0,0,0,0,0],"sum_hessian":[1.2409834E3,1.8629366E2,1.0546898E3,1.3692714E2,4.9366524E1,6.635463E2,3.911434E2,1.2532028E2,1.1606853E1,4.7271744E1,2.0947804E0,6.4646204E2,1.7084301E1,1.5300902E2,2.3813438E2,5.243718E0,1.2007656E2,7.759055E0,3.847797E0,2.4886423E1,2.2385319E1,1.4033563E1,3.0507379E0,1.3323032E2,1.9778713E1,9.5659035E1,1.4247536E2,1.1763092E2,2.4456446E0,2.5869951E0,1.260802E0,1.496889E0,2.3389534E1,3.6773567E0,1.8707962E1,1.1315086E1,2.7184768E0,1.289789E0,1.7609489E0,1.0782552E2,2.540479E1,1.492494E1,4.8537726E0,3.9974163E1,5.5684875E1,1.1914638E1,1.3056071E2],"tree_param":{"num_deleted":"0","num_feature":"17","num_nodes":"47","size_leaf_vector":"1"}},{"base_weights":[-1.2782634E-3,2.1708949E0,-3.924835E-1,3.230043E0,-8.4178656E-1,-1.1084497E0,8.073751E-1,3.5872686E0,-6.9453514E-1,-8.885586E-1,1.5483932E-3,-1.1188062E-2,-6.773841E-1,-9.207055E-1,1.8979403E0,-9.914732E-3,3.788106E0,-9.32169E-3,-1.23939164E-1,-1.0190259E0,-7.0627886E-1,-8.382105E-1,8.351092E-2,-9.709082E-1,-5.5300033E-1,4.0330526E-1,2.8774998E0,-8.601371E-3,3.894273E-2,-3.0193806E-3,2.1261168E-3,-3.1382004E-3,-1.0495608E-2,-2.9566656E-3,-7.680494E-3,-9.229628E-3,-3.3291092E-3,6.2375953E-3,-3.9665364E-3,-1.0223296E-2,-7.2250688E-3,-3.6212378E-3,-9.789898E-3,-9.32682E-3,1.3477582E-2,-4.006229E-3,3.1711422E-2],"categories":[],"categories_nodes":[],"categories_segments":[],"categories_sizes":[],"default_left":[0,0,0,0,0,0,0,0,0,0,0,0,0,0,0,0,0,0,0,0,0,0,0,0,0,0,0,0,0,0,0,0,0,0,0,0,0,0,0,0,0,0,0,0,0,0,0],"id":9,"left_children":[1,3,5,7,9,11,13,15,17,19,-1,-1,21,23,25,-1,27,-1,29,31,33,35,37,39,41,43,45,-1,-1,-1,-1,-1,-1,-1,-1,-1,-1,-1,-1,-1,-1,-1,-1,-1,-1,-1,-1],"loss_changes":[1.0552482E3,6.074435E2,9.048747E2,1.9936487E2,2.4724731E0,2.1861572E0,7.4395764E2,1.2226587E2,1.5866294E0,4.2162323E-1,0E0,0E0,2.2735147E0,2.288391E0,3.5282715E2,0E0,6.437744E1,0E0,3.543959E-1,2.2432518E-1,3.633604E-1,3.3320522E-1,1.2983551E0,9.6455383E-1,1.3293734E0,1.23506294E2,1.4170752E2,0E0,0E0,0E0,0E0,0E0,0E0,0E0,0E0,0E0,0E0,0E0,0E0,0E0,0E0,0E0,0E0,0E0,0E0,0E0,0E0],"parents":[2147483647,0,0,1,1,2,2,3,3,4,4,5,5,6,6,7,7,8,8,9,9,12,12,13,13,14,14,16,16,18,18,19,19,20,20,21,21,22,22,23,23,24,24,25,25,26,26],"right_children":[2,4,6,8,10,12,14,16,18,20,-1,-1,22,24,26,-1,28,-1,30,32,34,36,38,40,42,44,46,-1,-1,-1,-1,-1,-1,-1,-1,-1,-1,-1,-1,-1,-1,-1,-1,-1,-1,-1,-1],"split_conditions":[3E0,5.8E-1,4E0,1E0,9.9E-1,6E0,7.7E-1,4.5E-1,1E0,7.6E-1,1.5483932E-3,-1.1188062E-2,1E0,6E0,5E0,-9.914732E-3,3E0,-9.32169E-3,4E0,5.9E-1,7.9E-1,9E-1,1E0,1E0,6E0,5E0,1E0,-8.601371E-3,3.894273E-2,-3.0193806E-3,2.1261168E-3,-3.1382004E-3,-1.0495608E-2,-2.9566656E-3,-7.680494E-3,-9.229628E-3,-3.3291092E-3,6.2375953E-3,-3.9665364E-3,-1.0223296E-2,-7.2250688E-3,-3.6212378E-3,-9.789898E-3,-9.32682E-3,1.3477582E-2,-4.006229E-3,3.1711422E-2],"split_indices":[1,0,2,16,0,1,0,0,13,0,0,0,14,1,1,0,2,0,2,0,0,0,16,15,2,2,16,0,0,0,0,0,0,0,0,0,0,0,0,0,0,0,0,0,0,0,0],"split_type":[0,0,0,0,0,0,0,0,0,0,0,0,0,0,0,0,0,0,0,0,0,0,0,0,0,0,0,0,0,0,0,0,0,0,0,0,0,0,0,0,0,0,0,0,0,0,0],"sum_hessian":[1.2398083E3,1.8851678E2,1.0512916E3,1.3942717E2,4.9089607E1,6.584593E2,3.9283228E2,1.2787371E2,1.1553462E1,4.6992657E1,2.0969522E0,6.414526E2,1.7006693E1,1.5205142E2,2.4078087E2,5.2078238E0,1.22665886E2,7.7091756E0,3.8442867E0,2.4713474E1,2.227918E1,1.3955401E1,3.0512917E0,1.3234229E2,1.9709127E1,9.588658E1,1.4489427E2,2.580565E0,1.2008532E2,2.5816956E0,1.2625911E0,1.4937042E0,2.321977E1,3.6699777E0,1.8609203E1,1.124307E1,2.712331E0,1.2950903E0,1.7562015E0,1.0706354E2,2.527875E1,1.4888151E1,4.820976E0,3.9716953E1,5.6169632E1,1.1882118E1,1.3301216E2],"tree_param":{"num_deleted":"0","num_feature":"17","num_nodes":"47","size_leaf_vector":"1"}},{"base_weights":[-1.3946885E-3,2.125127E0,-3.899243E-1,3.1439319E0,-8.384543E-1,-1.1059219E0,7.9591703E-1,3.4850779E0,-6.91345E-1,-8.853216E-1,1.5368334E-3,-1.1163328E-2,-6.7408925E-1,-9.174337E-1,1.8591669E0,-9.888689E-3,3.6763544E0,-9.292339E-3,-1.22974694E-1,-1.0161949E0,-7.028726E-1,-8.350278E-1,8.3218776E-2,-9.6776706E-1,-5.499639E-1,3.983597E-1,2.8035493E0,3.77638E-2,-9.270882E-3,-3.002052E-3,2.112584E-3,-3.123389E-3,-1.0468292E-2,-7.6523274E-3,-2.9472595E-3,-9.198914E-3,-3.3102566E-3,6.1881267E-3,-3.9480575E-3,-1.0193803E-2,-7.1899816E-3,-3.5956048E-3,-9.7637875E-3,-9.294475E-3,1.3234209E-2,-3.979293E-3,3.0846145E-2],"categories":[],"categories_nodes":[],"categories_segments":[],"categories_sizes":[],"default_left":[0,0,0,0,0,0,0,0,0,0,0,0,0,0,0,0,0,0,0,0,0,0,0,0,0,0,0,0,0,0,0,0,0,0,0,0,0,0,0,0,0,0,0,0,0,0,0],"id":10,"left_children":[1,3,5,7,9,11,13,15,17,19,-1,-1,21,23,25,-1,27,-1,29,31,33,35,37,39,41,43,45,-1,-1,-1,-1,-1,-1,-1,-1,-1,-1,-1,-1,-1,-1,-1,-1,-1,-1,-1,-1],"loss_changes":[1.0249109E3,5.812347E2,8.914174E2,1.8927124E2,2.4523697E0,2.1895752E0,7.2210364E2,1.1601233E2,1.5758948E0,4.2507935E-1,0E0,0E0,2.2547464E0,2.2809906E0,3.3597797E2,0E0,6.1586426E1,0E0,3.5017198E-1,2.2376251E-1,3.6428642E-1,3.318367E-1,1.2816908E0,9.678345E-1,1.3247142E0,1.20507965E2,1.346189E2,0E0,0E0,0E0,0E0,0E0,0E0,0E0,0E0,0E0,0E0,0E0,0E0,0E0,0E0,0E0,0E0,0E0,0E0,0E0,0E0],"parents":[2147483647,0,0,1,1,2,2,3,3,4,4,5,5,6,6,7,7,8,8,9,9,12,12,13,13,14,14,16,16,18,18,19,19,20,20,21,21,22,22,23,23,24,24,25,25,26,26],"right_children":[2,4,6,8,10,12,14,16,18,20,-1,-1,22,24,26,-1,28,-1,30,32,34,36,38,40,42,44,46,-1,-1,-1,-1,-1,-1,-1,-1,-1,-1,-1,-1,-1,-1,-1,-1,-1,-1,-1,-1],"split_conditions":[3E0,5.8E-1,4E0,1E0,9.9E-1,6E0,7.7E-1,4.5E-1,1E0,7.6E-1,1.5368334E-3,-1.1163328E-2,1E0,6E0,5E0,-9.888689E-3,4E0,-9.292339E-3,4E0,5.9E-1,1E0,9E-1,1E0,1E0,6E0,5E0,1E0,3.77638E-2,-9.270882E-3,-3.002052E-3,2.112584E-3,-3.123389E-3,-1.0468292E-2,-7.6523274E-3,-2.9472595E-3,-9.198914E-3,-3.3102566E-3,6.1881267E-3,-3.9480575E-3,-1.0193803E-2,-7.1899816E-3,-3.5956048E-3,-9.7637875E-3,-9.294475E-3,1.3234209E-2,-3.979293E-3,3.0846145E-2],"split_indices":[1,0,2,16,0,1,0,0,13,0,0,0,14,1,1,0,2,0,2,0,14,0,16,15,2,2,16,0,0,0,0,0,0,0,0,0,0,0,0,0,0,0,0,0,0,0,0],"split_type":[0,0,0,0,0,0,0,0,0,0,0,0,0,0,0,0,0,0,0,0,0,0,0,0,0,0,0,0,0,0,0,0,0,0,0,0,0,0,0,0,0,0,0,0,0,0,0],"sum_hessian":[1.238484E3,1.9063272E2,1.0478513E3,1.418183E2,4.881442E1,6.534019E2,3.9444934E2,1.303179E2,1.15004E1,4.6715313E1,2.0991082E0,6.3647235E2,1.6929564E1,1.5109988E2,2.4334946E2,5.172136E0,1.2514576E2,7.6595984E0,3.8408012E0,2.4541548E1,2.2173763E1,1.3877726E1,3.051838E0,1.3145985E2,1.9640028E1,9.610788E1,1.4724158E2,1.2266021E2,2.4855566E0,2.5764313E0,1.26437E0,1.4905372E0,2.305101E1,1.8475952E1,3.6978118E0,1.1171499E1,2.706226E0,1.3003565E0,1.7514814E0,1.0630626E2,2.5153595E1,1.485166E1,4.7883677E0,3.9461376E1,5.6646503E1,1.18498535E1,1.3539172E2],"tree_param":{"num_deleted":"0","num_feature":"17","num_nodes":"47","size_leaf_vector":"1"}},{"base_weights":[-1.5078936E-3,2.081347E0,-3.874E-1,3.0625246E0,-8.35131E-1,-1.1034154E0,7.847754E-1,3.3888414E0,-6.8816835E-1,-8.8209295E-1,1.525365E-3,-1.1138811E-2,-6.7080915E-1,-9.1417396E-1,1.8219523E0,-9.862805E-3,3.5713341E0,-9.263119E-3,-1.22017965E-1,-1.0133799E0,-6.99472E-1,-8.3185685E-1,8.292213E-2,-9.6463895E-1,-5.469406E-1,-9.5014375E-1,2.2900782E0,-8.689714E-3,3.6710337E-2,-2.9848118E-3,2.09914E-3,-3.1086472E-3,-1.0441147E-2,-2.8953478E-3,-7.615128E-3,-9.168327E-3,-3.2914998E-3,6.139115E-3,-3.9296616E-3,-1.0164465E-2,-7.1550016E-3,-3.5701112E-3,-9.737828E-3,-9.990281E-3,2.7168365E-3,-7.688957E-3,2.7036916E-2],"categories":[],"categories_nodes":[],"categories_segments":[],"categories_sizes":[],"default_left":[0,0,0,0,0,0,0,0,0,0,0,0,0,0,0,0,0,0,0,0,0,0,0,0,0,0,0,0,0,0,0,0,0,0,0,0,0,0,0,0,0,0,0,0,0,0,0],"id":11,"left_children":[1,3,5,7,9,11,13,15,17,19,-1,-1,21,23,25,-1,27,-1,29,31,33,35,37,39,41,43,45,-1,-1,-1,-1,-1,-1,-1,-1,-1,-1,-1,-1,-1,-1,-1,-1,-1,-1,-1,-1],"loss_changes":[9.958964E2,5.567813E2,8.7824097E2,1.7996631E2,2.4324112E0,2.1929321E0,7.0121735E2,1.1026318E2,1.5652299E0,4.2857742E-1,0E0,0E0,2.236086E0,2.2736588E0,3.2250024E2,0E0,6.0099365E1,0E0,3.4599668E-1,2.2321701E-1,3.6623192E-1,3.3047295E-1,1.2652478E0,9.711075E-1,1.3200722E0,2.443676E0,2.6964172E2,0E0,0E0,0E0,0E0,0E0,0E0,0E0,0E0,0E0,0E0,0E0,0E0,0E0,0E0,0E0,0E0,0E0,0E0,0E0,0E0],"parents":[2147483647,0,0,1,1,2,2,3,3,4,4,5,5,6,6,7,7,8,8,9,9,12,12,13,13,14,14,16,16,18,18,19,19,20,20,21,21,22,22,23,23,24,24,25,25,26,26],"right_children":[2,4,6,8,10,12,14,16,18,20,-1,-1,22,24,26,-1,28,-1,30,32,34,36,38,40,42,44,46,-1,-1,-1,-1,-1,-1,-1,-1,-1,-1,-1,-1,-1,-1,-1,-1,-1,-1,-1,-1],"split_conditions":[3E0,5.8E-1,4E0,1E0,9.9E-1,6E0,7.7E-1,4.5E-1,1E0,7.6E-1,1.525365E-3,-1.1138811E-2,1E0,6E0,4E0,-9.862805E-3,3E0,-9.263119E-3,4E0,5.9E-1,7.9E-1,9E-1,1E0,1E0,6E0,1E0,1E0,-8.689714E-3,3.6710337E-2,-2.9848118E-3,2.09914E-3,-3.1086472E-3,-1.0441147E-2,-2.8953478E-3,-7.615128E-3,-9.168327E-3,-3.2914998E-3,6.139115E-3,-3.9296616E-3,-1.0164465E-2,-7.1550016E-3,-3.5701112E-3,-9.737828E-3,-9.990281E-3,2.7168365E-3,-7.688957E-3,2.7036916E-2],"split_indices":[1,0,2,16,0,1,0,0,13,0,0,0,14,1,1,0,2,0,2,0,0,0,16,15,2,0,16,0,0,0,0,0,0,0,0,0,0,0,0,0,0,0,0,0,0,0,0],"split_type":[0,0,0,0,0,0,0,0,0,0,0,0,0,0,0,0,0,0,0,0,0,0,0,0,0,0,0,0,0,0,0,0,0,0,0,0,0,0,0,0,0,0,0,0,0,0,0],"sum_hessian":[1.2370481E3,1.9267737E2,1.0443707E3,1.441362E2,4.8541172E1,6.483744E2,3.959964E2,1.3268854E2,1.1447663E1,4.6439922E1,2.101249E0,6.315215E2,1.6852913E1,1.5015437E2,2.4584203E2,5.136656E0,1.2755188E2,7.6103234E0,3.8373396E0,2.4370659E1,2.2069262E1,1.3800538E1,3.052376E0,1.3058296E2,1.9571411E1,3.5368866E1,2.1047316E2,2.6316218E0,1.2492026E2,2.5712013E0,1.2661382E0,1.4873881E0,2.2883272E1,3.6458707E0,1.8423391E1,1.1100376E1,2.7001617E0,1.3055875E0,1.7467885E0,1.0555364E2,2.5029322E1,1.4815461E1,4.75595E0,3.418355E1,1.1853116E0,2.4966768E1,1.855064E2],"tree_param":{"num_deleted":"0","num_feature":"17","num_nodes":"47","size_leaf_vector":"1"}},{"base_weights":[-1.6331495E-3,2.0397758E0,-3.848996E-1,2.98611E0,-8.318219E-1,-1.1009296E0,7.7373016E-1,3.2988484E0,-6.8500507E-1,-8.7887865E-1,1.5139874E-3,-1.111451E-2,-6.675434E-1,-9.109259E-1,1.7855465E0,-9.837074E-3,3.4733236E0,-9.234028E-3,-1.2106893E-1,-1.0105805E0,-6.960866E-1,-8.2869726E-1,8.262113E-2,-9.615235E-1,-5.439304E-1,-9.4669586E-1,2.238273E0,3.5673037E-2,-9.369474E-3,-2.9676612E-3,2.085785E-3,-3.093974E-3,-1.0414171E-2,-7.5870417E-3,-2.886324E-3,-9.1378605E-3,-3.272836E-3,6.090555E-3,-3.911349E-3,-1.0135272E-2,-7.120123E-3,-3.5447555E-3,-9.712021E-3,-9.957469E-3,2.6993565E-3,-7.652911E-3,2.6363077E-2],"categories":[],"categories_nodes":[],"categories_segments":[],"categories_sizes":[],"default_left":[0,0,0,0,0,0,0,0,0,0,0,0,0,0,0,0,0,0,0,0,0,0,0,0,0,0,0,0,0,0,0,0,0,0,0,0,0,0,0,0,0,0,0,0,0,0,0],"id":12,"left_children":[1,3,5,7,9,11,13,15,17,19,-1,-1,21,23,25,-1,27,-1,29,31,33,35,37,39,41,43,45,-1,-1,-1,-1,-1,-1,-1,-1,-1,-1,-1,-1,-1,-1,-1,-1,-1,-1,-1,-1],"loss_changes":[9.682675E2,5.3407794E2,8.6525305E2,1.7143237E2,2.4126167E0,2.196289E0,6.80989E2,1.0500195E2,1.5546365E0,4.320259E-1,0E0,0E0,2.2175317E0,2.2663345E0,3.105428E2,0E0,5.7578125E1,0E0,3.4186962E-1,2.2268105E-1,3.6694622E-1,3.2912064E-1,1.2490236E0,9.7441864E-1,1.3154464E0,2.4258308E0,2.580929E2,0E0,0E0,0E0,0E0,0E0,0E0,0E0,0E0,0E0,0E0,0E0,0E0,0E0,0E0,0E0,0E0,0E0,0E0,0E0,0E0],"parents":[2147483647,0,0,1,1,2,2,3,3,4,4,5,5,6,6,7,7,8,8,9,9,12,12,13,13,14,14,16,16,18,18,19,19,20,20,21,21,22,22,23,23,24,24,25,25,26,26],"right_children":[2,4,6,8,10,12,14,16,18,20,-1,-1,22,24,26,-1,28,-1,30,32,34,36,38,40,42,44,46,-1,-1,-1,-1,-1,-1,-1,-1,-1,-1,-1,-1,-1,-1,-1,-1,-1,-1,-1,-1],"split_conditions":[3E0,5.8E-1,4E0,1E0,9.9E-1,6E0,7.7E-1,4.5E-1,1E0,7.6E-1,1.5139874E-3,-1.111451E-2,1E0,6E0,4E0,-9.837074E-3,4E0,-9.234028E-3,4E0,5.9E-1,1E0,9E-1,1E0,1E0,6E0,1E0,1E0,3.5673037E-2,-9.369474E-3,-2.9676612E-3,2.085785E-3,-3.093974E-3,-1.0414171E-2,-7.5870417E-3,-2.886324E-3,-9.1378605E-3,-3.272836E-3,6.090555E-3,-3.911349E-3,-1.0135272E-2,-7.120123E-3,-3.5447555E-3,-9.712021E-3,-9.957469E-3,2.6993565E-3,-7.652911E-3,2.6363077E-2],"split_indices":[1,0,2,16,0,1,0,0,13,0,0,0,14,1,1,0,2,0,2,0,14,0,16,15,2,0,16,0,0,0,0,0,0,0,0,0,0,0,0,0,0,0,0,0,0,0,0],"split_type":[0,0,0,0,0,0,0,0,0,0,0,0,0,0,0,0,0,0,0,0,0,0,0,0,0,0,0,0,0,0,0,0,0,0,0,0,0,0,0,0,0,0,0,0,0,0,0],"sum_hessian":[1.2355518E3,1.9461945E2,1.0409323E3,1.4634999E2,4.8269466E1,6.433769E2,3.9755536E2,1.3495473E2,1.1395254E1,4.6166092E1,2.1033747E0,6.2660016E2,1.6776745E1,1.492149E2,2.4834044E2,5.1013827E0,1.2985335E2,7.5613523E0,3.8339024E0,2.4200802E1,2.196529E1,1.3723839E1,3.052906E0,1.2971164E2,1.9503279E1,3.5145184E1,2.1319525E2,1.2733114E2,2.5222085E0,2.566006E0,1.2678963E0,1.4842564E0,2.2716547E1,1.8292097E1,3.6731927E0,1.1029703E1,2.6941366E0,1.3107835E0,1.7421227E0,1.0480571E2,2.4905926E1,1.4779557E1,4.7237206E0,3.395766E1,1.1875219E0,2.4838871E1,1.8835638E2],"tree_param":{"num_deleted":"0","num_feature":"17","num_nodes":"47","size_leaf_vector":"1"}},{"base_weights":[-1.7553826E-3,1.9999107E0,-3.824322E-1,2.913603E0,-8.2852155E-1,-1.0984643E0,7.629808E-1,3.2137494E0,-6.818551E-1,-8.756724E-1,1.5026989E-3,-1.1090419E-2,-6.642919E-1,-9.0768933E-1,1.750552E0,-9.811496E-3,3.3808138E0,-9.205065E-3,-1.2012745E-1,-1.0077965E0,-6.927068E-1,-8.2554877E-1,8.231588E-2,-9.584203E-1,-5.409332E-1,3.7169373E-1,2.6180394E0,-8.772085E-3,3.475022E-2,-2.9505987E-3,2.0725194E-3,-3.079367E-3,-1.0387361E-2,-2.8346684E-3,-7.5501734E-3,-9.107512E-3,-3.254266E-3,6.042444E-3,-3.8931184E-3,-1.0106223E-2,-7.085348E-3,-3.5195374E-3,-9.686362E-3,-9.2876E-3,1.255634E-2,-3.8487343E-3,2.8668711E-2],"categories":[],"categories_nodes":[],"categories_segments":[],"categories_sizes":[],"default_left":[0,0,0,0,0,0,0,0,0,0,0,0,0,0,0,0,0,0,0,0,0,0,0,0,0,0,0,0,0,0,0,0,0,0,0,0,0,0,0,0,0,0,0,0,0,0,0],"id":13,"left_children":[1,3,5,7,9,11,13,15,17,19,-1,-1,21,23,25,-1,27,-1,29,31,33,35,37,39,41,43,45,-1,-1,-1,-1,-1,-1,-1,-1,-1,-1,-1,-1,-1,-1,-1,-1,-1,-1,-1,-1],"loss_changes":[9.417832E2,5.1280286E2,8.525314E2,1.6352075E2,2.3929672E0,2.199768E0,6.6163025E2,1.0013635E2,1.5441117E0,4.3552017E-1,0E0,0E0,2.1990852E0,2.2590714E0,3.001753E2,0E0,5.6434326E1,0E0,3.377903E-1,2.2216225E-1,3.689642E-1,3.277769E-1,1.2330151E0,9.7771454E-1,1.3108373E0,1.1426994E2,1.164552E2,0E0,0E0,0E0,0E0,0E0,0E0,0E0,0E0,0E0,0E0,0E0,0E0,0E0,0E0,0E0,0E0,0E0,0E0,0E0,0E0],"parents":[2147483647,0,0,1,1,2,2,3,3,4,4,5,5,6,6,7,7,8,8,9,9,12,12,13,13,14,14,16,16,18,18,19,19,20,20,21,21,22,22,23,23,24,24,25,25,26,26],"right_children":[2,4,6,8,10,12,14,16,18,20,-1,-1,22,24,26,-1,28,-1,30,32,34,36,38,40,42,44,46,-1,-1,-1,-1,-1,-1,-1,-1,-1,-1,-1,-1,-1,-1,-1,-1,-1,-1,-1,-1],"split_conditions":[3E0,5.8E-1,4E0,1E0,9.9E-1,6E0,7.7E-1,4.5E-1,1E0,7.6E-1,1.5026989E-3,-1.1090419E-2,1E0,6E0,5E0,-9.811496E-3,3E0,-9.205065E-3,4E0,5.9E-1,7.9E-1,9E-1,1E0,1E0,6E0,5E0,1E0,-8.772085E-3,3.475022E-2,-2.9505987E-3,2.0725194E-3,-3.079367E-3,-1.0387361E-2,-2.8346684E-3,-7.5501734E-3,-9.107512E-3,-3.254266E-3,6.042444E-3,-3.8931184E-3,-1.0106223E-2,-7.085348E-3,-3.5195374E-3,-9.686362E-3,-9.2876E-3,1.255634E-2,-3.8487343E-3,2.8668711E-2],"split_indices":[1,0,2,16,0,1,0,0,13,0,0,0,14,1,1,0,2,0,2,0,0,0,16,15,2,2,16,0,0,0,0,0,0,0,0,0,0,0,0,0,0,0,0,0,0,0,0],"split_type":[0,0,0,0,0,0,0,0,0,0,0,0,0,0,0,0,0,0,0,0,0,0,0,0,0,0,0,0,0,0,0,0,0,0,0,0,0,0,0,0,0,0,0,0,0,0,0],"sum_hessian":[1.233952E3,1.9649466E2,1.0374573E3,1.4849496E2,4.799969E1,6.384094E2,3.990479E2,1.371518E2,1.1343171E1,4.5894207E1,2.1054852E0,6.217084E2,1.6701054E1,1.4828152E2,2.5076637E2,5.0663185E0,1.3208546E2,7.512683E0,3.8304882E0,2.4031982E1,2.1862225E1,1.3647625E1,3.0534286E0,1.288459E2,1.9435625E1,9.739188E1,1.533745E2,2.6792014E0,1.2940627E2,2.5608444E0,1.2696439E0,1.4811422E0,2.255084E1,3.6221423E0,1.8240082E1,1.0959474E1,2.6881514E0,1.3159444E0,1.7374842E0,1.040625E2,2.4783405E1,1.4743944E1,4.691681E0,3.939023E1,5.8001648E1,1.169477E1,1.4167972E2],"tree_param":{"num_deleted":"0","num_feature":"17","num_nodes":"47","size_leaf_vector":"1"}},{"base_weights":[-1.8581119E-3,1.9619764E0,-3.8000447E-1,2.8453248E0,-8.2523483E-1,-1.0960189E0,7.526942E-1,3.133884E0,-6.7871815E-1,-8.724798E-1,1.4914989E-3,-1.10665355E-2,-6.6105473E-1,-9.044639E-1,1.7174361E0,-9.786066E-3,3.2941477E0,-9.1762245E-3,-1.1919358E-1,-1.0050272E0,-6.8934184E-1,-8.224114E-1,8.2006544E-2,-9.5532906E-1,-5.379489E-1,-9.4376147E-1,2.1457686E0,3.3829775E-2,-9.461734E-3,-2.9336247E-3,2.059341E-3,-3.0648292E-3,-1.036071E-2,-7.522164E-3,-2.8260169E-3,-9.077284E-3,-3.2357892E-3,5.9947735E-3,-3.8749692E-3,-1.0077314E-2,-7.0506744E-3,-3.4944569E-3,-9.6608475E-3,-9.930699E-3,2.7237162E-3,-7.6171593E-3,2.5190238E-2],"categories":[],"categories_nodes":[],"categories_segments":[],"categories_sizes":[],"default_left":[0,0,0,0,0,0,0,0,0,0,0,0,0,0,0,0,0,0,0,0,0,0,0,0,0,0,0,0,0,0,0,0,0,0,0,0,0,0,0,0,0,0,0,0,0,0,0],"id":14,"left_children":[1,3,5,7,9,11,13,15,17,19,-1,-1,21,23,25,-1,27,-1,29,31,33,35,37,39,41,43,45,-1,-1,-1,-1,-1,-1,-1,-1,-1,-1,-1,-1,-1,-1,-1,-1,-1,-1,-1,-1],"loss_changes":[9.165028E2,4.9297107E2,8.4014E2,1.5622766E2,2.3734741E0,2.2033691E0,6.432919E2,9.56593E1,1.5336542E0,4.3896103E-1,0E0,0E0,2.1807442E0,2.251831E0,2.9161212E2,0E0,5.4132935E1,0E0,3.3375803E-1,2.216568E-1,3.6946964E-1,3.2644176E-1,1.2172186E0,9.810486E-1,1.306241E0,2.4242191E0,2.3973138E2,0E0,0E0,0E0,0E0,0E0,0E0,0E0,0E0,0E0,0E0,0E0,0E0,0E0,0E0,0E0,0E0,0E0,0E0,0E0,0E0],"parents":[2147483647,0,0,1,1,2,2,3,3,4,4,5,5,6,6,7,7,8,8,9,9,12,12,13,13,14,14,16,16,18,18,19,19,20,20,21,21,22,22,23,23,24,24,25,25,26,26],"right_children":[2,4,6,8,10,12,14,16,18,20,-1,-1,22,24,26,-1,28,-1,30,32,34,36,38,40,42,44,46,-1,-1,-1,-1,-1,-1,-1,-1,-1,-1,-1,-1,-1,-1,-1,-1,-1,-1,-1,-1],"split_conditions":[3E0,5.8E-1,4E0,1E0,9.9E-1,6E0,7.7E-1,4.5E-1,1E0,7.6E-1,1.4914989E-3,-1.10665355E-2,1E0,6E0,4E0,-9.786066E-3,4E0,-9.1762245E-3,4E0,5.9E-1,1E0,9E-1,1E0,1E0,6E0,1E0,1E0,3.3829775E-2,-9.461734E-3,-2.9336247E-3,2.059341E-3,-3.0648292E-3,-1.036071E-2,-7.522164E-3,-2.8260169E-3,-9.077284E-3,-3.2357892E-3,5.9947735E-3,-3.8749692E-3,-1.0077314E-2,-7.0506744E-3,-3.4944569E-3,-9.6608475E-3,-9.930699E-3,2.7237162E-3,-7.6171593E-3,2.5190238E-2],"split_indices":[1,0,2,16,0,1,0,0,13,0,0,0,14,1,1,0,2,0,2,0,14,0,16,15,2,0,16,0,0,0,0,0,0,0,0,0,0,0,0,0,0,0,0,0,0,0,0],"split_type":[0,0,0,0,0,0,0,0,0,0,0,0,0,0,0,0,0,0,0,0,0,0,0,0,0,0,0,0,0,0,0,0,0,0,0,0,0,0,0,0,0,0,0,0,0,0,0],"sum_hessian":[1.232149E3,1.9827184E2,1.0338772E3,1.5054036E2,4.7731472E1,6.3347205E2,4.004052E2,1.3924895E2,1.1291415E1,4.562389E1,2.1075811E0,6.168462E2,1.6625843E1,1.473542E2,2.5305103E2,5.031462E0,1.3421748E2,7.4643164E0,3.8270984E0,2.38642E1,2.1759691E1,1.3571899E1,3.053943E0,1.2798575E2,1.936845E1,3.4916164E1,2.1813486E2,1.3166151E2,2.555974E0,2.555717E0,1.2713813E0,1.4780455E0,2.2386154E1,1.8110725E1,3.6489658E0,1.0889694E1,2.6822057E0,1.3210707E0,1.7328722E0,1.0332398E2,2.4661764E1,1.4708619E1,4.6598315E0,3.3731915E1,1.1842499E0,2.469917E1,1.9343568E2],"tree_param":{"num_deleted":"0","num_feature":"17","num_nodes":"47","size_leaf_vector":"1"}},{"base_weights":[-1.9738872E-3,1.9255149E0,-3.7759975E-1,2.780323E0,-8.2195646E-1,-1.093593E0,7.424909E-1,3.0580833E0,-6.7559415E-1,-8.69295E-1,1.4803867E-3,-1.1042853E-2,-6.578314E-1,-9.012493E-1,1.6849864E0,-9.760782E-3,3.2120266E0,-9.147506E-3,-1.1826718E-1,-1.0022725E0,-6.859826E-1,-8.192846E-1,8.169326E-2,-9.522494E-1,-5.3497756E-1,-9.403405E-1,2.1001854E0,-8.84915E-3,3.3015292E-2,-2.9167384E-3,2.0462496E-3,-3.050358E-3,-1.0334219E-2,-2.7746253E-3,-7.485618E-3,-9.0471655E-3,-3.217405E-3,5.9475414E-3,-3.856902E-3,-1.004854E-2,-7.0161014E-3,-3.4695142E-3,-9.635475E-3,-9.898173E-3,2.7061917E-3,-7.581335E-3,2.4604399E-2],"categories":[],"categories_nodes":[],"categories_segments":[],"categories_sizes":[],"default_left":[0,0,0,0,0,0,0,0,0,0,0,0,0,0,0,0,0,0,0,0,0,0,0,0,0,0,0,0,0,0,0,0,0,0,0,0,0,0,0,0,0,0,0,0,0,0,0],"id":15,"left_children":[1,3,5,7,9,11,13,15,17,19,-1,-1,21,23,25,-1,27,-1,29,31,33,35,37,39,41,43,45,-1,-1,-1,-1,-1,-1,-1,-1,-1,-1,-1,-1,-1,-1,-1,-1,-1,-1,-1,-1],"loss_changes":[8.922235E2,4.7431403E2,8.279213E2,1.4943347E2,2.3541222E0,2.2068481E0,6.25501E2,9.149658E1,1.5232635E0,4.4243622E-1,0E0,0E0,2.162509E0,2.244606E0,2.8139368E2,0E0,5.3261963E1,0E0,3.297724E-1,2.2115898E-1,3.7155247E-1,3.251133E-1,1.2016324E0,9.843674E-1,1.3016596E0,2.4065151E0,2.300976E2,0E0,0E0,0E0,0E0,0E0,0E0,0E0,0E0,0E0,0E0,0E0,0E0,0E0,0E0,0E0,0E0,0E0,0E0,0E0,0E0],"parents":[2147483647,0,0,1,1,2,2,3,3,4,4,5,5,6,6,7,7,8,8,9,9,12,12,13,13,14,14,16,16,18,18,19,19,20,20,21,21,22,22,23,23,24,24,25,25,26,26],"right_children":[2,4,6,8,10,12,14,16,18,20,-1,-1,22,24,26,-1,28,-1,30,32,34,36,38,40,42,44,46,-1,-1,-1,-1,-1,-1,-1,-1,-1,-1,-1,-1,-1,-1,-1,-1,-1,-1,-1,-1],"split_conditions":[3E0,5.8E-1,4E0,1E0,9.9E-1,6E0,7.7E-1,4.5E-1,1E0,7.6E-1,1.4803867E-3,-1.1042853E-2,1E0,6E0,4E0,-9.760782E-3,3E0,-9.147506E-3,4E0,5.9E-1,7.9E-1,9E-1,1E0,1E0,6E0,1E0,1E0,-8.84915E-3,3.3015292E-2,-2.9167384E-3,2.0462496E-3,-3.050358E-3,-1.0334219E-2,-2.7746253E-3,-7.485618E-3,-9.0471655E-3,-3.217405E-3,5.9475414E-3,-3.856902E-3,-1.004854E-2,-7.0161014E-3,-3.4695142E-3,-9.635475E-3,-9.898173E-3,2.7061917E-3,-7.581335E-3,2.4604399E-2],"split_indices":[1,0,2,16,0,1,0,0,13,0,0,0,14,1,1,0,2,0,2,0,0,0,16,15,2,0,16,0,0,0,0,0,0,0,0,0,0,0,0,0,0,0,0,0,0,0,0],"split_type":[0,0,0,0,0,0,0,0,0,0,0,0,0,0,0,0,0,0,0,0,0,0,0,0,0,0,0,0,0,0,0,0,0,0,0,0,0,0,0,0,0,0,0,0,0,0,0],"sum_hessian":[1.2303239E3,1.9998637E2,1.0303374E3,1.525212E2,4.7465176E1,6.285648E2,4.0177258E2,1.412812E2,1.1239986E1,4.5355515E1,2.1096618E0,6.1201373E2,1.655111E1,1.4643294E2,2.5533966E2,4.9968147E0,1.362844E2,7.416254E0,3.823732E0,2.3697458E1,2.1658054E1,1.3496661E1,3.0544488E0,1.2713118E2,1.9301756E1,3.46952E1,2.2064445E2,2.7236547E0,1.3356075E2,2.5506234E0,1.2731085E0,1.4749659E0,2.2222492E1,3.598788E0,1.8059267E1,1.0820362E1,2.676299E0,1.3261622E0,1.7282867E0,1.02590195E2,2.4540993E1,1.4673583E1,4.628173E0,3.350874E1,1.1864641E0,2.457308E1,1.9607137E2],"tree_param":{"num_deleted":"0","num_feature":"17","num_nodes":"47","size_leaf_vector":"1"}},{"base_weights":[-2.0859232E-3,1.8907522E0,-3.7522563E-1,2.7189379E0,-8.1869125E-1,-1.0911864E0,7.3254734E-1,2.986718E0,-6.7248297E-1,-8.6612326E-1,1.4693626E-3,-1.1019368E-2,-6.54622E-1,-8.9804524E-1,1.6537166E0,-9.735642E-3,3.134834E0,-9.118906E-3,-1.1734824E-1,-9.99532E-1,-6.826377E-1,-8.1616867E-1,8.137602E-2,-9.4918114E-1,-5.320191E-1,-9.369353E-1,2.05647E0,3.219239E-2,-9.548304E-3,-2.89994E-3,2.0332462E-3,-3.0359544E-3,-1.0307878E-2,-7.457686E-3,-2.7663368E-3,-9.017161E-3,-3.1991145E-3,5.900741E-3,-3.8389163E-3,-1.0019899E-2,-6.981627E-3,-3.444709E-3,-9.610244E-3,-9.865807E-3,2.6887858E-3,-7.545626E-3,2.4044922E-2],"categories":[],"categories_nodes":[],"categories_segments":[],"categories_sizes":[],"default_left":[0,0,0,0,0,0,0,0,0,0,0,0,0,0,0,0,0,0,0,0,0,0,0,0,0,0,0,0,0,0,0,0,0,0,0,0,0,0,0,0,0,0,0,0,0,0,0],"id":16,"left_children":[1,3,5,7,9,11,13,15,17,19,-1,-1,21,23,25,-1,27,-1,29,31,33,35,37,39,41,43,45,-1,-1,-1,-1,-1,-1,-1,-1,-1,-1,-1,-1,-1,-1,-1,-1,-1,-1,-1,-1],"loss_changes":[8.6900745E2,4.568606E2,8.159434E2,1.4314209E2,2.3349228E0,2.2105713E0,6.084319E2,8.764734E1,1.5129366E0,4.4586945E-1,0E0,0E0,2.1443791E0,2.2374039E0,2.7170746E2,0E0,5.114319E1,0E0,3.2583314E-1,2.2067451E-1,3.7186146E-1,3.237934E-1,1.1862526E0,9.8770905E-1,1.2970896E0,2.3889484E0,2.2103717E2,0E0,0E0,0E0,0E0,0E0,0E0,0E0,0E0,0E0,0E0,0E0,0E0,0E0,0E0,0E0,0E0,0E0,0E0,0E0,0E0],"parents":[2147483647,0,0,1,1,2,2,3,3,4,4,5,5,6,6,7,7,8,8,9,9,12,12,13,13,14,14,16,16,18,18,19,19,20,20,21,21,22,22,23,23,24,24,25,25,26,26],"right_children":[2,4,6,8,10,12,14,16,18,20,-1,-1,22,24,26,-1,28,-1,30,32,34,36,38,40,42,44,46,-1,-1,-1,-1,-1,-1,-1,-1,-1,-1,-1,-1,-1,-1,-1,-1,-1,-1,-1,-1],"split_conditions":[3E0,5.8E-1,4E0,1E0,9.9E-1,6E0,7.7E-1,4.5E-1,1E0,7.6E-1,1.4693626E-3,-1.1019368E-2,1E0,6E0,4E0,-9.735642E-3,4E0,-9.118906E-3,4E0,5.9E-1,1E0,9E-1,1E0,1E0,6E0,1E0,1E0,3.219239E-2,-9.548304E-3,-2.89994E-3,2.0332462E-3,-3.0359544E-3,-1.0307878E-2,-7.457686E-3,-2.7663368E-3,-9.017161E-3,-3.1991145E-3,5.900741E-3,-3.8389163E-3,-1.0019899E-2,-6.981627E-3,-3.444709E-3,-9.610244E-3,-9.865807E-3,2.6887858E-3,-7.545626E-3,2.4044922E-2],"split_indices":[1,0,2,16,0,1,0,0,13,0,0,0,14,1,1,0,2,0,2,0,14,0,16,15,2,0,16,0,0,0,0,0,0,0,0,0,0,0,0,0,0,0,0,0,0,0,0],"split_type":[0,0,0,0,0,0,0,0,0,0,0,0,0,0,0,0,0,0,0,0,0,0,0,0,0,0,0,0,0,0,0,0,0,0,0,0,0,0,0,0,0,0,0,0,0,0,0],"sum_hessian":[1.2283735E3,2.0160716E2,1.0267665E3,1.5440672E2,4.7200436E1,6.236879E2,4.030785E2,1.4321783E2,1.1188883E1,4.5088707E1,2.1117275E0,6.0721106E2,1.6476854E1,1.4551775E2,2.5756076E2,4.9623766E0,1.3825546E2,7.368494E0,3.8203886E0,2.353176E1,2.1556948E1,1.3421908E1,3.0549471E0,1.2628221E2,1.9235537E1,3.4475536E1,2.230852E2,1.3566829E2,2.5871687E0,2.5455632E0,1.2748252E0,1.4719038E0,2.2059855E1,1.793182E1,3.6251283E0,1.0751476E1,2.6704316E0,1.331219E0,1.7237283E0,1.0186112E2,2.4421091E1,1.4638832E1,4.5967045E0,3.328687E1,1.1886656E0,2.4447842E1,1.9863737E2],"tree_param":{"num_deleted":"0","num_feature":"17","num_nodes":"47","size_leaf_vector":"1"}},{"base_weights":[-2.1958584E-3,1.8572688E0,-3.728813E-1,2.660324E0,-8.1543386E-1,-1.0887984E0,7.228528E-1,2.9187615E0,-6.6938436E-1,-8.6295867E-1,1.4584247E-3,-1.0996078E-2,-6.5142626E-1,-8.9485145E-1,1.6235604E0,-9.710642E-3,3.061436E0,-9.090423E-3,-1.1643661E-1,-9.9680525E-1,-6.792983E-1,-8.13063E-1,8.105514E-2,-9.461238E-1,-5.290734E-1,3.3722582E-1,2.409307E0,-8.921463E-3,3.146876E-2,-2.8832282E-3,2.020329E-3,-3.0216184E-3,-1.02816885E-2,-2.7152172E-3,-7.421451E-3,-8.987266E-3,-3.180916E-3,5.85437E-3,-3.8210112E-3,-9.991388E-3,-6.947252E-3,-3.4200402E-3,-9.585149E-3,-9.295902E-3,1.1748627E-2,-3.6672177E-3,2.6239684E-2],"categories":[],"categories_nodes":[],"categories_segments":[],"categories_sizes":[],"default_left":[0,0,0,0,0,0,0,0,0,0,0,0,0,0,0,0,0,0,0,0,0,0,0,0,0,0,0,0,0,0,0,0,0,0,0,0,0,0,0,0,0,0,0,0,0,0,0],"id":17,"left_children":[1,3,5,7,9,11,13,15,17,19,-1,-1,21,23,25,-1,27,-1,29,31,33,35,37,39,41,43,45,-1,-1,-1,-1,-1,-1,-1,-1,-1,-1,-1,-1,-1,-1,-1,-1,-1,-1,-1,-1],"loss_changes":[8.4666583E2,4.4038354E2,8.041989E2,1.37255E2,2.3158627E0,2.2141113E0,5.9204254E2,8.4051636E1,1.5026755E0,4.4932556E-1,0E0,0E0,2.1263561E0,2.2302246E0,2.6270184E2,0E0,5.049243E1,0E0,3.219396E-1,2.2019958E-1,3.740015E-1,3.224764E-1,1.171077E0,9.910431E-1,1.292531E0,1.0723495E2,9.731299E1,0E0,0E0,0E0,0E0,0E0,0E0,0E0,0E0,0E0,0E0,0E0,0E0,0E0,0E0,0E0,0E0,0E0,0E0,0E0,0E0],"parents":[2147483647,0,0,1,1,2,2,3,3,4,4,5,5,6,6,7,7,8,8,9,9,12,12,13,13,14,14,16,16,18,18,19,19,20,20,21,21,22,22,23,23,24,24,25,25,26,26],"right_children":[2,4,6,8,10,12,14,16,18,20,-1,-1,22,24,26,-1,28,-1,30,32,34,36,38,40,42,44,46,-1,-1,-1,-1,-1,-1,-1,-1,-1,-1,-1,-1,-1,-1,-1,-1,-1,-1,-1,-1],"split_conditions":[3E0,5.8E-1,4E0,1E0,9.9E-1,6E0,7.7E-1,4.5E-1,1E0,7.6E-1,1.4584247E-3,-1.0996078E-2,1E0,6E0,5E0,-9.710642E-3,3E0,-9.090423E-3,4E0,5.9E-1,7.9E-1,9E-1,1E0,1E0,6E0,5E0,1E0,-8.921463E-3,3.146876E-2,-2.8832282E-3,2.020329E-3,-3.0216184E-3,-1.02816885E-2,-2.7152172E-3,-7.421451E-3,-8.987266E-3,-3.180916E-3,5.85437E-3,-3.8210112E-3,-9.991388E-3,-6.947252E-3,-3.4200402E-3,-9.585149E-3,-9.295902E-3,1.1748627E-2,-3.6672177E-3,2.6239684E-2],"split_indices":[1,0,2,16,0,1,0,0,13,0,0,0,14,1,1,0,2,0,2,0,0,0,16,15,2,2,16,0,0,0,0,0,0,0,0,0,0,0,0,0,0,0,0,0,0,0,0],"split_type":[0,0,0,0,0,0,0,0,0,0,0,0,0,0,0,0,0,0,0,0,0,0,0,0,0,0,0,0,0,0,0,0,0,0,0,0,0,0,0,0,0,0,0,0,0,0,0],"sum_hessian":[1.2263352E3,2.0316928E2,1.0231659E3,1.5623167E2,4.6937614E1,6.188414E2,4.0432452E2,1.4509357E2,1.1138106E1,4.4823837E1,2.113779E0,6.024383E2,1.6403078E1,1.4460861E2,2.597159E2,4.928147E0,1.4016542E2,7.321038E0,3.8170688E0,2.3367102E1,2.1456734E1,1.3347642E1,3.0554373E0,1.2543882E2,1.916979E1,9.902791E1,1.60688E2,2.7652817E0,1.3740013E2,2.5405366E0,1.276532E0,1.4688587E0,2.1898243E1,3.5758045E0,1.788093E1,1.0683039E1,2.6646032E0,1.3362411E0,1.7191961E0,1.0113676E2,2.4302057E1,1.4604364E1,4.5654263E0,3.937245E1,5.9655457E1,1.1482772E1,1.4920523E2],"tree_param":{"num_deleted":"0","num_feature":"17","num_nodes":"47","size_leaf_vector":"1"}},{"base_weights":[-2.2880214E-3,1.8252889E0,-3.7057075E-1,2.60483E0,-8.121893E-1,-1.0864286E0,7.13548E-1,2.8546002E0,-6.662983E-1,-8.5980684E-1,1.447573E-3,-1.0972975E-2,-6.482441E-1,-8.916677E-1,1.5948952E0,-9.685779E-3,2.9922364E0,-9.062054E-3,-1.15532316E-1,-9.9409205E-1,-6.759731E-1,-8.099676E-1,8.073071E-2,-9.430772E-1,-5.2614045E-1,-9.3394345E-1,1.9779631E0,3.0728107E-2,-9.629725E-3,-2.8666025E-3,2.0074956E-3,-3.0073482E-3,-1.0255645E-2,-7.3935934E-3,-2.7072811E-3,-8.957476E-3,-3.1628096E-3,5.808423E-3,-3.8031873E-3,-9.963001E-3,-6.9129732E-3,-3.3955085E-3,-9.560189E-3,-9.838586E-3,2.7137394E-3,-7.509728E-3,2.3065219E-2],"categories":[],"categories_nodes":[],"categories_segments":[],"categories_sizes":[],"default_left":[0,0,0,0,0,0,0,0,0,0,0,0,0,0,0,0,0,0,0,0,0,0,0,0,0,0,0,0,0,0,0,0,0,0,0,0,0,0,0,0,0,0,0,0,0,0,0],"id":18,"left_children":[1,3,5,7,9,11,13,15,17,19,-1,-1,21,23,25,-1,27,-1,29,31,33,35,37,39,41,43,45,-1,-1,-1,-1,-1,-1,-1,-1,-1,-1,-1,-1,-1,-1,-1,-1,-1,-1,-1,-1],"loss_changes":[8.2526056E2,4.2491974E2,7.9274133E2,1.3178162E2,2.296955E0,2.2178345E0,5.7644977E2,8.07124E1,1.4924784E0,4.527321E-1,0E0,0E0,2.1084366E0,2.223053E0,2.5637335E2,0E0,4.8526367E1,0E0,3.180907E-1,2.19738E-1,3.741188E-1,3.2116795E-1,1.1561036E0,9.943695E-1,1.2879834E0,2.3873997E0,2.0661017E2,0E0,0E0,0E0,0E0,0E0,0E0,0E0,0E0,0E0,0E0,0E0,0E0,0E0,0E0,0E0,0E0,0E0,0E0,0E0,0E0],"parents":[2147483647,0,0,1,1,2,2,3,3,4,4,5,5,6,6,7,7,8,8,9,9,12,12,13,13,14,14,16,16,18,18,19,19,20,20,21,21,22,22,23,23,24,24,25,25,26,26],"right_children":[2,4,6,8,10,12,14,16,18,20,-1,-1,22,24,26,-1,28,-1,30,32,34,36,38,40,42,44,46,-1,-1,-1,-1,-1,-1,-1,-1,-1,-1,-1,-1,-1,-1,-1,-1,-1,-1,-1,-1],"split_conditions":[3E0,5.8E-1,4E0,1E0,9.9E-1,6E0,7.7E-1,4.5E-1,1E0,7.6E-1,1.447573E-3,-1.0972975E-2,1E0,6E0,4E0,-9.685779E-3,4E0,-9.062054E-3,4E0,5.9E-1,1E0,9E-1,1E0,1E0,6E0,1E0,1E0,3.0728107E-2,-9.629725E-3,-2.8666025E-3,2.0074956E-3,-3.0073482E-3,-1.0255645E-2,-7.3935934E-3,-2.7072811E-3,-8.957476E-3,-3.1628096E-3,5.808423E-3,-3.8031873E-3,-9.963001E-3,-6.9129732E-3,-3.3955085E-3,-9.560189E-3,-9.838586E-3,2.7137394E-3,-7.509728E-3,2.3065219E-2],"split_indices":[1,0,2,16,0,1,0,0,13,0,0,0,14,1,1,0,2,0,2,0,14,0,16,15,2,0,16,0,0,0,0,0,0,0,0,0,0,0,0,0,0,0,0,0,0,0,0],"split_type":[0,0,0,0,0,0,0,0,0,0,0,0,0,0,0,0,0,0,0,0,0,0,0,0,0,0,0,0,0,0,0,0,0,0,0,0,0,0,0,0,0,0,0,0,0,0,0],"sum_hessian":[1.224118E3,2.0464174E2,1.0194763E3,1.5796538E2,4.6676353E1,6.1402527E2,4.0545108E2,1.4687772E2,1.1087657E1,4.456054E1,2.1158154E0,5.976955E2,1.6329779E1,1.4370554E2,2.6174554E2,4.894126E0,1.419836E2,7.2738853E0,3.8137717E0,2.3203491E1,2.1357048E1,1.3273861E1,3.0559192E0,1.2460102E2,1.9104517E1,3.4244038E1,2.2750151E2,1.3936754E2,2.6160607E0,2.535543E0,1.2782289E0,1.4658306E0,2.173766E1,1.7755373E1,3.6016748E0,1.0615047E1,2.6588132E0,1.3412288E0,1.7146903E0,1.0041714E2,2.4183884E1,1.4570179E1,4.534339E0,3.305873E1,1.1853068E0,2.4309177E1,2.0319232E2],"tree_param":{"num_deleted":"0","num_feature":"17","num_nodes":"47","size_leaf_vector":"1"}},{"base_weights":[-2.3928692E-3,1.7944257E0,-3.6828297E-1,2.5516977E0,-8.089522E-1,-1.0840766E0,7.043152E-1,2.7933211E0,-6.632245E-1,-8.5666174E-1,1.4368057E-3,-1.0950059E-2,-6.450754E-1,-8.884937E-1,1.5667633E0,-9.661051E-3,2.9262319E0,-9.0337945E-3,-1.14635184E-1,-9.9139196E-1,-6.726535E-1,-8.068822E-1,8.040272E-2,-9.4004095E-1,-5.232201E-1,-9.305634E-1,1.9390625E0,-8.989489E-3,3.00814E-2,-2.8500627E-3,1.9947484E-3,-2.9931446E-3,-1.0229743E-2,-2.6564412E-3,-7.3576667E-3,-8.927791E-3,-3.1447944E-3,5.7628932E-3,-3.7854426E-3,-9.9347355E-3,-6.878792E-3,-3.3711114E-3,-9.535361E-3,-9.806488E-3,2.6962853E-3,-7.474231E-3,2.257233E-2],"categories":[],"categories_nodes":[],"categories_segments":[],"categories_sizes":[],"default_left":[0,0,0,0,0,0,0,0,0,0,0,0,0,0,0,0,0,0,0,0,0,0,0,0,0,0,0,0,0,0,0,0,0,0,0,0,0,0,0,0,0,0,0,0,0,0,0],"id":19,"left_children":[1,3,5,7,9,11,13,15,17,19,-1,-1,21,23,25,-1,27,-1,29,31,33,35,37,39,41,43,45,-1,-1,-1,-1,-1,-1,-1,-1,-1,-1,-1,-1,-1,-1,-1,-1,-1,-1,-1,-1],"loss_changes":[8.046308E2,4.1027454E2,7.814391E2,1.2663977E2,2.2781754E0,2.2215576E0,5.612964E2,7.757971E1,1.4823422E0,4.5616913E-1,0E0,0E0,2.090623E0,2.2158966E0,2.4798035E2,0E0,4.8054688E1,0E0,3.142867E-1,2.1928215E-1,3.7631035E-1,3.1986523E-1,1.1413281E0,9.9770355E-1,1.2834463E0,2.3699646E0,1.9892157E2,0E0,0E0,0E0,0E0,0E0,0E0,0E0,0E0,0E0,0E0,0E0,0E0,0E0,0E0,0E0,0E0,0E0,0E0,0E0,0E0],"parents":[2147483647,0,0,1,1,2,2,3,3,4,4,5,5,6,6,7,7,8,8,9,9,12,12,13,13,14,14,16,16,18,18,19,19,20,20,21,21,22,22,23,23,24,24,25,25,26,26],"right_children":[2,4,6,8,10,12,14,16,18,20,-1,-1,22,24,26,-1,28,-1,30,32,34,36,38,40,42,44,46,-1,-1,-1,-1,-1,-1,-1,-1,-1,-1,-1,-1,-1,-1,-1,-1,-1,-1,-1,-1],"split_conditions":[3E0,5.8E-1,4E0,1E0,9.9E-1,6E0,7.7E-1,4.5E-1,1E0,7.6E-1,1.4368057E-3,-1.0950059E-2,1E0,6E0,4E0,-9.661051E-3,3E0,-9.0337945E-3,4E0,5.9E-1,7.9E-1,9E-1,1E0,1E0,6E0,1E0,1E0,-8.989489E-3,3.00814E-2,-2.8500627E-3,1.9947484E-3,-2.9931446E-3,-1.0229743E-2,-2.6564412E-3,-7.3576667E-3,-8.927791E-3,-3.1447944E-3,5.7628932E-3,-3.7854426E-3,-9.9347355E-3,-6.878792E-3,-3.3711114E-3,-9.535361E-3,-9.806488E-3,2.6962853E-3,-7.474231E-3,2.257233E-2],"split_indices":[1,0,2,16,0,1,0,0,13,0,0,0,14,1,1,0,2,0,2,0,0,0,16,15,2,0,16,0,0,0,0,0,0,0,0,0,0,0,0,0,0,0,0,0,0,0,0],"split_type":[0,0,0,0,0,0,0,0,0,0,0,0,0,0,0,0,0,0,0,0,0,0,0,0,0,0,0,0,0,0,0,0,0,0,0,0,0,0,0,0,0,0,0,0,0,0,0],"sum_hessian":[1.221883E3,2.0605937E2,1.01582367E3,1.5964236E2,4.6417007E1,6.0923956E2,4.0658408E2,1.4860483E2,1.1037533E1,4.4299168E1,2.117838E0,5.929826E2,1.6256956E1,1.4280852E2,2.6377557E2,4.860316E0,1.437445E2,7.2270355E0,3.8104978E0,2.3040922E1,2.1258245E1,1.3200564E1,3.056393E0,1.2376881E2,1.9039715E1,3.4027145E1,2.2974841E2,2.8043418E0,1.4094017E2,2.5305822E0,1.2799157E0,1.4628197E0,2.1578104E1,3.5531874E0,1.770506E1,1.05475025E1,2.6530614E0,1.3461822E0,1.7102108E0,9.970223E1,2.4066578E1,1.4536271E1,4.503443E0,3.2839634E1,1.1875125E0,2.4185755E1,2.0556267E2],"tree_param":{"num_deleted":"0","num_feature":"17","num_nodes":"47","size_leaf_vector":"1"}},{"base_weights":[-2.4946372E-3,1.7649012E0,-3.6602277E-1,2.5012786E0,-8.057275E-1,-1.0817423E0,6.953025E-1,2.7353191E0,-6.601631E-1,-8.5352886E-1,1.426122E-3,-1.0927323E-2,-6.4191985E-1,-8.853291E-1,1.5395749E0,-9.636457E-3,2.8638384E0,-9.005646E-3,-1.1374535E-1,-9.8870474E-1,-6.6934776E-1,-8.0380666E-1,8.007143E-2,-9.370147E-1,-5.203124E-1,-9.2719805E-1,1.9016223E0,-8.961389E-3,2.9430687E-2,-2.8336104E-3,1.9820852E-3,-1.0552327E-2,-5.092294E-3,-7.329882E-3,-2.6488495E-3,-8.898209E-3,-3.12687E-3,5.7177776E-3,-3.7677777E-3,-9.906588E-3,-6.8447064E-3,-3.3468504E-3,-9.510663E-3,-9.7745415E-3,2.678948E-3,-7.438844E-3,2.209964E-2],"categories":[],"categories_nodes":[],"categories_segments":[],"categories_sizes":[],"default_left":[0,0,0,0,0,0,0,0,0,0,0,0,0,0,0,0,0,0,0,0,0,0,0,0,0,0,0,0,0,0,0,0,0,0,0,0,0,0,0,0,0,0,0,0,0,0,0],"id":20,"left_children":[1,3,5,7,9,11,13,15,17,19,-1,-1,21,23,25,-1,27,-1,29,31,33,35,37,39,41,43,45,-1,-1,-1,-1,-1,-1,-1,-1,-1,-1,-1,-1,-1,-1,-1,-1,-1,-1,-1,-1],"loss_changes":[7.8483887E2,3.9649E2,7.7034924E2,1.2184204E2,2.2595463E0,2.2252808E0,5.4671545E2,7.465967E1,1.47227E0,4.5955276E-1,0E0,0E0,2.0729146E0,2.2087555E0,2.3998938E2,0E0,4.6255615E1,0E0,3.105269E-1,2.2436142E-1,3.7624454E-1,3.1856728E-1,1.1267483E0,1.00103E0,1.2789183E0,2.352663E0,1.9165173E2,0E0,0E0,0E0,0E0,0E0,0E0,0E0,0E0,0E0,0E0,0E0,0E0,0E0,0E0,0E0,0E0,0E0,0E0,0E0,0E0],"parents":[2147483647,0,0,1,1,2,2,3,3,4,4,5,5,6,6,7,7,8,8,9,9,12,12,13,13,14,14,16,16,18,18,19,19,20,20,21,21,22,22,23,23,24,24,25,25,26,26],"right_children":[2,4,6,8,10,12,14,16,18,20,-1,-1,22,24,26,-1,28,-1,30,32,34,36,38,40,42,44,46,-1,-1,-1,-1,-1,-1,-1,-1,-1,-1,-1,-1,-1,-1,-1,-1,-1,-1,-1,-1],"split_conditions":[3E0,5.8E-1,4E0,1E0,9.9E-1,6E0,7.7E-1,4.5E-1,1E0,7.6E-1,1.426122E-3,-1.0927323E-2,1E0,6E0,4E0,-9.636457E-3,3E0,-9.005646E-3,4E0,1E0,1E0,9E-1,1E0,1E0,6E0,1E0,1E0,-8.961389E-3,2.9430687E-2,-2.8336104E-3,1.9820852E-3,-1.0552327E-2,-5.092294E-3,-7.329882E-3,-2.6488495E-3,-8.898209E-3,-3.12687E-3,5.7177776E-3,-3.7677777E-3,-9.906588E-3,-6.8447064E-3,-3.3468504E-3,-9.510663E-3,-9.7745415E-3,2.678948E-3,-7.438844E-3,2.209964E-2],"split_indices":[1,0,2,16,0,1,0,0,13,0,0,0,14,1,1,0,2,0,2,15,14,0,16,15,2,0,16,0,0,0,0,0,0,0,0,0,0,0,0,0,0,0,0,0,0,0,0],"split_type":[0,0,0,0,0,0,0,0,0,0,0,0,0,0,0,0,0,0,0,0,0,0,0,0,0,0,0,0,0,0,0,0,0,0,0,0,0,0,0,0,0,0,0,0,0,0,0],"sum_hessian":[1.2195374E3,2.0739114E2,1.0121462E3,1.6123192E2,4.6159218E1,6.0448444E2,4.0766174E2,1.5024419E2,1.0987735E1,4.403937E1,2.1198456E0,5.882998E2,1.6184612E1,1.4191757E2,2.6574417E2,4.8267136E0,1.4541747E2,7.180488E0,3.8072464E0,2.2879402E1,2.115997E1,1.3127753E1,3.056859E0,1.2294219E2,1.897538E1,3.381156E1,2.319326E2,2.7882206E0,1.4262926E2,2.525654E0,1.2815925E0,1.9037155E1,3.842247E0,1.7581367E1,3.578602E0,1.0480405E1,2.6473484E0,1.3511016E0,1.7057573E0,9.8992065E1,2.3950127E1,1.4502644E1,4.4727373E0,3.2621857E1,1.1897058E0,2.4063173E1,2.0786943E2],"tree_param":{"num_deleted":"0","num_feature":"17","num_nodes":"47","size_leaf_vector":"1"}},{"base_weights":[-2.5960968E-3,1.7364693E0,-3.6378935E-1,2.453142E0,-8.025252E-1,-1.0794249E0,6.865013E-1,2.6800716E0,-6.571138E-1,-8.5041624E-1,1.4155237E-3,-1.0904764E-2,-6.3877755E-1,-8.821739E-1,1.5132806E0,-9.611992E-3,2.8044803E0,-8.977605E-3,-1.12862654E-1,-9.860438E-1,-6.6604745E-1,-8.0074084E-1,7.973684E-2,-9.339983E-1,-5.174175E-1,3.0582678E-1,2.232793E0,2.8810853E-2,-9.8182075E-3,-2.8172429E-3,1.969505E-3,-2.9315026E-3,-1.0179861E-2,-2.5982957E-3,-7.294255E-3,-8.868725E-3,-3.1090372E-3,5.6730728E-3,-3.750193E-3,-9.878556E-3,-6.8107154E-3,-3.3227268E-3,-9.486092E-3,-9.307221E-3,1.103032E-2,-3.487E-3,2.420543E-2],"categories":[],"categories_nodes":[],"categories_segments":[],"categories_sizes":[],"default_left":[0,0,0,0,0,0,0,0,0,0,0,0,0,0,0,0,0,0,0,0,0,0,0,0,0,0,0,0,0,0,0,0,0,0,0,0,0,0,0,0,0,0,0,0,0,0,0],"id":21,"left_children":[1,3,5,7,9,11,13,15,17,19,-1,-1,21,23,25,-1,27,-1,29,31,33,35,37,39,41,43,45,-1,-1,-1,-1,-1,-1,-1,-1,-1,-1,-1,-1,-1,-1,-1,-1,-1,-1,-1,-1],"loss_changes":[7.65769E2,3.834666E2,7.594657E2,1.1733862E2,2.2411098E0,2.229004E0,5.3267584E2,7.19209E1,1.4622569E0,4.6308517E-1,0E0,0E0,2.0553083E0,2.201622E0,2.327168E2,0E0,4.5761963E1,0E0,3.0681062E-1,2.2658539E-1,3.7848186E-1,3.172741E-1,1.1123624E0,1.0043488E0,1.2743974E0,1.0105534E2,8.235742E1,0E0,0E0,0E0,0E0,0E0,0E0,0E0,0E0,0E0,0E0,0E0,0E0,0E0,0E0,0E0,0E0,0E0,0E0,0E0,0E0],"parents":[2147483647,0,0,1,1,2,2,3,3,4,4,5,5,6,6,7,7,8,8,9,9,12,12,13,13,14,14,16,16,18,18,19,19,20,20,21,21,22,22,23,23,24,24,25,25,26,26],"right_children":[2,4,6,8,10,12,14,16,18,20,-1,-1,22,24,26,-1,28,-1,30,32,34,36,38,40,42,44,46,-1,-1,-1,-1,-1,-1,-1,-1,-1,-1,-1,-1,-1,-1,-1,-1,-1,-1,-1,-1],"split_conditions":[3E0,5.8E-1,4E0,1E0,9.9E-1,6E0,7.7E-1,4.5E-1,1E0,7.6E-1,1.4155237E-3,-1.0904764E-2,1E0,6E0,5E0,-9.611992E-3,4E0,-8.977605E-3,4E0,5.9E-1,7.9E-1,9E-1,1E0,1E0,6E0,5E0,1E0,2.8810853E-2,-9.8182075E-3,-2.8172429E-3,1.969505E-3,-2.9315026E-3,-1.0179861E-2,-2.5982957E-3,-7.294255E-3,-8.868725E-3,-3.1090372E-3,5.6730728E-3,-3.750193E-3,-9.878556E-3,-6.8107154E-3,-3.3227268E-3,-9.486092E-3,-9.307221E-3,1.103032E-2,-3.487E-3,2.420543E-2],"split_indices":[1,0,2,16,0,1,0,0,13,0,0,0,14,1,1,0,2,0,2,0,0,0,16,15,2,2,16,0,0,0,0,0,0,0,0,0,0,0,0,0,0,0,0,0,0,0,0],"split_type":[0,0,0,0,0,0,0,0,0,0,0,0,0,0,0,0,0,0,0,0,0,0,0,0,0,0,0,0,0,0,0,0,0,0,0,0,0,0,0,0,0,0,0,0,0,0,0],"sum_hessian":[1.2171024E3,2.0865712E2,1.0084453E3,1.6275163E2,4.5905487E1,5.997598E2,4.086855E2,1.5181337E2,1.093826E1,4.3783646E1,2.1218393E0,5.836471E2,1.6112741E1,1.4103267E2,2.6765283E2,4.7933216E0,1.4702005E2,7.134242E0,3.8040183E0,2.2721079E1,2.1062567E1,1.3055425E1,3.0573163E0,1.2212115E2,1.8911514E1,1.0047134E2,1.671815E2,1.4433884E2,2.6812124E0,2.5207589E0,1.2832593E0,1.4497862E0,2.1271294E1,3.5309331E0,1.7531633E1,1.0413752E1,2.6416726E0,1.3559866E0,1.7013297E0,9.828662E1,2.3834532E1,1.4469292E1,4.4422226E0,3.931781E1,6.1153526E1,1.1276495E1,1.5590501E2],"tree_param":{"num_deleted":"0","num_feature":"17","num_nodes":"47","size_leaf_vector":"1"}},{"base_weights":[-2.680502E-3,1.7089808E0,-3.6158487E-1,2.406871E0,-7.9931885E-1,-1.0771244E0,6.780325E-1,2.6270788E0,-6.540764E-1,-8.473008E-1,1.4050079E-3,-1.08823795E-2,-6.356483E-1,-8.7902755E-1,1.4881917E0,-9.587656E-3,2.747609E0,-8.949667E-3,-1.1198696E-1,-9.833801E-1,-6.6276073E-1,-7.9768455E-1,7.939918E-2,-9.309913E-1,-5.145349E-1,-9.241554E-1,1.8340651E0,-9.023544E-3,2.8239936E-2,-2.8009606E-3,1.9570088E-3,-1.0506419E-2,-5.016756E-3,-7.2665405E-3,-2.5910384E-3,-8.839339E-3,-3.0912939E-3,5.6287735E-3,-3.732687E-3,-9.850635E-3,-6.7768195E-3,-3.298736E-3,-9.461647E-3,-9.746928E-3,2.7044513E-3,-7.4028615E-3,2.1267887E-2],"categories":[],"categories_nodes":[],"categories_segments":[],"categories_sizes":[],"default_left":[0,0,0,0,0,0,0,0,0,0,0,0,0,0,0,0,0,0,0,0,0,0,0,0,0,0,0,0,0,0,0,0,0,0,0,0,0,0,0,0,0,0,0,0,0,0,0],"id":22,"left_children":[1,3,5,7,9,11,13,15,17,19,-1,-1,21,23,25,-1,27,-1,29,31,33,35,37,39,41,43,45,-1,-1,-1,-1,-1,-1,-1,-1,-1,-1,-1,-1,-1,-1,-1,-1,-1,-1,-1,-1],"loss_changes":[7.4735223E2,3.7105908E2,7.488345E2,1.13084595E2,2.2227535E0,2.2329102E0,5.1927014E2,6.9336914E1,1.4523053E0,4.6642303E-1,0E0,0E0,2.037808E0,2.194481E0,2.2734875E2,0E0,4.4249023E1,0E0,3.0313766E-1,2.3632622E-1,3.7823868E-1,3.1598377E-1,1.098167E0,1.0076675E0,1.2698855E0,2.3511791E0,1.8007404E2,0E0,0E0,0E0,0E0,0E0,0E0,0E0,0E0,0E0,0E0,0E0,0E0,0E0,0E0,0E0,0E0,0E0,0E0,0E0,0E0],"parents":[2147483647,0,0,1,1,2,2,3,3,4,4,5,5,6,6,7,7,8,8,9,9,12,12,13,13,14,14,16,16,18,18,19,19,20,20,21,21,22,22,23,23,24,24,25,25,26,26],"right_children":[2,4,6,8,10,12,14,16,18,20,-1,-1,22,24,26,-1,28,-1,30,32,34,36,38,40,42,44,46,-1,-1,-1,-1,-1,-1,-1,-1,-1,-1,-1,-1,-1,-1,-1,-1,-1,-1,-1,-1],"split_conditions":[3E0,5.8E-1,4E0,1E0,9.9E-1,6E0,7.7E-1,4.5E-1,1E0,7.6E-1,1.4050079E-3,-1.08823795E-2,1E0,6E0,4E0,-9.587656E-3,3E0,-8.949667E-3,4E0,1E0,1E0,9E-1,1E0,1E0,6E0,1E0,1E0,-9.023544E-3,2.8239936E-2,-2.8009606E-3,1.9570088E-3,-1.0506419E-2,-5.016756E-3,-7.2665405E-3,-2.5910384E-3,-8.839339E-3,-3.0912939E-3,5.6287735E-3,-3.732687E-3,-9.850635E-3,-6.7768195E-3,-3.298736E-3,-9.461647E-3,-9.746928E-3,2.7044513E-3,-7.4028615E-3,2.1267887E-2],"split_indices":[1,0,2,16,0,1,0,0,13,0,0,0,14,1,1,0,2,0,2,15,14,0,16,15,2,0,16,0,0,0,0,0,0,0,0,0,0,0,0,0,0,0,0,0,0,0,0],"split_type":[0,0,0,0,0,0,0,0,0,0,0,0,0,0,0,0,0,0,0,0,0,0,0,0,0,0,0,0,0,0,0,0,0,0,0,0,0,0,0,0,0,0,0,0,0,0,0],"sum_hessian":[1.2145408E3,2.0987207E2,1.0046687E3,1.6422093E2,4.5651142E1,5.950657E2,4.0960306E2,1.5333182E2,1.0889111E1,4.352732E1,2.1238184E0,5.790243E2,1.6041346E1,1.4015381E2,2.6944925E2,4.760139E0,1.4857167E2,7.0882983E0,3.8008122E0,2.2561628E1,2.0965694E1,1.2983579E1,3.0577657E0,1.21305695E2,1.8848112E1,3.3578545E1,2.358707E2,2.8238518E0,1.4574782E2,2.515896E0,1.2849164E0,1.8760893E1,3.8007357E0,1.7409788E1,3.555905E0,1.0347545E1,2.6360347E0,1.3608377E0,1.696928E0,9.758591E1,2.3719788E1,1.4436214E1,4.4118986E0,3.2392277E1,1.1862665E0,2.3925922E1,2.1194478E2],"tree_param":{"num_deleted":"0","num_feature":"17","num_nodes":"47","size_leaf_vector":"1"}},{"base_weights":[-2.777929E-3,1.682604E0,-3.5940266E-1,2.362844E0,-7.961352E-1,-1.07484E0,6.696253E-1,2.5767696E0,-6.51051E-1,-8.442057E-1,1.3945734E-3,-1.0860164E-2,-6.3253194E-1,-8.7588996E-1,1.4635341E0,-9.563444E-3,2.6936786E0,-8.921834E-3,-1.1111836E-1,-9.807427E-1,-6.594795E-1,-7.946376E-1,7.905851E-2,-9.279935E-1,-5.11665E-1,-9.208135E-1,1.8004276E0,2.7675008E-2,-9.88899E-3,-2.7847632E-3,1.9445942E-3,-1.0482624E-2,-4.9914564E-3,-2.5407788E-3,-7.2312057E-3,-8.810049E-3,-3.0736404E-3,5.5848747E-3,-3.7152593E-3,-9.822822E-3,-6.7430167E-3,-3.2748815E-3,-9.4373245E-3,-9.71523E-3,2.6870628E-3,-7.3676794E-3,2.0846805E-2],"categories":[],"categories_nodes":[],"categories_segments":[],"categories_sizes":[],"default_left":[0,0,0,0,0,0,0,0,0,0,0,0,0,0,0,0,0,0,0,0,0,0,0,0,0,0,0,0,0,0,0,0,0,0,0,0,0,0,0,0,0,0,0,0,0,0,0],"id":23,"left_children":[1,3,5,7,9,11,13,15,17,19,-1,-1,21,23,25,-1,27,-1,29,31,33,35,37,39,41,43,45,-1,-1,-1,-1,-1,-1,-1,-1,-1,-1,-1,-1,-1,-1,-1,-1,-1,-1,-1,-1],"loss_changes":[7.296381E2,3.5935602E2,7.383433E2,1.0909747E2,2.2045803E0,2.2366333E0,5.062221E2,6.691626E1,1.442411E0,4.6992683E-1,0E0,0E0,2.0204096E0,2.187355E0,2.2034344E2,0E0,4.379773E1,0E0,2.9950726E-1,2.3784256E-1,3.805132E-1,3.1469917E-1,1.0841596E0,1.0109482E0,1.2653794E0,2.3339977E0,1.738161E2,0E0,0E0,0E0,0E0,0E0,0E0,0E0,0E0,0E0,0E0,0E0,0E0,0E0,0E0,0E0,0E0,0E0,0E0,0E0,0E0],"parents":[2147483647,0,0,1,1,2,2,3,3,4,4,5,5,6,6,7,7,8,8,9,9,12,12,13,13,14,14,16,16,18,18,19,19,20,20,21,21,22,22,23,23,24,24,25,25,26,26],"right_children":[2,4,6,8,10,12,14,16,18,20,-1,-1,22,24,26,-1,28,-1,30,32,34,36,38,40,42,44,46,-1,-1,-1,-1,-1,-1,-1,-1,-1,-1,-1,-1,-1,-1,-1,-1,-1,-1,-1,-1],"split_conditions":[3E0,5.8E-1,4E0,1E0,9.9E-1,6E0,7.7E-1,4.5E-1,1E0,7.6E-1,1.3945734E-3,-1.0860164E-2,1E0,6E0,4E0,-9.563444E-3,4E0,-8.921834E-3,4E0,1E0,7.9E-1,9E-1,1E0,1E0,6E0,1E0,1E0,2.7675008E-2,-9.88899E-3,-2.7847632E-3,1.9445942E-3,-1.0482624E-2,-4.9914564E-3,-2.5407788E-3,-7.2312057E-3,-8.810049E-3,-3.0736404E-3,5.5848747E-3,-3.7152593E-3,-9.822822E-3,-6.7430167E-3,-3.2748815E-3,-9.4373245E-3,-9.71523E-3,2.6870628E-3,-7.3676794E-3,2.0846805E-2],"split_indices":[1,0,2,16,0,1,0,0,13,0,0,0,14,1,1,0,2,0,2,15,0,0,16,15,2,0,16,0,0,0,0,0,0,0,0,0,0,0,0,0,0,0,0,0,0,0,0],"split_type":[0,0,0,0,0,0,0,0,0,0,0,0,0,0,0,0,0,0,0,0,0,0,0,0,0,0,0,0,0,0,0,0,0,0,0,0,0,0,0,0,0,0,0,0,0,0,0],"sum_hessian":[1.2119352E3,2.1100816E2,1.000927E3,1.6560733E2,4.540084E1,5.904022E2,4.1052484E2,1.5476704E2,1.0840286E1,4.327506E1,2.125784E0,5.7443176E2,1.5970423E1,1.3928099E2,2.7124384E2,4.727165E0,1.5003987E2,7.0426574E0,3.7976286E0,2.2405367E1,2.086969E1,1.2912216E1,3.058207E0,1.2049581E2,1.8785173E1,3.3365788E1,2.3787805E2,1.4733484E2,2.7050328E0,2.511065E0,1.2865636E0,1.861843E1,3.786938E0,3.5090387E0,1.7360651E1,1.0281781E1,2.6304343E0,1.3656551E0,1.692552E0,9.688992E1,2.3605894E1,1.4403409E1,4.3817654E0,3.2177326E1,1.1884643E0,2.3805155E1,2.1407289E2],"tree_param":{"num_deleted":"0","num_feature":"17","num_nodes":"47","size_leaf_vector":"1"}},{"base_weights":[-2.8740908E-3,1.6570333E0,-3.5724527E-1,2.3204308E0,-7.929632E-1,-1.0725715E0,6.6140646E-1,2.528398E0,-6.480373E-1,-8.411221E-1,1.3842206E-3,-1.0838114E-2,-6.294284E-1,-8.7276083E-1,1.4396429E0,-9.539355E-3,2.6418793E0,-8.8941E-3,-1.1025668E-1,-9.7811717E-1,-6.5621173E-1,-7.9159987E-1,7.8714974E-2,-9.250046E-1,-5.088073E-1,-9.174852E-1,1.7679538E0,-9.082317E-3,2.715758E-2,-2.7686507E-3,1.9322629E-3,-2.8231924E-3,-1.0106789E-2,-7.203563E-3,-2.5338468E-3,-8.780852E-3,-3.056077E-3,5.5413726E-3,-3.6979094E-3,-9.795114E-3,-6.7093065E-3,-3.251159E-3,-9.413121E-3,-9.683672E-3,2.66979E-3,-7.332603E-3,2.0441543E-2],"categories":[],"categories_nodes":[],"categories_segments":[],"categories_sizes":[],"default_left":[0,0,0,0,0,0,0,0,0,0,0,0,0,0,0,0,0,0,0,0,0,0,0,0,0,0,0,0,0,0,0,0,0,0,0,0,0,0,0,0,0,0,0,0,0,0,0],"id":24,"left_children":[1,3,5,7,9,11,13,15,17,19,-1,-1,21,23,25,-1,27,-1,29,31,33,35,37,39,41,43,45,-1,-1,-1,-1,-1,-1,-1,-1,-1,-1,-1,-1,-1,-1,-1,-1,-1,-1,-1,-1],"loss_changes":[7.12498E2,3.481938E2,7.280414E2,1.0531958E2,2.1865559E0,2.2404785E0,4.936355E2,6.462463E1,1.4325757E0,4.7336388E-1,0E0,0E0,2.0031152E0,2.180214E0,2.1364923E2,0E0,4.245349E1,0E0,2.9591936E-1,2.4143028E-1,3.800993E-1,3.134184E-1,1.0703377E0,1.0142441E0,1.260881E0,2.3169498E0,1.6787201E2,0E0,0E0,0E0,0E0,0E0,0E0,0E0,0E0,0E0,0E0,0E0,0E0,0E0,0E0,0E0,0E0,0E0,0E0,0E0,0E0],"parents":[2147483647,0,0,1,1,2,2,3,3,4,4,5,5,6,6,7,7,8,8,9,9,12,12,13,13,14,14,16,16,18,18,19,19,20,20,21,21,22,22,23,23,24,24,25,25,26,26],"right_children":[2,4,6,8,10,12,14,16,18,20,-1,-1,22,24,26,-1,28,-1,30,32,34,36,38,40,42,44,46,-1,-1,-1,-1,-1,-1,-1,-1,-1,-1,-1,-1,-1,-1,-1,-1,-1,-1,-1,-1],"split_conditions":[3E0,5.8E-1,4E0,1E0,9.9E-1,6E0,7.7E-1,4.5E-1,1E0,7.6E-1,1.3842206E-3,-1.0838114E-2,1E0,6E0,4E0,-9.539355E-3,3E0,-8.8941E-3,4E0,5.9E-1,1E0,9E-1,1E0,1E0,6E0,1E0,1E0,-9.082317E-3,2.715758E-2,-2.7686507E-3,1.9322629E-3,-2.8231924E-3,-1.0106789E-2,-7.203563E-3,-2.5338468E-3,-8.780852E-3,-3.056077E-3,5.5413726E-3,-3.6979094E-3,-9.795114E-3,-6.7093065E-3,-3.251159E-3,-9.413121E-3,-9.683672E-3,2.66979E-3,-7.332603E-3,2.0441543E-2],"split_indices":[1,0,2,16,0,1,0,0,13,0,0,0,14,1,1,0,2,0,2,0,14,0,16,15,2,0,16,0,0,0,0,0,0,0,0,0,0,0,0,0,0,0,0,0,0,0,0],"split_type":[0,0,0,0,0,0,0,0,0,0,0,0,0,0,0,0,0,0,0,0,0,0,0,0,0,0,0,0,0,0,0,0,0,0,0,0,0,0,0,0,0,0,0,0,0,0,0],"sum_hessian":[1.2092649E3,2.1209872E2,9.9716614E2,1.6694667E2,4.5152065E1,5.857693E2,4.1139682E2,1.5615488E2,1.0791784E1,4.302433E1,2.1277351E0,5.698693E2,1.5899975E1,1.384142E2,2.7298264E2,4.694401E0,1.5146048E2,6.9973173E0,3.7944674E0,2.2250126E1,2.0774204E1,1.2841334E1,3.0586398E0,1.19691505E2,1.8722694E1,3.3154346E1,2.398283E2,2.8574429E0,1.4860304E2,2.5062664E0,1.288201E0,1.4270192E0,2.0823105E1,1.7240625E1,3.5335803E0,1.0216463E1,2.6248713E0,1.3704383E0,1.6882014E0,9.6198654E1,2.3492847E1,1.43708725E1,4.3518224E0,3.1963696E1,1.1906499E0,2.3685223E1,2.1614307E2],"tree_param":{"num_deleted":"0","num_feature":"17","num_nodes":"47","size_leaf_vector":"1"}},{"base_weights":[-2.9656133E-3,1.6325194E0,-3.551121E-1,2.2800024E0,-7.8978044E-1,-1.0703187E0,6.533686E-1,2.482387E0,-6.4503527E-1,-8.3802843E-1,1.3739488E-3,-1.0816227E-2,-6.2633747E-1,-8.6964005E-1,1.4164803E0,-9.515387E-3,2.5926592E0,-8.866465E-3,-1.0940193E-1,-9.7548586E-1,-6.529492E-1,-7.8857124E-1,7.8368634E-2,-9.220245E-1,-5.059621E-1,2.7703437E-1,2.081423E0,2.6640255E-2,-9.95594E-3,-2.7526214E-3,1.9200111E-3,-1.04376E-2,-4.9164537E-3,-2.4838867E-3,-7.168515E-3,-8.751745E-3,-3.0386033E-3,5.498263E-3,-3.680638E-3,-9.767509E-3,-6.675688E-3,-3.2275717E-3,-9.389036E-3,-9.321173E-3,1.0386499E-2,-3.3080913E-3,2.2475168E-2],"categories":[],"categories_nodes":[],"categories_segments":[],"categories_sizes":[],"default_left":[0,0,0,0,0,0,0,0,0,0,0,0,0,0,0,0,0,0,0,0,0,0,0,0,0,0,0,0,0,0,0,0,0,0,0,0,0,0,0,0,0,0,0,0,0,0,0],"id":25,"left_children":[1,3,5,7,9,11,13,15,17,19,-1,-1,21,23,25,-1,27,-1,29,31,33,35,37,39,41,43,45,-1,-1,-1,-1,-1,-1,-1,-1,-1,-1,-1,-1,-1,-1,-1,-1,-1,-1,-1,-1],"loss_changes":[6.960138E2,3.3760974E2,7.1792303E2,1.01768616E2,2.1685848E0,2.2442627E0,4.8148718E2,6.2471497E1,1.4227986E0,4.7667313E-1,0E0,0E0,1.9859242E0,2.1730804E0,2.0828687E2,0E0,4.203772E1,0E0,2.9237282E-1,2.4971199E-1,3.8241005E-1,3.121395E-1,1.0566987E0,1.0175171E0,1.2563887E0,9.558295E1,7.042828E1,0E0,0E0,0E0,0E0,0E0,0E0,0E0,0E0,0E0,0E0,0E0,0E0,0E0,0E0,0E0,0E0,0E0,0E0,0E0,0E0],"parents":[2147483647,0,0,1,1,2,2,3,3,4,4,5,5,6,6,7,7,8,8,9,9,12,12,13,13,14,14,16,16,18,18,19,19,20,20,21,21,22,22,23,23,24,24,25,25,26,26],"right_children":[2,4,6,8,10,12,14,16,18,20,-1,-1,22,24,26,-1,28,-1,30,32,34,36,38,40,42,44,46,-1,-1,-1,-1,-1,-1,-1,-1,-1,-1,-1,-1,-1,-1,-1,-1,-1,-1,-1,-1],"split_conditions":[3E0,5.8E-1,4E0,1E0,9.9E-1,6E0,7.7E-1,4.5E-1,1E0,7.6E-1,1.3739488E-3,-1.0816227E-2,1E0,6E0,5E0,-9.515387E-3,4E0,-8.866465E-3,4E0,1E0,7.9E-1,9E-1,1E0,1E0,6E0,5E0,1E0,2.6640255E-2,-9.95594E-3,-2.7526214E-3,1.9200111E-3,-1.04376E-2,-4.9164537E-3,-2.4838867E-3,-7.168515E-3,-8.751745E-3,-3.0386033E-3,5.498263E-3,-3.680638E-3,-9.767509E-3,-6.675688E-3,-3.2275717E-3,-9.389036E-3,-9.321173E-3,1.0386499E-2,-3.3080913E-3,2.2475168E-2],"split_indices":[1,0,2,16,0,1,0,0,13,0,0,0,14,1,1,0,2,0,2,15,0,0,16,15,2,2,16,0,0,0,0,0,0,0,0,0,0,0,0,0,0,0,0,0,0,0,0],"split_type":[0,0,0,0,0,0,0,0,0,0,0,0,0,0,0,0,0,0,0,0,0,0,0,0,0,0,0,0,0,0,0,0,0,0,0,0,0,0,0,0,0,0,0,0,0,0,0],"sum_hessian":[1.206497E3,2.1310957E2,9.933873E2,1.6820654E2,4.4903023E1,5.81167E2,4.1222037E2,1.5746294E2,1.0743606E1,4.277335E1,2.1296728E0,5.65337E2,1.5829997E1,1.3755342E2,2.7466696E2,4.6618457E0,1.528011E2,6.952277E0,3.791328E0,2.2093767E1,2.0679583E1,1.2770932E1,3.0590644E0,1.18892746E2,1.8660673E1,1.017407E2,1.7292625E2,1.5007387E2,2.7272294E0,2.5014992E0,1.2898289E0,1.834753E1,3.7462378E0,3.4874988E0,1.7192083E1,1.01515875E1,2.619345E0,1.3751882E0,1.6838763E0,9.551211E1,2.3380642E1,1.4338604E1,4.3220696E0,3.9231827E1,6.2508873E1,1.1075893E1,1.6185036E2],"tree_param":{"num_deleted":"0","num_feature":"17","num_nodes":"47","size_leaf_vector":"1"}},{"base_weights":[-3.0453457E-3,1.6086901E0,-3.5300392E-1,2.2409763E0,-7.8662586E-1,-1.068081E0,6.456177E-1,2.438051E0,-6.4204484E-1,-8.3496106E-1,1.3637559E-3,-1.0794497E-2,-6.232591E-1,-8.665272E-1,1.3943089E0,-9.491537E-3,2.5452754E0,-8.838927E-3,-1.08553916E-1,-9.7288203E-1,-6.497E-1,-7.855515E-1,7.8019574E-2,-9.190526E-1,-5.031293E-1,-9.14397E-1,1.7091231E0,-9.137982E-3,2.6169376E-2,-2.7366758E-3,1.9078421E-3,-1.041423E-2,-4.8915423E-3,-7.14094E-3,-2.4772736E-3,-8.722729E-3,-3.021217E-3,5.4555414E-3,-3.6634442E-3,-9.7400015E-3,-6.6421614E-3,-3.2041182E-3,-9.365069E-3,-9.655716E-3,2.6958077E-3,-7.2965883E-3,1.972563E-2],"categories":[],"categories_nodes":[],"categories_segments":[],"categories_sizes":[],"default_left":[0,0,0,0,0,0,0,0,0,0,0,0,0,0,0,0,0,0,0,0,0,0,0,0,0,0,0,0,0,0,0,0,0,0,0,0,0,0,0,0,0,0,0,0,0,0,0],"id":26,"left_children":[1,3,5,7,9,11,13,15,17,19,-1,-1,21,23,25,-1,27,-1,29,31,33,35,37,39,41,43,45,-1,-1,-1,-1,-1,-1,-1,-1,-1,-1,-1,-1,-1,-1,-1,-1,-1,-1,-1,-1],"loss_changes":[6.80025E2,3.275072E2,7.080287E2,9.839447E1,2.150816E0,2.248169E0,4.698519E2,6.0427246E1,1.4130788E0,4.800701E-1,0E0,0E0,1.9688358E0,2.165947E0,2.030719E2,0E0,4.0837646E1,0E0,2.888679E-1,2.5118065E-1,3.8183117E-1,3.1086445E-1,1.0432404E0,1.0207596E0,1.2519007E0,2.3155346E0,1.5841437E2,0E0,0E0,0E0,0E0,0E0,0E0,0E0,0E0,0E0,0E0,0E0,0E0,0E0,0E0,0E0,0E0,0E0,0E0,0E0,0E0],"parents":[2147483647,0,0,1,1,2,2,3,3,4,4,5,5,6,6,7,7,8,8,9,9,12,12,13,13,14,14,16,16,18,18,19,19,20,20,21,21,22,22,23,23,24,24,25,25,26,26],"right_children":[2,4,6,8,10,12,14,16,18,20,-1,-1,22,24,26,-1,28,-1,30,32,34,36,38,40,42,44,46,-1,-1,-1,-1,-1,-1,-1,-1,-1,-1,-1,-1,-1,-1,-1,-1,-1,-1,-1,-1],"split_conditions":[3E0,5.8E-1,4E0,1E0,9.9E-1,6E0,7.7E-1,4.5E-1,1E0,7.6E-1,1.3637559E-3,-1.0794497E-2,1E0,6E0,4E0,-9.491537E-3,3E0,-8.838927E-3,4E0,1E0,1E0,9E-1,1E0,1E0,6E0,1E0,1E0,-9.137982E-3,2.6169376E-2,-2.7366758E-3,1.9078421E-3,-1.041423E-2,-4.8915423E-3,-7.14094E-3,-2.4772736E-3,-8.722729E-3,-3.021217E-3,5.4555414E-3,-3.6634442E-3,-9.7400015E-3,-6.6421614E-3,-3.2041182E-3,-9.365069E-3,-9.655716E-3,2.6958077E-3,-7.2965883E-3,1.972563E-2],"split_indices":[1,0,2,16,0,1,0,0,13,0,0,0,14,1,1,0,2,0,2,15,14,0,16,15,2,0,16,0,0,0,0,0,0,0,0,0,0,0,0,0,0,0,0,0,0,0,0],"split_type":[0,0,0,0,0,0,0,0,0,0,0,0,0,0,0,0,0,0,0,0,0,0,0,0,0,0,0,0,0,0,0,0,0,0,0,0,0,0,0,0,0,0,0,0,0,0,0],"sum_hessian":[1.2036244E3,2.1408023E2,9.895441E2,1.6942258E2,4.4657658E1,5.7659534E2,4.129488E2,1.5872682E2,1.0695749E1,4.2526062E1,2.1315963E0,5.6083484E2,1.5760491E1,1.3669867E2,2.7625012E2,4.6294985E0,1.5409732E2,6.907539E0,3.7882104E0,2.1940584E1,2.0585478E1,1.270101E1,3.0594814E0,1.1809955E2,1.8599113E1,3.292061E1,2.4332951E2,2.889153E0,1.5120818E2,2.4967637E0,1.2914468E0,1.820776E1,3.7328243E0,1.7073854E1,3.511623E0,1.0087154E1,2.6138554E0,1.3799047E0,1.6795765E0,9.483027E1,2.3269278E1,1.4306605E1,4.292508E0,3.1733475E1,1.1871349E0,2.3549692E1,2.1977982E2],"tree_param":{"num_deleted":"0","num_feature":"17","num_nodes":"47","size_leaf_vector":"1"}},{"base_weights":[-3.1355782E-3,1.5857924E0,-3.5091716E-1,2.2037168E0,-7.834777E-1,-1.0658584E0,6.3791895E-1,2.3958044E0,-6.3906586E-1,-8.3189934E-1,1.353644E-3,-1.0772924E-2,-6.2019324E-1,-8.634223E-1,1.3724887E0,-9.467802E-3,2.5001683E0,-8.811484E-3,-1.0771283E-1,-9.702894E-1,-6.4645606E-1,-7.8254044E-1,7.7667944E-2,-9.16089E-1,-5.0030875E-1,7.8321946E-1,2.5974877E0,2.5693588E-2,-1.0019339E-2,-2.7208147E-3,1.8957518E-3,-1.0047637E-2,-2.81427E-3,-2.427619E-3,-7.1061733E-3,-8.693798E-3,-3.00392E-3,5.413205E-3,-3.6463279E-3,-9.712592E-3,-6.6087265E-3,-3.180798E-3,-9.341214E-3,-7.502892E-3,1.5403374E-2,2.7903039E-2,-6.399605E-3],"categories":[],"categories_nodes":[],"categories_segments":[],"categories_sizes":[],"default_left":[0,0,0,0,0,0,0,0,0,0,0,0,0,0,0,0,0,0,0,0,0,0,0,0,0,0,0,0,0,0,0,0,0,0,0,0,0,0,0,0,0,0,0,0,0,0,0],"id":27,"left_children":[1,3,5,7,9,11,13,15,17,19,-1,-1,21,23,25,-1,27,-1,29,31,33,35,37,39,41,43,45,-1,-1,-1,-1,-1,-1,-1,-1,-1,-1,-1,-1,-1,-1,-1,-1,-1,-1,-1,-1],"loss_changes":[6.6462195E2,3.1792267E2,6.9826154E2,9.521509E1,2.1331635E0,2.2519531E0,4.5851105E2,5.850128E1,1.4034138E0,4.8348808E-1,0E0,0E0,1.9518504E0,2.1587982E0,1.9924066E2,0E0,4.0451843E1,0E0,2.8540367E-1,2.584114E-1,3.8416958E-1,3.0959225E-1,1.0299605E0,1.0239868E0,1.2474174E0,2.21405E2,5.804883E1,0E0,0E0,0E0,0E0,0E0,0E0,0E0,0E0,0E0,0E0,0E0,0E0,0E0,0E0,0E0,0E0,0E0,0E0,0E0,0E0],"parents":[2147483647,0,0,1,1,2,2,3,3,4,4,5,5,6,6,7,7,8,8,9,9,12,12,13,13,14,14,16,16,18,18,19,19,20,20,21,21,22,22,23,23,24,24,25,25,26,26],"right_children":[2,4,6,8,10,12,14,16,18,20,-1,-1,22,24,26,-1,28,-1,30,32,34,36,38,40,42,44,46,-1,-1,-1,-1,-1,-1,-1,-1,-1,-1,-1,-1,-1,-1,-1,-1,-1,-1,-1,-1],"split_conditions":[3E0,5.8E-1,4E0,1E0,9.9E-1,6E0,7.7E-1,4.5E-1,1E0,7.6E-1,1.353644E-3,-1.0772924E-2,1E0,6E0,6E0,-9.467802E-3,4E0,-8.811484E-3,4E0,1E0,7.9E-1,9E-1,1E0,1E0,6E0,5E0,6E0,2.5693588E-2,-1.0019339E-2,-2.7208147E-3,1.8957518E-3,-1.0047637E-2,-2.81427E-3,-2.427619E-3,-7.1061733E-3,-8.693798E-3,-3.00392E-3,5.413205E-3,-3.6463279E-3,-9.712592E-3,-6.6087265E-3,-3.180798E-3,-9.341214E-3,-7.502892E-3,1.5403374E-2,2.7903039E-2,-6.399605E-3],"split_indices":[1,0,2,16,0,1,0,0,13,0,0,0,14,1,1,0,2,0,2,11,0,0,16,15,2,2,2,0,0,0,0,0,0,0,0,0,0,0,0,0,0,0,0,0,0,0,0],"split_type":[0,0,0,0,0,0,0,0,0,0,0,0,0,0,0,0,0,0,0,0,0,0,0,0,0,0,0,0,0,0,0,0,0,0,0,0,0,0,0,0,0,0,0,0,0,0,0],"sum_hessian":[1.2007112E3,2.149766E2,9.857346E2,1.7056244E2,4.441415E1,5.720542E2,4.1368042E2,1.5991423E2,1.0648214E1,4.2280647E1,2.1335065E0,5.5636273E2,1.5691455E1,1.358499E2,2.7783054E2,4.5973616E0,1.5531686E2,6.8630996E0,3.7851148E0,2.1788418E1,2.0492228E1,1.2631565E1,3.0598898E0,1.1731188E2,1.8538008E1,1.8869885E2,8.913167E1,1.5256892E2,2.747945E0,2.4920595E0,1.2930553E0,2.0313253E1,1.4751644E0,3.46631E0,1.7025919E1,1.0023163E1,2.6084027E0,1.3845876E0,1.675302E0,9.415314E1,2.315875E1,1.4274872E1,4.2631364E0,6.237338E1,1.2632548E2,8.42519E1,4.879767E0],"tree_param":{"num_deleted":"0","num_feature":"17","num_nodes":"47","size_leaf_vector":"1"}},{"base_weights":[-3.204453E-3,1.5635504E0,-3.4880984E-1,2.1676812E0,-7.80316E-1,-1.0636503E0,6.303478E-1,2.3550122E0,-6.3609815E-1,-8.288244E-1,1.3436096E-3,-1.0751503E-2,-6.171397E-1,-8.603249E-1,1.3510991E0,-9.444183E-3,2.456652E0,-8.784133E-3,-1.0687837E-1,-6.458028E-1,-9.708304E-3,-7.795381E-1,7.731384E-2,-9.131331E-1,-4.975006E-1,-9.126066E-1,1.6542351E0,-9.190778E-3,2.5263473E-2,-2.7050353E-3,1.8837415E-3,-7.314689E-3,-1.6042723E-4,-8.664954E-3,-2.9867114E-3,5.371246E-3,-3.629288E-3,-9.685273E-3,-6.5753805E-3,-3.1576117E-3,-9.317471E-3,-9.639778E-3,2.7070588E-3,-7.293697E-3,1.90769E-2],"categories":[],"categories_nodes":[],"categories_segments":[],"categories_sizes":[],"default_left":[0,0,0,0,0,0,0,0,0,0,0,0,0,0,0,0,0,0,0,0,0,0,0,0,0,0,0,0,0,0,0,0,0,0,0,0,0,0,0,0,0,0,0,0,0],"id":28,"left_children":[1,3,5,7,9,11,13,15,17,19,-1,-1,21,23,25,-1,27,-1,29,31,-1,33,35,37,39,41,43,-1,-1,-1,-1,-1,-1,-1,-1,-1,-1,-1,-1,-1,-1,-1,-1,-1,-1],"loss_changes":[6.4967084E2,3.08726E2,6.886911E2,9.2185974E1,2.1155548E0,2.2559814E0,4.4749707E2,5.666748E1,1.393805E0,4.9152565E-1,0E0,0E0,1.9349666E0,2.1516342E0,1.9393567E2,0E0,3.937628E1,0E0,2.819798E-1,1.1637697E0,0E0,3.0832195E-1,1.0168557E0,1.0271912E0,1.242938E0,2.3132248E0,1.5101001E2,0E0,0E0,0E0,0E0,0E0,0E0,0E0,0E0,0E0,0E0,0E0,0E0,0E0,0E0,0E0,0E0,0E0,0E0],"parents":[2147483647,0,0,1,1,2,2,3,3,4,4,5,5,6,6,7,7,8,8,9,9,12,12,13,13,14,14,16,16,18,18,19,19,21,21,22,22,23,23,24,24,25,25,26,26],"right_children":[2,4,6,8,10,12,14,16,18,20,-1,-1,22,24,26,-1,28,-1,30,32,-1,34,36,38,40,42,44,-1,-1,-1,-1,-1,-1,-1,-1,-1,-1,-1,-1,-1,-1,-1,-1,-1,-1],"split_conditions":[3E0,5.8E-1,4E0,1E0,9.9E-1,6E0,7.7E-1,4.5E-1,1E0,1E0,1.3436096E-3,-1.0751503E-2,1E0,6E0,4E0,-9.444183E-3,3E0,-8.784133E-3,4E0,1E0,-9.708304E-3,9E-1,1E0,1E0,6E0,1E0,1E0,-9.190778E-3,2.5263473E-2,-2.7050353E-3,1.8837415E-3,-7.314689E-3,-1.6042723E-4,-8.664954E-3,-2.9867114E-3,5.371246E-3,-3.629288E-3,-9.685273E-3,-6.5753805E-3,-3.1576117E-3,-9.317471E-3,-9.639778E-3,2.7070588E-3,-7.293697E-3,1.90769E-2],"split_indices":[1,0,2,16,0,1,0,0,13,5,0,0,14,1,1,0,2,0,2,14,0,0,16,15,2,0,16,0,0,0,0,0,0,0,0,0,0,0,0,0,0,0,0,0,0],"split_type":[0,0,0,0,0,0,0,0,0,0,0,0,0,0,0,0,0,0,0,0,0,0,0,0,0,0,0,0,0,0,0,0,0,0,0,0,0,0,0,0,0,0,0,0,0],"sum_hessian":[1.197801E3,2.1583202E2,9.81969E2,1.7166148E2,4.4170525E1,5.6754376E2,4.1442526E2,1.6106049E2,1.0601001E1,4.2035122E1,2.135403E0,5.5192084E2,1.5622886E1,1.3500713E2,2.7941815E2,4.565432E0,1.5649506E2,6.81896E0,3.7820408E0,2.0789152E1,2.124597E1,1.2562596E1,3.0602899E0,1.1652976E2,1.8477354E1,3.2760975E1,2.4665717E2,2.9191244E0,1.5357593E2,2.4873865E0,1.2946544E0,1.8157667E1,2.631486E0,9.95961E0,2.602986E0,1.3892376E0,1.6710522E0,9.348071E1,2.3049053E1,1.4243401E1,4.233954E0,3.157554E1,1.1854343E0,2.3526419E1,2.2313075E2],"tree_param":{"num_deleted":"0","num_feature":"17","num_nodes":"45","size_leaf_vector":"1"}},{"base_weights":[-3.2856264E-3,1.5421994E0,-3.467665E-1,2.1332264E0,-7.770989E-1,-1.0614562E0,6.229621E-1,2.3160808E0,-6.331417E-1,-8.256935E-1,1.3336537E-3,-1.0730229E-2,-6.140984E-1,-8.57235E-1,1.3304976E0,2.412457E0,-1.0478435E-2,-8.756872E-3,-1.06050715E-1,-9.65433E-1,-6.39135E-1,-7.765442E-1,7.695742E-2,-9.101849E-1,-4.9470472E-1,7.5788987E-1,2.5103679E0,-9.6874535E-3,2.5068343E-2,-2.6893395E-3,1.8718097E-3,-1.03521105E-2,-4.770814E-3,-2.3602159E-3,-7.0365267E-3,-8.636193E-3,-2.969591E-3,5.3296653E-3,-3.6123241E-3,-9.658045E-3,-6.5421253E-3,-3.1345577E-3,-9.293839E-3,-7.511529E-3,1.4921594E-2,2.6956625E-2,-6.453213E-3],"categories":[],"categories_nodes":[],"categories_segments":[],"categories_sizes":[],"default_left":[0,0,0,0,0,0,0,0,0,0,0,0,0,0,0,0,0,0,0,0,0,0,0,0,0,0,0,0,0,0,0,0,0,0,0,0,0,0,0,0,0,0,0,0,0,0,0],"id":29,"left_children":[1,3,5,7,9,11,13,15,17,19,-1,-1,21,23,25,27,-1,-1,29,31,33,35,37,39,41,43,45,-1,-1,-1,-1,-1,-1,-1,-1,-1,-1,-1,-1,-1,-1,-1,-1,-1,-1,-1,-1],"loss_changes":[6.352919E2,2.999549E2,6.792566E2,8.932501E1,2.0977974E0,2.2598267E0,4.3688995E2,5.5415955E1,1.3842506E0,4.9843597E-1,0E0,0E0,1.9181852E0,2.1444473E0,1.8855127E2,5.3132446E1,0E0,0E0,2.7859592E-1,2.7301216E-1,3.8745403E-1,3.0705357E-1,1.0039245E0,1.0303879E0,1.2384624E0,2.1300708E2,5.5345947E1,0E0,0E0,0E0,0E0,0E0,0E0,0E0,0E0,0E0,0E0,0E0,0E0,0E0,0E0,0E0,0E0,0E0,0E0,0E0,0E0],"parents":[2147483647,0,0,1,1,2,2,3,3,4,4,5,5,6,6,7,7,8,8,9,9,12,12,13,13,14,14,15,15,18,18,19,19,20,20,21,21,22,22,23,23,24,24,25,25,26,26],"right_children":[2,4,6,8,10,12,14,16,18,20,-1,-1,22,24,26,28,-1,-1,30,32,34,36,38,40,42,44,46,-1,-1,-1,-1,-1,-1,-1,-1,-1,-1,-1,-1,-1,-1,-1,-1,-1,-1,-1,-1],"split_conditions":[3E0,5.8E-1,4E0,1E0,9.9E-1,6E0,7.7E-1,4E0,1E0,7.6E-1,1.3336537E-3,-1.0730229E-2,1E0,6E0,6E0,3E0,-1.0478435E-2,-8.756872E-3,4E0,1E0,7.9E-1,9E-1,1E0,1E0,6E0,5E0,6E0,-9.6874535E-3,2.5068343E-2,-2.6893395E-3,1.8718097E-3,-1.03521105E-2,-4.770814E-3,-2.3602159E-3,-7.0365267E-3,-8.636193E-3,-2.969591E-3,5.3296653E-3,-3.6123241E-3,-9.658045E-3,-6.5421253E-3,-3.1345577E-3,-9.293839E-3,-7.511529E-3,1.4921594E-2,2.6956625E-2,-6.453213E-3],"split_indices":[1,0,2,16,0,1,0,2,13,0,0,0,14,1,1,2,0,0,2,15,0,0,16,15,2,2,2,0,0,0,0,0,0,0,0,0,0,0,0,0,0,0,0,0,0,0,0],"split_type":[0,0,0,0,0,0,0,0,0,0,0,0,0,0,0,0,0,0,0,0,0,0,0,0,0,0,0,0,0,0,0,0,0,0,0,0,0,0,0,0,0,0,0,0,0,0,0],"sum_hessian":[1.1947494E3,2.1661317E2,9.781363E2,1.7268744E2,4.3925728E1,5.6306384E2,4.1507248E2,1.6213333E2,1.0554107E1,4.178844E1,2.137286E0,5.4750903E2,1.5554786E1,1.3417032E2,2.8090213E2,1.5789258E2,4.240761E0,6.775118E0,3.7789888E0,2.1505232E1,2.0283209E1,1.2494103E1,3.060682E0,1.15753174E2,1.841715E1,1.9022542E2,9.067673E1,4.0359054E0,1.5385667E2,2.482745E0,1.2962439E0,1.7836813E1,3.6684191E0,3.441099E0,1.684211E1,9.896498E0,2.5976057E0,1.3938543E0,1.6668277E0,9.281299E1,2.2940187E1,1.421219E1,4.204961E0,6.2256092E1,1.2796933E2,8.5785385E1,4.8913364E0],"tree_param":{"num_deleted":"0","num_feature":"17","num_nodes":"47","size_leaf_vector":"1"}},{"base_weights":[-3.3546141E-3,1.5213757E0,-3.4470427E-1,2.099902E0,-7.739772E-1,-1.0592761E0,6.157031E-1,2.2784855E0,-6.3019645E-1,-8.2265663E-1,1.3237762E-3,-1.07091E-2,-6.110693E-1,-8.5415226E-1,1.3103089E0,-9.433228E-3,2.3762407E0,-8.729702E-3,-1.0522959E-1,-6.385172E-1,-9.659666E-3,-7.735587E-1,7.659863E-2,-9.072441E-1,-4.9192098E-1,-9.1078806E-1,1.6026459E0,2.4419844E-2,-1.0038075E-2,-2.6737254E-3,1.8599574E-3,-7.246808E-3,-1.030179E-4,-8.607513E-3,-2.952558E-3,5.288455E-3,-3.5954379E-3,-9.630904E-3,-6.5089595E-3,-5.594694E-3,3.178202E-3,-9.62361E-3,2.7184945E-3,-7.290096E-3,1.8469179E-2],"categories":[],"categories_nodes":[],"categories_segments":[],"categories_sizes":[],"default_left":[0,0,0,0,0,0,0,0,0,0,0,0,0,0,0,0,0,0,0,0,0,0,0,0,0,0,0,0,0,0,0,0,0,0,0,0,0,0,0,0,0,0,0,0,0],"id":30,"left_children":[1,3,5,7,9,11,13,15,17,19,-1,-1,21,23,25,-1,27,-1,29,31,-1,33,35,37,39,41,43,-1,-1,-1,-1,-1,-1,-1,-1,-1,-1,-1,-1,-1,-1,-1,-1,-1,-1],"loss_changes":[6.212848E2,2.915871E2,6.700108E2,8.659656E1,2.080536E0,2.2636108E0,4.265869E2,5.3944397E1,1.374752E0,5.060139E-1,0E0,0E0,1.901506E0,2.137268E0,1.854668E2,0E0,3.7920044E1,0E0,2.7525154E-1,1.1601753E0,0E0,3.0578613E-1,9.911642E-1,1.0335388E0,1.2365975E0,2.3108692E0,1.441864E2,0E0,0E0,0E0,0E0,0E0,0E0,0E0,0E0,0E0,0E0,0E0,0E0,0E0,0E0,0E0,0E0,0E0,0E0],"parents":[2147483647,0,0,1,1,2,2,3,3,4,4,5,5,6,6,7,7,8,8,9,9,12,12,13,13,14,14,16,16,18,18,19,19,21,21,22,22,23,23,24,24,25,25,26,26],"right_children":[2,4,6,8,10,12,14,16,18,20,-1,-1,22,24,26,-1,28,-1,30,32,-1,34,36,38,40,42,44,-1,-1,-1,-1,-1,-1,-1,-1,-1,-1,-1,-1,-1,-1,-1,-1,-1,-1],"split_conditions":[3E0,5.8E-1,4E0,1E0,9.9E-1,6E0,7.7E-1,4.5E-1,1E0,1E0,1.3237762E-3,-1.07091E-2,1E0,6E0,4E0,-9.433228E-3,4E0,-8.729702E-3,4E0,1E0,-9.659666E-3,9E-1,1E0,1E0,1E0,1E0,1E0,2.4419844E-2,-1.0038075E-2,-2.6737254E-3,1.8599574E-3,-7.246808E-3,-1.030179E-4,-8.607513E-3,-2.952558E-3,5.288455E-3,-3.5954379E-3,-9.630904E-3,-6.5089595E-3,-5.594694E-3,3.178202E-3,-9.62361E-3,2.7184945E-3,-7.290096E-3,1.8469179E-2],"split_indices":[1,0,2,16,0,1,0,0,13,5,0,0,14,1,1,0,2,0,2,14,0,0,16,15,6,0,16,0,0,0,0,0,0,0,0,0,0,0,0,0,0,0,0,0,0],"split_type":[0,0,0,0,0,0,0,0,0,0,0,0,0,0,0,0,0,0,0,0,0,0,0,0,0,0,0,0,0,0,0,0,0,0,0,0,0,0,0,0,0,0,0,0,0],"sum_hessian":[1.1917008E3,2.1735757E2,9.743432E2,1.7367041E2,4.3687164E1,5.586144E2,4.157288E2,1.6316289E2,1.0507531E1,4.1548008E1,2.1391554E0,5.4312726E2,1.548715E1,1.3333948E2,2.823893E2,4.550125E0,1.5861276E2,6.7315736E0,3.7759576E0,2.0571333E1,2.0976675E1,1.24260845E1,3.061066E0,1.1498208E2,1.8357395E1,3.2598576E1,2.4979074E2,1.5585875E2,2.7540097E0,2.4781337E0,1.2978239E0,1.7955122E1,2.6162117E0,9.833824E0,2.592261E0,1.3984382E0,1.6626276E0,9.214993E1,2.2832148E1,1.7229214E1,1.1281806E0,3.1414879E1,1.1836972E0,2.3499176E1,2.2629156E2],"tree_param":{"num_deleted":"0","num_feature":"17","num_nodes":"45","size_leaf_vector":"1"}},{"base_weights":[-3.4255956E-3,1.5012416E0,-3.4269437E-1,2.0677433E0,-7.707756E-1,-1.0571094E0,6.0864264E-1,2.2422612E0,-6.2726223E-1,-8.1953984E-1,1.3139735E-3,-1.0688113E-2,-6.0805225E-1,-8.5104126E-1,1.2908212E0,-9.4097685E-3,2.3376665E0,-8.702618E-3,-1.04415044E-1,-9.6065E-1,-6.3184583E-1,-7.7058136E-1,7.623762E-2,-9.043104E-1,-4.8878986E-1,-9.0748805E-1,1.576554E0,-9.208519E-3,2.404032E-2,-2.6581937E-3,1.8481831E-3,-1.0311639E-2,-4.70176E-3,-2.2934312E-3,-6.967188E-3,-8.578913E-3,-2.9356116E-3,5.247612E-3,-3.5786268E-3,-9.603848E-3,-6.4758826E-3,-3.0747429E-3,-9.25738E-3,-9.592358E-3,2.70102E-3,-7.255208E-3,1.814762E-2],"categories":[],"categories_nodes":[],"categories_segments":[],"categories_sizes":[],"default_left":[0,0,0,0,0,0,0,0,0,0,0,0,0,0,0,0,0,0,0,0,0,0,0,0,0,0,0,0,0,0,0,0,0,0,0,0,0,0,0,0,0,0,0,0,0,0,0],"id":31,"left_children":[1,3,5,7,9,11,13,15,17,19,-1,-1,21,23,25,-1,27,-1,29,31,33,35,37,39,41,43,45,-1,-1,-1,-1,-1,-1,-1,-1,-1,-1,-1,-1,-1,-1,-1,-1,-1,-1,-1,-1],"loss_changes":[6.077563E2,2.8353394E2,6.6091266E2,8.3997986E1,2.0630207E0,2.2675781E0,4.166207E2,5.2353333E1,1.3653054E0,5.1348305E-1,0E0,0E0,1.8849282E0,2.1342773E0,1.803099E2,0E0,3.6949646E1,0E0,2.7194625E-1,2.8391647E-1,3.9057064E-1,3.0452156E-1,9.7857237E-1,1.0366669E0,1.243772E0,2.2939377E0,1.3971967E2,0E0,0E0,0E0,0E0,0E0,0E0,0E0,0E0,0E0,0E0,0E0,0E0,0E0,0E0,0E0,0E0,0E0,0E0,0E0,0E0],"parents":[2147483647,0,0,1,1,2,2,3,3,4,4,5,5,6,6,7,7,8,8,9,9,12,12,13,13,14,14,16,16,18,18,19,19,20,20,21,21,22,22,23,23,24,24,25,25,26,26],"right_children":[2,4,6,8,10,12,14,16,18,20,-1,-1,22,24,26,-1,28,-1,30,32,34,36,38,40,42,44,46,-1,-1,-1,-1,-1,-1,-1,-1,-1,-1,-1,-1,-1,-1,-1,-1,-1,-1,-1,-1],"split_conditions":[3E0,5.8E-1,4E0,1E0,9.9E-1,6E0,7.7E-1,4.5E-1,1E0,7.6E-1,1.3139735E-3,-1.0688113E-2,1E0,6E0,4E0,-9.4097685E-3,3E0,-8.702618E-3,4E0,1E0,7.9E-1,9E-1,1E0,1E0,6E0,1E0,1E0,-9.208519E-3,2.404032E-2,-2.6581937E-3,1.8481831E-3,-1.0311639E-2,-4.70176E-3,-2.2934312E-3,-6.967188E-3,-8.578913E-3,-2.9356116E-3,5.247612E-3,-3.5786268E-3,-9.603848E-3,-6.4758826E-3,-3.0747429E-3,-9.25738E-3,-9.592358E-3,2.70102E-3,-7.255208E-3,1.814762E-2],"split_indices":[1,0,2,16,0,1,0,0,13,0,0,0,14,1,1,0,2,0,2,15,0,0,16,15,2,0,16,0,0,0,0,0,0,0,0,0,0,0,0,0,0,0,0,0,0,0,0],"split_type":[0,0,0,0,0,0,0,0,0,0,0,0,0,0,0,0,0,0,0,0,0,0,0,0,0,0,0,0,0,0,0,0,0,0,0,0,0,0,0,0,0,0,0,0,0,0,0],"sum_hessian":[1.1885354E3,2.180504E2,9.70485E2,1.7460461E2,4.344578E1,5.541956E2,4.1628937E2,1.6414334E2,1.0461275E1,4.130477E1,2.1410117E0,5.3877563E2,1.5419981E1,1.3250842E2,2.8378094E2,4.5185056E0,1.5962483E2,6.688328E0,3.7729478E0,2.1227535E1,2.0077234E1,1.235854E1,3.061442E0,1.1421649E2,1.8291922E1,3.2392265E1,2.5138867E2,2.9291713E0,1.5669566E2,2.4735534E0,1.2993944E0,1.75955E1,3.6320333E0,3.41628E0,1.6660954E1,9.771587E0,2.5869524E0,1.4029894E0,1.6584525E0,9.149157E1,2.2724928E1,1.413158E1,4.1603403E0,3.1206364E1,1.1859002E0,2.338145E1,2.2800722E2],"tree_param":{"num_deleted":"0","num_feature":"17","num_nodes":"47","size_leaf_vector":"1"}},{"base_weights":[-3.5091091E-3,1.4817795E0,-3.4071305E-1,2.03693E0,-7.6766944E-1,-1.054956E0,6.016901E-1,2.2076106E0,-6.2433904E-1,-8.165171E-1,1.3042482E-3,-1.0667264E-2,-6.0504717E-1,-8.479723E-1,1.2718604E0,